~o
<STREAMINFO> 1 39
<VECSIZE> 39 <NULLD> <MFCC_E_D_A>
~h "Colon"
<BEGINHMM>
<NUMSTATES> 7
<STATE> 2
<NUMMIXES> 5
<MIXTURE> 1 0.07630454
<MEAN> 39
 -2.227671E001 1.063792E001 -4.285218E000 5.934234E-001 -1.549946E000 7.264530E000 -7.065365E000 2.046487E000 -2.475297E-001 1.638862E000 -2.170003E000 3.301564E-014 -1.512925E-001 8.226942E-001 -1.121055E000 -3.949985E-001 6.119104E-003 -3.834587E-001 -4.592634E-001 3.438056E-001 2.261563E-001 -3.165686E-001 -3.803669E-002 2.451277E-001 3.909438E-015 0.000000E000 5.146305E-001 -6.113333E-001 5.707241E-002 3.215988E-003 -1.043004E-001 -3.448907E-001 2.680908E-001 2.833076E-002 -9.034026E-002 -5.423282E-003 1.077816E-001 3.261324E-015 1.625537E-003
<VARIANCE> 39
 5.336504E-001 1.394291E000 2.112900E000 1.051602E000 1.563910E000 1.221538E000 1.761880E000 2.324808E000 1.049439E000 1.288337E000 1.663240E000 1.000000E-004 1.000000E-004 8.612478E-001 1.542114E000 2.794017E-001 2.787429E-001 4.508469E-001 6.630103E-001 6.044157E-001 4.457206E-001 4.158797E-001 2.157540E-001 3.660963E-001 1.000000E-004 1.000000E-004 8.931591E-002 1.144327E-001 1.125273E-001 4.839469E-002 8.646786E-002 6.130701E-002 8.482044E-002 5.329200E-002 6.643832E-002 3.715213E-002 4.798399E-002 1.000000E-004 1.000000E-004
<MIXTURE> 2 0.2649051
<MEAN> 39
 -8.246608E000 3.171191E000 -2.148345E000 -3.635775E000 -7.132095E-001 -2.223709E000 7.536336E-002 -2.250374E-001 -3.809369E-001 -3.631367E-001 5.553301E-002 1.611768E-013 1.296267E-001 6.097368E-002 8.801144E-002 4.936772E-002 1.249281E-002 2.985957E-002 5.909603E-002 5.193248E-002 1.700249E-003 2.595185E-002 3.348080E-002 4.145059E-002 -3.818185E-017 1.729664E-003 -5.003728E-004 6.461457E-002 1.493888E-001 1.475314E-001 1.752991E-001 1.346746E-001 3.399929E-002 2.105902E-002 2.438128E-003 1.610760E-002 2.319181E-002 -7.153830E-017 4.048883E-003
<VARIANCE> 39
 1.163356E000 1.863810E000 1.672924E000 2.471110E000 3.448248E000 3.652259E000 4.496846E000 4.336799E000 3.422539E000 3.130569E000 3.276025E000 1.000000E-004 1.024686E-002 6.727534E-002 1.214103E-001 2.178240E-001 2.582384E-001 4.092787E-001 3.578629E-001 4.171406E-001 3.886541E-001 3.450859E-001 2.851366E-001 2.466886E-001 1.000000E-004 3.145228E-004 1.493813E-002 1.846792E-002 2.596289E-002 3.273454E-002 6.316121E-002 6.242401E-002 6.328561E-002 6.666112E-002 5.867267E-002 5.890997E-002 5.093414E-002 1.000000E-004 1.000000E-004
<MIXTURE> 3 0.24890998
<MEAN> 39
 -8.286182E000 3.409085E000 -1.333932E000 -2.480078E000 9.156051E-001 -1.656651E-002 2.574492E000 2.091431E000 9.719912E-001 2.939861E-001 3.643701E-001 1.605951E-013 1.929389E-001 5.244782E-003 -4.057916E-002 -6.303910E-002 -5.995903E-002 -3.466147E-002 -1.055763E-002 -5.104445E-002 -9.857729E-002 -8.365306E-002 -8.025630E-002 -6.622534E-002 -1.808346E-016 -6.633151E-003 -1.857824E-002 3.114454E-002 3.051185E-002 1.756607E-002 -4.505676E-002 -1.631172E-001 -2.307960E-001 -2.315914E-001 -1.563704E-001 -9.996522E-002 -2.548003E-002 1.794962E-016 -3.059867E-004
<VARIANCE> 39
 1.106664E000 1.332613E000 2.683001E000 4.456082E000 2.626379E000 3.167015E000 3.834326E000 3.283563E000 2.939081E000 3.341615E000 3.379299E000 1.000000E-004 2.358243E-002 6.360801E-002 1.097867E-001 2.286488E-001 2.992733E-001 3.861391E-001 3.512380E-001 4.166967E-001 3.814158E-001 3.928000E-001 3.671306E-001 3.252841E-001 1.000000E-004 5.233963E-004 3.733007E-002 1.882273E-002 3.809159E-002 5.104768E-002 5.374240E-002 6.219946E-002 5.802103E-002 5.563355E-002 6.327276E-002 5.305847E-002 6.331080E-002 1.000000E-004 1.000000E-004
<MIXTURE> 4 0.20372719
<MEAN> 39
 -8.270125E000 4.115790E000 -1.851267E-001 -1.659177E000 7.692706E-001 -1.698491E000 -4.026629E-001 -3.484481E-001 1.721621E-001 5.925059E-001 8.771461E-001 1.602034E-013 1.916765E-001 6.959443E-003 4.024020E-002 6.643857E-002 3.745270E-002 6.327140E-002 1.286514E-002 7.412898E-002 9.883085E-002 5.147317E-002 1.184280E-003 -4.802774E-002 -3.372118E-016 2.428183E-003 -2.379255E-002 -8.470289E-002 -1.597344E-001 -1.275979E-001 -3.759161E-002 5.825892E-002 1.372222E-001 6.611259E-002 -5.649365E-002 -1.254864E-001 -1.062573E-001 -1.503162E-017 -3.740347E-003
<VARIANCE> 39
 8.844937E-001 1.235727E000 1.164334E000 1.966146E000 2.725984E000 3.132646E000 2.827078E000 2.766294E000 2.576476E000 2.580782E000 2.801992E000 1.000000E-004 1.638651E-002 6.197907E-002 1.078036E-001 2.013123E-001 2.511358E-001 3.207767E-001 4.140958E-001 4.829141E-001 4.566578E-001 4.264961E-001 3.890678E-001 3.051375E-001 1.000000E-004 3.267603E-004 9.514682E-003 1.901414E-002 2.570128E-002 4.238820E-002 5.556294E-002 6.226077E-002 5.506582E-002 5.659682E-002 5.239524E-002 4.623929E-002 5.051210E-002 1.000000E-004 1.000000E-004
<MIXTURE> 5 0.20615308
<MEAN> 39
 -8.007148E000 3.899340E000 -8.669010E-001 -2.196895E000 1.263179E000 -7.351516E-001 2.124588E-001 -8.937720E-001 -2.001447E000 -1.613562E000 -4.888521E-001 1.597318E-013 1.697517E-001 -2.227418E-002 -7.263193E-002 -1.072936E-001 -7.938572E-002 -4.965554E-002 -4.049946E-002 -1.667221E-002 3.925051E-003 -3.634384E-002 1.766373E-002 -2.776838E-003 -2.417789E-016 -6.686387E-003 -2.667957E-002 -3.994243E-002 -5.728553E-002 -5.337850E-002 -1.172083E-001 -4.813395E-002 8.074370E-002 1.656894E-001 2.338994E-001 1.947692E-001 1.093050E-001 1.384315E-016 -3.029330E-004
<VARIANCE> 39
 1.005929E000 1.100747E000 1.353926E000 2.349766E000 3.159484E000 2.939779E000 3.448967E000 2.350825E000 2.220099E000 2.216991E000 2.568661E000 1.000000E-004 1.025016E-002 4.724471E-002 1.008972E-001 1.879963E-001 2.515252E-001 3.022444E-001 4.028015E-001 3.706816E-001 3.879488E-001 4.113184E-001 3.282895E-001 3.544136E-001 1.000000E-004 3.144025E-004 1.279631E-002 1.710369E-002 2.661193E-002 3.872110E-002 6.075382E-002 5.712500E-002 5.559890E-002 5.299164E-002 4.691347E-002 4.343729E-002 5.257595E-002 1.000000E-004 1.000000E-004
<STATE> 3
<NUMMIXES> 5
<MIXTURE> 1 0.15315445
<MEAN> 39
 -1.670736E001 1.348140E000 -2.474559E000 -1.668058E000 7.916071E-001 -1.423829E000 -4.001296E-002 3.288752E-001 1.163612E-001 -1.432662E000 1.668556E-001 1.707358E-013 3.044452E-001 -1.260906E000 -8.469449E-001 1.354880E-001 -3.054212E-001 7.472758E-001 -6.782705E-001 3.202307E-001 -1.909535E-001 2.343848E-001 -3.474159E-001 1.615566E-001 1.507825E-014 1.083855E-001 -3.123923E-002 -9.972446E-003 7.085558E-002 -1.609248E-001 2.100436E-001 4.434016E-002 4.128206E-002 -6.794135E-002 4.561844E-002 3.367149E-002 -4.980864E-003 7.996915E-016 7.048132E-003
<VARIANCE> 39
 4.607890E001 8.802403E000 8.196620E000 7.973444E000 1.416180E001 1.083455E001 1.166809E001 9.505692E000 8.895154E000 9.625461E000 7.055698E000 1.000000E-004 1.845569E-001 7.089583E000 1.603207E000 1.356181E000 1.035731E000 1.371093E000 9.829639E-001 1.628596E000 8.331171E-001 1.096218E000 8.754299E-001 1.100825E000 1.000000E-004 9.948014E-003 9.208071E-001 2.152866E-001 2.056873E-001 1.607961E-001 2.526809E-001 1.941574E-001 2.303012E-001 1.587555E-001 2.497810E-001 1.717627E-001 1.996430E-001 1.000000E-004 2.691530E-003
<MIXTURE> 2 0.22820327
<MEAN> 39
 -2.470333E001 -4.522079E000 -4.036727E000 -4.133934E000 6.716504E000 -9.808340E-001 1.711530E000 -1.534644E000 -8.775930E-001 -2.660074E000 2.055614E000 2.472602E-013 8.899940E-001 1.323756E-001 -3.059868E-001 -2.852762E-001 -2.633114E-001 4.508376E-002 2.871976E-001 1.314131E-001 3.138153E-002 -1.830675E-001 -1.488771E-002 6.361365E-002 2.641477E-016 -3.656225E-003 8.682853E-002 9.378200E-002 -2.332323E-002 4.618838E-004 -1.109715E-001 -2.531365E-002 -7.964721E-003 7.486621E-003 1.240684E-002 -4.380852E-004 -1.073267E-002 -4.907427E-016 -5.111482E-003
<VARIANCE> 39
 4.301042E000 1.244758E001 1.187223E001 1.097170E001 1.098038E001 1.582404E001 1.784641E001 1.684224E001 1.943649E001 1.198974E001 2.763860E001 1.000000E-004 4.649405E-003 3.042601E-001 6.935301E-001 6.707548E-001 5.842881E-001 7.851069E-001 9.409857E-001 9.831765E-001 1.192624E000 1.680646E000 9.761352E-001 2.183674E000 1.000000E-004 3.784757E-004 8.313755E-002 1.223164E-001 1.221015E-001 1.144966E-001 1.211403E-001 1.721839E-001 1.671079E-001 2.278602E-001 2.975790E-001 1.843127E-001 4.355406E-001 1.000000E-004 1.344347E-004
<MIXTURE> 3 0.20913
<MEAN> 39
 -2.124064E001 -2.220108E000 -7.730927E000 -5.820849E000 1.949947E000 -2.082170E000 8.775498E-001 -4.516414E-001 1.645092E-002 -2.663828E000 1.221155E000 2.301246E-013 7.102616E-001 3.848678E-001 -1.496070E-003 6.008728E-002 6.474865E-002 -2.492017E-003 3.199344E-003 1.635144E-002 -4.881754E-002 2.543887E-002 1.778672E-001 -1.971332E-002 -2.407209E-015 -3.014673E-002 3.005835E-003 -3.346731E-002 7.363790E-002 3.007107E-002 8.694495E-002 2.412704E-002 1.866297E-002 4.635378E-004 -1.037716E-002 2.821808E-003 1.594160E-002 -1.107772E-016 -1.414686E-003
<VARIANCE> 39
 6.280024E000 1.029160E001 6.231785E000 6.670162E000 1.125070E001 1.182377E001 1.175543E001 7.621705E000 8.440516E000 9.164682E000 9.099204E000 1.000000E-004 3.966946E-002 1.882881E-001 2.817072E-001 3.776523E-001 3.881136E-001 4.624976E-001 6.102068E-001 4.658668E-001 5.075385E-001 5.357944E-001 5.836682E-001 4.470373E-001 1.000000E-004 8.472958E-004 2.615227E-002 4.687539E-002 6.144419E-002 6.859299E-002 8.151775E-002 1.055678E-001 9.232507E-002 1.036767E-001 1.003146E-001 1.097384E-001 8.446751E-002 1.000000E-004 1.000000E-004
<MIXTURE> 4 0.15869941
<MEAN> 39
 -1.068978E001 1.392062E000 -1.472814E000 -2.387204E000 4.495819E-001 -9.358346E-001 6.105151E-001 2.324805E-001 -7.152943E-002 -5.197101E-001 -3.847093E-001 1.505931E-013 3.061689E-002 3.918885E-002 1.548210E-001 1.843430E-002 4.439661E-002 -1.127109E-001 8.237002E-003 -4.937610E-002 -1.907501E-002 1.786687E-002 1.269820E-002 -3.178617E-002 -9.466514E-016 -5.089977E-003 -3.919753E-002 -2.296008E-002 -1.140985E-002 8.772236E-003 2.736004E-002 1.757652E-002 1.632751E-002 -1.880841E-003 1.831100E-003 -1.175907E-002 1.059530E-003 1.737729E-016 1.488145E-003
<VARIANCE> 39
 1.516650E000 4.123280E000 3.506138E000 4.828362E000 5.062711E000 5.438240E000 6.623467E000 5.945159E000 5.738603E000 3.652828E000 3.969037E000 1.000000E-004 2.013431E-002 6.834355E-002 1.467439E-001 2.306553E-001 3.196480E-001 3.656364E-001 3.834531E-001 5.435770E-001 4.026950E-001 3.404680E-001 2.899452E-001 2.307776E-001 1.000000E-004 3.310739E-004 2.198446E-002 2.741656E-002 4.413275E-002 6.030551E-002 7.227513E-002 7.855150E-002 1.000181E-001 6.560053E-002 5.803515E-002 5.034570E-002 4.320334E-002 1.000000E-004 1.000000E-004
<MIXTURE> 5 0.25081292
<MEAN> 39
 -1.429433E001 -4.321997E000 -3.405308E000 -4.133492E000 4.315088E000 -6.460184E-001 2.091383E000 -8.730541E-001 -5.783388E-001 -3.504665E-001 8.099722E-001 1.839337E-013 1.587186E-001 2.753617E-001 9.099024E-002 2.105021E-001 1.220981E-001 -5.804250E-002 -7.744474E-003 -4.873511E-002 -3.747096E-003 -3.656675E-002 -1.206883E-003 -1.658196E-002 -1.890641E-015 -1.643088E-002 -1.716529E-002 3.351814E-002 -1.817593E-002 -1.320299E-003 -4.016670E-002 -8.131834E-003 -1.724931E-002 8.007839E-003 -8.562670E-003 -1.978648E-002 -7.783794E-003 7.046977E-017 1.879835E-003
<VARIANCE> 39
 4.948485E000 6.144176E000 4.759440E000 4.834675E000 7.625537E000 9.139734E000 9.077069E000 7.342175E000 1.070921E001 6.300847E000 8.502440E000 1.000000E-004 1.520540E-002 7.506746E-002 1.531627E-001 2.198752E-001 2.777810E-001 4.167482E-001 4.637056E-001 4.250069E-001 4.663542E-001 4.673053E-001 4.115331E-001 3.146410E-001 1.000000E-004 1.285110E-004 1.379958E-002 2.701664E-002 3.912970E-002 5.358180E-002 8.020163E-002 9.216385E-002 7.628565E-002 8.614635E-002 9.823855E-002 8.572378E-002 5.923887E-002 1.000000E-004 1.000000E-004
<STATE> 4
<NUMMIXES> 5
<MIXTURE> 1 0.26669344
<MEAN> 39
 -2.377253E001 -7.182030E000 -5.423556E000 -4.595043E000 7.995601E000 2.957153E000 2.485970E000 -3.908455E000 -3.413014E000 -1.432888E000 5.117036E000 2.459574E-013 7.307637E-001 2.509589E-001 -4.810458E-002 -6.397790E-002 1.248521E-001 -1.011426E-001 3.138807E-002 -1.358786E-001 -2.521870E-002 2.251074E-002 1.545059E-001 3.946933E-003 -2.377841E-015 -2.607841E-002 2.693384E-002 -1.382226E-002 3.223760E-002 5.920206E-003 5.170840E-003 -2.159697E-002 9.129840E-003 9.812064E-003 1.296696E-002 -1.399207E-002 -5.066341E-002 -2.733417E-016 -2.054805E-003
<VARIANCE> 39
 5.307045E000 7.240069E000 1.433565E001 7.490834E000 7.449730E000 6.841455E000 1.364213E001 9.038038E000 1.047586E001 1.163664E001 1.534943E001 1.000000E-004 2.438611E-002 3.754003E-001 6.693091E-001 4.642302E-001 4.420224E-001 4.185598E-001 5.584579E-001 6.029293E-001 3.753172E-001 6.779845E-001 8.034324E-001 1.115659E000 1.000000E-004 6.780474E-004 6.272975E-002 1.390844E-001 7.342835E-002 8.460525E-002 7.998782E-002 1.140844E-001 1.155227E-001 6.170899E-002 1.066082E-001 1.487871E-001 1.897770E-001 1.000000E-004 1.000000E-004
<MIXTURE> 2 0.26704234
<MEAN> 39
 -1.616063E001 -8.075689E000 -3.184580E000 -3.967554E000 7.860415E000 1.428443E000 1.911941E000 -2.782809E000 -3.132223E000 -1.470810E-001 2.297592E000 1.912357E-013 1.856997E-001 3.893124E-001 4.895132E-002 2.280602E-001 8.824024E-002 -7.152346E-002 -1.572120E-002 -5.800760E-002 -9.174076E-003 -5.689503E-002 9.803966E-002 1.347455E-002 -2.263712E-015 -2.043991E-002 -1.915843E-002 3.974256E-002 -1.497092E-002 1.587703E-002 -3.607767E-002 -6.760170E-003 -7.607383E-003 1.706251E-002 1.127384E-002 -1.193021E-002 -2.283465E-003 1.137024E-016 1.952669E-003
<VARIANCE> 39
 4.939099E000 2.515550E000 9.845002E000 8.148197E000 6.166772E000 6.673340E000 2.313550E001 1.188859E001 8.135300E000 1.116625E001 7.985282E000 1.000000E-004 1.149379E-002 7.316054E-002 1.188179E-001 2.932812E-001 3.081528E-001 3.596390E-001 3.841149E-001 4.436862E-001 5.791086E-001 3.513866E-001 4.056093E-001 3.232621E-001 1.000000E-004 1.138352E-004 1.363816E-002 2.109021E-002 4.595798E-002 7.020253E-002 5.762839E-002 6.829370E-002 8.016133E-002 1.269341E-001 6.542996E-002 7.606731E-002 6.767575E-002 1.000000E-004 1.000000E-004
<MIXTURE> 3 0.0886552
<MEAN> 39
 -6.551885E000 -2.923591E000 2.049795E000 -6.870722E000 3.264882E000 -1.701099E000 3.441328E000 8.428831E-001 3.412207E-001 -1.313897E-001 -1.826528E-001 1.630724E-013 1.157751E-001 8.544061E-001 -3.977343E-001 6.755555E-001 -1.431730E000 6.078091E-001 -5.161812E-001 1.022218E000 -1.904651E-001 4.529812E-001 -2.205321E-001 -7.399588E-002 1.049074E-014 4.224509E-002 -6.144796E-001 2.515062E-001 -5.451638E-001 5.162084E-001 -5.946785E-001 2.839434E-001 -5.143749E-001 1.594183E-001 -1.562802E-001 1.829923E-001 9.344785E-003 -6.312499E-015 -2.013552E-002
<VARIANCE> 39
 5.692102E-001 1.266249E000 1.489227E000 4.027432E000 4.031789E000 3.958373E000 4.030241E000 4.402894E000 3.007117E000 3.191348E000 2.185277E000 1.000000E-004 4.300034E-003 7.530018E-001 2.890406E-001 7.465925E-001 8.580350E-001 1.177421E000 5.275317E-001 1.317735E000 4.346622E-001 6.913630E-001 5.213003E-001 3.949457E-001 1.000000E-004 1.300324E-003 3.705646E-002 5.140406E-002 6.429217E-002 8.059094E-002 1.252940E-001 1.041623E-001 1.587211E-001 7.025403E-002 1.082864E-001 9.116390E-002 6.222665E-002 1.000000E-004 1.000000E-004
<MIXTURE> 4 0.17667742
<MEAN> 39
 -1.086327E001 -3.160466E000 -3.221799E000 -2.244313E000 2.616521E000 1.411426E000 2.383784E000 -1.036054E000 -4.014635E000 -1.361481E000 8.657052E-001 1.574563E-013 -4.717924E-002 1.273024E-001 4.427705E-001 1.346207E-001 2.577046E-001 -1.927849E-001 -7.789289E-002 -2.029112E-001 5.129851E-003 7.217146E-002 1.924168E-002 3.210834E-002 -1.528276E-015 -7.610864E-003 -4.269901E-002 1.035342E-002 2.903517E-002 3.305780E-002 3.045605E-002 -1.154089E-002 -7.719918E-003 1.982516E-002 7.111958E-002 5.436872E-002 4.260745E-002 9.045570E-017 9.857588E-004
<VARIANCE> 39
 9.813741E-001 4.349323E000 3.757040E000 6.671799E000 5.341776E000 5.526243E000 1.309510E001 1.198078E001 1.235561E001 6.958322E000 5.000481E000 1.000000E-004 3.111361E-003 5.404373E-002 9.565619E-002 2.225905E-001 3.149975E-001 2.408905E-001 4.463936E-001 3.338384E-001 4.131720E-001 6.111384E-001 3.871565E-001 3.035291E-001 1.000000E-004 1.880018E-004 8.462141E-003 1.463371E-002 4.813694E-002 4.972741E-002 4.629356E-002 9.296332E-002 6.359889E-002 8.174773E-002 1.050792E-001 7.473227E-002 5.472653E-002 1.000000E-004 1.000000E-004
<MIXTURE> 5 0.20093149
<MEAN> 39
 -1.246423E001 -3.568797E000 -1.279024E000 2.851747E-001 4.078482E000 6.738142E-001 -2.189109E000 -3.673447E000 -1.508152E000 2.254316E000 3.088624E000 1.576041E-013 -4.798713E-002 1.690559E-001 3.160224E-001 9.553511E-003 1.023827E-001 -2.924939E-001 -3.357646E-003 1.322209E-001 2.192699E-001 1.007147E-001 -7.495266E-002 -1.252183E-001 -1.691791E-015 -9.359052E-003 5.240632E-004 2.439931E-002 -1.746504E-002 -5.960599E-002 -3.050746E-002 -1.294000E-002 1.765576E-002 2.193251E-002 -6.950645E-003 -3.398068E-002 -3.288910E-002 6.323901E-017 1.114240E-003
<VARIANCE> 39
 1.978678E000 6.326715E000 3.236198E000 4.405438E000 8.020409E000 7.591161E000 1.145670E001 5.861389E000 9.911536E000 5.561369E000 6.016066E000 1.000000E-004 6.368526E-003 8.537314E-002 1.191461E-001 2.590237E-001 4.132482E-001 5.091838E-001 3.698860E-001 4.943804E-001 3.953474E-001 2.674252E-001 2.568496E-001 1.771815E-001 1.000000E-004 1.464638E-004 1.415213E-002 1.795635E-002 4.114759E-002 7.247254E-002 9.726188E-002 6.133526E-002 8.678904E-002 7.037777E-002 5.676622E-002 4.783514E-002 3.755503E-002 1.000000E-004 1.000000E-004
<STATE> 5
<NUMMIXES> 5
<MIXTURE> 1 0.1892851
<MEAN> 39
 -9.752395E000 -1.092042E001 7.588165E000 -7.676710E000 -7.954584E-001 -8.112460E000 5.805704E000 -2.142725E000 -1.269809E000 1.354523E-001 4.657295E-001 1.968650E-013 3.497908E-001 1.017074E-001 1.650621E-001 1.791626E-002 3.516985E-001 9.243672E-002 3.678385E-001 2.849876E-001 3.265672E-001 1.685587E-002 7.554606E-002 -1.298203E-002 -2.894046E-015 -2.284226E-002 3.053596E-003 3.717699E-002 -2.932452E-002 -3.828800E-002 -1.493187E-003 1.426217E-002 -4.376162E-002 8.511986E-003 6.505379E-003 8.981590E-003 -4.813056E-004 1.747037E-016 2.925738E-003
<VARIANCE> 39
 1.730496E000 4.227258E000 3.667507E000 9.323981E000 4.683168E000 1.275085E001 8.822095E000 1.151444E001 5.926734E000 5.044535E000 4.225738E000 1.000000E-004 2.568374E-002 7.446663E-002 1.919669E-001 2.840820E-001 3.843256E-001 4.980483E-001 4.833742E-001 6.134581E-001 4.923391E-001 5.623853E-001 4.069874E-001 3.331678E-001 1.000000E-004 1.999963E-004 1.623292E-002 3.418602E-002 4.754502E-002 6.685138E-002 1.022867E-001 9.123013E-002 1.106031E-001 9.917503E-002 1.078265E-001 8.042990E-002 6.827088E-002 1.000000E-004 1.000000E-004
<MIXTURE> 2 0.10762756
<MEAN> 39
 -1.163029E001 -4.150126E000 6.422162E000 -8.868520E000 4.177045E000 -4.057311E000 3.957999E000 -1.349989E000 1.097237E000 8.377745E-001 2.295529E-001 2.002925E-013 5.221618E-001 -8.611704E-001 -2.800997E-001 7.029814E-001 -2.028443E-002 4.624968E-001 -3.437321E-001 2.221332E-001 -3.660642E-001 2.019636E-001 2.598957E-001 1.374596E-002 7.356132E-015 9.421988E-002 1.131479E-001 -1.523423E-001 -5.808017E-002 2.086527E-001 9.555564E-003 8.474045E-002 1.778246E-001 2.532030E-002 -2.426603E-002 9.641314E-003 -1.727623E-002 -5.792005E-016 -4.978768E-003
<VARIANCE> 39
 5.481443E001 1.658402E001 2.177389E001 1.853002E001 1.745739E001 1.444636E001 1.533980E001 1.114102E001 7.500017E000 5.581178E000 5.619572E000 1.000000E-004 8.936305E-002 4.049686E000 2.622009E000 2.215195E000 2.122676E000 1.506424E000 2.071591E000 1.908898E000 1.379352E000 9.025767E-001 6.653373E-001 6.757339E-001 1.000000E-004 5.454360E-003 5.994868E-001 3.149600E-001 4.866651E-001 3.131437E-001 2.679374E-001 3.093131E-001 2.847812E-001 1.936466E-001 2.028812E-001 1.311447E-001 1.215466E-001 1.000000E-004 1.554465E-003
<MIXTURE> 3 0.23162778
<MEAN> 39
 -1.705454E001 -1.404321E001 3.928920E000 -9.747769E000 3.058151E000 -9.421684E000 6.566471E000 -4.451900E000 1.240846E-002 8.122240E-001 1.802124E000 2.551742E-013 8.721178E-001 3.929231E-001 -7.005469E-002 -7.591180E-002 -1.660616E-001 -2.951302E-001 -2.220619E-001 -1.946233E-001 -5.246703E-002 -1.293993E-001 -1.151986E-001 5.783919E-002 -2.017581E-016 -7.728062E-003 6.674002E-003 4.917934E-002 6.086117E-002 1.027442E-002 2.027951E-002 4.901586E-002 1.480466E-002 2.335698E-002 5.411033E-003 -1.531761E-002 1.972760E-003 -3.899954E-016 -3.462905E-003
<VARIANCE> 39
 1.272711E001 8.031895E000 1.075324E001 1.898246E001 1.780654E001 1.171011E001 2.446093E001 1.054910E001 1.071661E001 7.206254E000 7.513808E000 1.000000E-004 5.290819E-003 3.236982E-001 7.760365E-001 9.156824E-001 1.340385E000 1.150169E000 8.704144E-001 1.595645E000 9.377695E-001 1.095315E000 6.774728E-001 6.477028E-001 1.000000E-004 7.494026E-004 6.204758E-002 1.404011E-001 1.432511E-001 2.320099E-001 2.097454E-001 1.670248E-001 2.679176E-001 1.815567E-001 2.274065E-001 1.446608E-001 1.281590E-001 1.000000E-004 1.120994E-004
<MIXTURE> 4 0.13725851
<MEAN> 39
 -5.970506E000 -3.183507E000 5.709023E000 -4.587592E000 4.201455E000 -6.397002E-001 6.032892E000 1.853547E000 8.046771E-001 8.745986E-001 4.948098E-001 1.690817E-013 3.272348E-001 -3.575860E-002 1.374744E-001 -1.210180E-001 -1.188678E-002 -7.143840E-004 5.999417E-002 -8.514982E-002 -3.380039E-002 1.250740E-002 -2.719921E-002 -3.540013E-002 -7.545917E-016 -8.113364E-003 -1.180227E-001 -4.220281E-002 -7.854292E-002 -1.729458E-001 -8.818353E-002 -1.824573E-001 -1.605754E-001 -1.205436E-001 -4.833952E-002 -1.763242E-002 1.262801E-003 7.062904E-016 3.778287E-004
<VARIANCE> 39
 3.446260E000 6.204319E000 1.321579E001 9.211834E000 1.105259E001 6.948884E000 1.030845E001 5.023547E000 4.984822E000 3.630557E000 3.079044E000 1.000000E-004 5.314445E-002 1.388228E-001 2.061078E-001 3.200046E-001 5.013672E-001 5.406795E-001 5.875294E-001 6.229759E-001 4.365149E-001 4.111170E-001 3.095410E-001 2.772351E-001 1.000000E-004 1.138246E-003 8.575358E-002 5.559662E-002 8.061966E-002 9.405790E-002 1.267343E-001 1.044952E-001 1.179825E-001 8.117852E-002 8.663541E-002 6.639716E-002 5.354999E-002 1.000000E-004 3.918572E-004
<MIXTURE> 5 0.3342011
<MEAN> 39
 -6.843239E000 -3.779572E000 2.474085E000 -7.543012E000 2.471069E000 -2.131362E000 3.558799E000 4.045623E-001 8.898205E-002 1.005924E-001 -8.010338E-002 1.654878E-013 1.134431E-001 -1.032398E-002 1.638736E-002 -4.347684E-002 -2.223690E-002 6.624884E-002 5.577197E-002 -2.858905E-002 5.428605E-003 2.709080E-002 -1.982913E-002 -1.269144E-002 -6.719527E-017 -2.044882E-003 1.510562E-003 1.199300E-002 2.095787E-002 2.281655E-002 2.205542E-002 1.564385E-002 2.094288E-002 2.025659E-002 1.697012E-002 6.298089E-003 3.160771E-003 2.622064E-017 1.943583E-003
<VARIANCE> 39
 6.422110E-001 1.682507E000 2.335472E000 2.839454E000 4.141191E000 4.785894E000 4.452446E000 4.069275E000 3.792501E000 2.887656E000 2.531842E000 1.000000E-004 2.932030E-003 6.269391E-002 1.241758E-001 1.739839E-001 2.608636E-001 3.513394E-001 4.329408E-001 3.887835E-001 3.756486E-001 3.817023E-001 2.947462E-001 2.269109E-001 1.000000E-004 2.595124E-004 1.281638E-002 2.359248E-002 3.393782E-002 5.168617E-002 6.460605E-002 8.122127E-002 6.969880E-002 6.945039E-002 7.174226E-002 5.575747E-002 4.562478E-002 1.000000E-004 1.000000E-004
<STATE> 6
<NUMMIXES> 5
<MIXTURE> 1 0.11304683
<MEAN> 39
 -1.297187E001 2.848960E000 2.523516E000 -6.892553E000 3.079565E000 8.308718E-001 -1.688404E000 4.990912E000 -1.071147E000 -2.237277E000 1.672746E000 1.532862E-013 9.611002E-002 -2.545786E-001 5.052820E-002 3.656997E-001 -5.245565E-001 3.603418E-001 1.639851E-001 -3.533035E-001 4.649986E-001 -1.919531E-001 -3.008765E-001 2.054127E-001 1.063278E-015 4.079598E-003 1.108530E-001 -1.529490E-002 -8.220822E-002 2.275105E-001 -9.697694E-002 -4.439497E-002 9.961133E-002 -1.939161E-001 4.158648E-002 6.212006E-002 -8.483659E-002 -4.548406E-016 -5.955188E-003
<VARIANCE> 39
 1.571739E001 4.569778E000 1.552662E001 1.946478E001 1.405733E001 5.755244E000 2.543748E001 1.445826E001 7.322750E000 7.927668E000 7.150665E000 1.000000E-004 6.037205E-002 1.091020E000 1.800906E-001 1.291602E000 3.142292E000 1.370031E000 5.979747E-001 1.750597E000 1.995254E000 6.719151E-001 5.729988E-001 7.911241E-001 1.000000E-004 3.163817E-003 1.933897E-001 3.682862E-002 2.543703E-001 5.368457E-001 2.689162E-001 1.084074E-001 3.266540E-001 3.580960E-001 1.195545E-001 1.044793E-001 1.350428E-001 1.000000E-004 5.149142E-004
<MIXTURE> 2 0.18261495
<MEAN> 39
 -1.128370E001 3.010513E000 -5.788084E-001 -1.184007E000 6.359226E-001 9.859787E-001 1.454054E000 2.264983E000 1.314001E000 6.271280E-001 8.176560E-001 1.396884E-013 7.440029E-003 9.508031E-003 -2.556096E-002 -1.272113E-001 -2.061037E-002 -1.204510E-001 -6.767365E-002 1.959461E-002 -1.247770E-001 -3.194747E-002 -2.477452E-003 -9.079242E-002 -2.688566E-016 -7.240884E-003 -3.072549E-002 -1.219769E-002 9.441808E-003 -7.656229E-002 -4.543892E-002 -1.333274E-001 -2.079094E-001 -1.746047E-001 -2.134578E-001 -1.724837E-001 -7.353234E-002 1.737968E-017 -4.313223E-003
<VARIANCE> 39
 1.481175E000 1.464567E000 3.144885E000 5.847463E000 3.866815E000 3.541192E000 5.858263E000 4.792681E000 3.212185E000 3.272229E000 2.666209E000 1.000000E-004 1.678002E-002 6.944489E-002 1.127309E-001 2.028893E-001 3.559492E-001 3.435121E-001 3.639995E-001 4.235018E-001 4.230286E-001 3.757679E-001 3.487792E-001 2.571666E-001 1.000000E-004 6.393644E-004 1.495439E-002 2.329774E-002 4.891508E-002 7.391372E-002 6.665232E-002 6.257021E-002 7.298677E-002 6.804679E-002 5.076471E-002 4.671955E-002 4.321616E-002 1.000000E-004 1.316845E-004
<MIXTURE> 3 0.2227657
<MEAN> 39
 -1.107456E001 3.115499E000 -4.628434E-001 -7.782434E-001 -1.024538E-001 -6.155385E-001 -4.292447E-001 -3.917530E-001 -1.019881E000 -1.018471E000 -2.219436E-001 1.382052E-013 -3.549366E-003 2.224863E-002 8.918133E-002 3.956560E-002 8.669865E-002 8.493805E-002 1.207519E-001 1.035735E-001 8.637419E-002 1.200061E-001 4.467809E-002 -5.946852E-003 -1.965381E-016 4.559118E-003 -2.240941E-002 -3.110159E-002 -5.304936E-002 -5.290196E-002 -3.965611E-003 5.445660E-002 7.893851E-002 1.186782E-001 1.234361E-001 9.685484E-002 3.892146E-002 4.436620E-017 -2.478002E-004
<VARIANCE> 39
 8.609791E-001 1.142073E000 2.111004E000 3.270430E000 2.769152E000 3.593523E000 4.588953E000 3.203250E000 2.872529E000 2.806599E000 2.708196E000 1.000000E-004 1.473422E-002 4.594406E-002 9.049351E-002 2.070559E-001 3.037418E-001 2.702191E-001 3.877965E-001 4.534199E-001 4.196348E-001 3.703565E-001 3.173041E-001 2.486684E-001 1.000000E-004 5.696423E-004 9.355074E-003 1.654341E-002 3.284098E-002 5.385194E-002 5.387467E-002 6.791028E-002 5.456283E-002 5.129082E-002 5.132483E-002 4.775662E-002 4.767038E-002 1.000000E-004 1.000000E-004
<MIXTURE> 4 0.23524185
<MEAN> 39
 -1.133536E001 2.656144E000 -1.180585E000 -1.349397E000 -7.588518E-001 -7.798805E-001 2.016501E-001 9.020343E-001 8.372704E-001 6.791307E-001 5.178167E-001 1.382232E-013 -1.485002E-001 4.037839E-003 3.054162E-002 -4.101396E-004 1.141752E-002 -3.801342E-002 -2.137411E-003 1.604896E-002 1.116100E-002 2.857238E-002 2.314906E-003 3.287534E-002 -1.926068E-018 -1.482759E-004 1.703816E-002 2.196627E-002 5.093794E-002 4.317154E-002 5.786689E-002 4.577491E-002 -7.810483E-003 -5.591196E-002 -1.199187E-001 -1.141030E-001 -5.951237E-002 -6.289814E-017 2.369060E-003
<VARIANCE> 39
 6.310499E-001 1.137127E000 1.693138E000 2.992244E000 2.950645E000 2.948258E000 3.845344E000 2.882454E000 2.400070E000 2.020381E000 2.275560E000 1.000000E-004 1.000000E-004 4.843541E-002 9.214562E-002 1.813801E-001 2.601900E-001 2.677880E-001 3.094827E-001 3.742181E-001 3.840535E-001 3.869759E-001 2.918794E-001 2.519602E-001 1.000000E-004 1.000000E-004 8.347388E-003 1.774431E-002 3.520531E-002 4.561249E-002 5.369077E-002 6.062240E-002 6.555547E-002 5.163324E-002 4.679509E-002 3.636558E-002 4.528896E-002 1.000000E-004 1.000000E-004
<MIXTURE> 5 0.24633057
<MEAN> 39
 -1.123665E001 2.831491E000 -9.862195E-001 -1.858727E000 -2.857992E-001 -9.272385E-002 -2.594911E-001 -1.971089E-001 -1.650601E000 -1.811502E000 -6.104872E-001 1.382727E-013 -1.477530E-001 3.033225E-002 3.631731E-002 -3.092809E-002 2.232875E-002 -1.431200E-001 -1.090158E-001 -2.642510E-002 -1.069833E-001 1.365625E-002 1.015780E-002 -7.900149E-002 -3.174231E-016 -1.636671E-003 -2.633290E-002 2.693905E-003 1.933902E-002 -4.743516E-002 2.911900E-002 2.534448E-002 3.727112E-002 1.407153E-001 1.408549E-001 1.226114E-001 1.106120E-001 2.798359E-016 3.799580E-003
<VARIANCE> 39
 1.181287E000 1.472475E000 3.780801E000 6.004599E000 3.541370E000 4.191594E000 6.096969E000 5.763845E000 2.645947E000 2.939977E000 2.771763E000 1.000000E-004 1.000000E-004 7.785996E-002 1.199496E-001 2.750300E-001 3.507111E-001 3.144562E-001 3.729620E-001 5.310138E-001 4.620171E-001 3.600060E-001 3.456237E-001 2.986003E-001 1.000000E-004 1.000000E-004 1.929049E-002 2.194869E-002 5.582359E-002 7.212614E-002 6.633295E-002 7.066754E-002 1.062734E-001 8.278562E-002 5.108014E-002 5.261808E-002 5.032735E-002 1.000000E-004 1.000000E-004
<TRANSP> 7
 0.000000E000 1.000000E000 0.000000E000 0.000000E000 0.000000E000 0.000000E000 0.000000E000
 0.000000E000 9.656743E-001 3.432572E-002 0.000000E000 0.000000E000 0.000000E000 0.000000E000
 0.000000E000 0.000000E000 9.816315E-001 1.836854E-002 0.000000E000 0.000000E000 0.000000E000
 0.000000E000 0.000000E000 0.000000E000 9.412452E-001 5.875481E-002 0.000000E000 0.000000E000
 0.000000E000 0.000000E000 0.000000E000 0.000000E000 9.911143E-001 8.885739E-003 0.000000E000
 0.000000E000 0.000000E000 0.000000E000 0.000000E000 0.000000E000 9.755602E-001 2.443981E-002
 0.000000E000 0.000000E000 0.000000E000 0.000000E000 0.000000E000 0.000000E000 1.000000E000
<ENDHMM>
~o
<STREAMINFO> 1 39
<VECSIZE> 39 <NULLD> <MFCC_E_D_A>
~h "Comma"
<BEGINHMM>
<NUMSTATES> 7
<STATE> 2
<NUMMIXES> 5
<MIXTURE> 1 0.08902606
<MEAN> 39
 -2.073280E001 8.346953E000 -4.983294E000 6.346118E-001 -2.578188E000 6.378324E000 -5.997827E000 2.542001E000 -1.016752E000 1.365563E000 -2.025732E000 4.009880E-014 -1.512925E-001 1.254582E000 -1.747616E000 -1.139513E-001 -1.281593E-001 -4.297034E-001 -8.659714E-001 6.872786E-001 1.951680E-001 -2.910128E-001 -7.746139E-002 3.253248E-001 8.141392E-015 6.383531E-004 4.464453E-001 -4.194115E-001 2.180846E-001 -1.910156E-001 1.506730E-001 -2.106888E-001 2.993614E-001 -8.911325E-002 4.080777E-002 -4.265156E-002 2.274077E-002 3.684635E-015 3.126857E-003
<VARIANCE> 39
 8.072522E000 1.717142E001 3.561309E000 2.679255E000 5.637769E000 7.185965E000 5.147906E000 3.341155E000 2.946977E000 2.218030E000 2.753571E000 1.000000E-004 1.000000E-004 1.425292E000 2.304383E000 5.202436E-001 4.165522E-001 6.042078E-001 8.734323E-001 9.285141E-001 3.551462E-001 3.986140E-001 3.008054E-001 3.529230E-001 1.000000E-004 1.000000E-004 8.691090E-002 2.729973E-001 2.086487E-001 1.219726E-001 2.737429E-001 1.309763E-001 9.683563E-002 1.100747E-001 1.015632E-001 4.429200E-002 5.055340E-002 1.000000E-004 1.000000E-004
<MIXTURE> 2 0.28278923
<MEAN> 39
 -7.789485E000 3.928586E000 -5.625506E-001 -2.186121E000 9.783131E-001 -7.940581E-001 -3.907769E-002 -6.154781E-001 -1.149796E000 -1.159177E000 -1.946416E-001 1.597221E-013 2.321556E-001 1.014408E-002 2.565933E-002 -1.254353E-002 -4.495880E-004 -8.605526E-003 -2.003927E-002 -1.120793E-005 -1.963251E-003 -2.016251E-002 -3.062263E-002 -7.257985E-002 -3.839614E-016 -2.406678E-003 7.908639E-003 -2.320734E-002 -9.056281E-002 -1.835992E-001 -1.912536E-001 -6.353019E-002 4.983745E-002 4.849605E-002 2.472782E-002 1.717218E-002 -1.711785E-002 9.115946E-017 -2.068637E-003
<VARIANCE> 39
 7.202408E-001 1.296429E000 1.753627E000 2.386993E000 2.086123E000 4.307549E000 4.845390E000 4.585481E000 3.102437E000 2.958154E000 2.739448E000 1.000000E-004 6.832337E-003 6.211982E-002 1.146835E-001 2.278572E-001 3.425641E-001 3.661702E-001 4.220791E-001 4.892697E-001 4.652330E-001 3.417495E-001 3.466393E-001 2.960854E-001 1.000000E-004 2.904832E-004 1.014993E-002 1.861570E-002 2.760437E-002 4.490753E-002 4.184439E-002 7.355399E-002 8.585197E-002 6.890067E-002 5.972409E-002 5.774630E-002 5.506647E-002 1.000000E-004 1.000000E-004
<MIXTURE> 3 0.112953424
<MEAN> 39
 -8.569606E000 2.503791E000 -6.475579E-001 -3.015930E000 1.022927E000 -2.380428E000 -1.198224E000 5.409358E-001 -1.876716E-001 -1.100544E000 -4.136594E-001 1.597576E-013 2.022684E-001 -1.791808E-001 -3.284784E-001 6.601937E-002 7.893573E-002 2.741178E-001 -9.499432E-002 -1.626140E-001 -6.328206E-004 1.575378E-001 1.039114E-001 4.700235E-002 5.898352E-016 3.358521E-004 -1.295960E-001 -1.285311E-001 8.400151E-002 1.305077E-002 7.082898E-002 5.867751E-002 4.904485E-002 -5.633433E-002 -1.590030E-002 -5.482624E-002 -1.728650E-002 7.290061E-016 8.212777E-003
<VARIANCE> 39
 2.486737E000 6.959514E000 7.938313E000 1.382458E001 8.890341E000 7.247811E000 9.037366E000 8.545727E000 7.062878E000 5.336236E000 5.626974E000 1.000000E-004 9.230242E-003 2.087275E-001 8.742036E-001 6.133983E-001 1.165678E000 8.354412E-001 7.911350E-001 7.308311E-001 6.459271E-001 5.747244E-001 5.050232E-001 5.283219E-001 1.000000E-004 3.893991E-004 1.352621E-001 2.913329E-001 1.431140E-001 2.358553E-001 2.420015E-001 1.595729E-001 1.522167E-001 1.069984E-001 1.233544E-001 1.235868E-001 1.130285E-001 1.000000E-004 3.665932E-004
<MIXTURE> 4 0.19983098
<MEAN> 39
 -7.668161E000 3.750105E000 -1.556849E000 -3.967888E000 -7.290267E-001 -7.704564E-001 1.247542E000 7.519879E-001 2.710366E-001 2.294457E-001 4.454025E-001 1.613396E-013 2.160260E-001 5.209804E-002 7.689168E-002 3.182964E-002 6.228887E-002 2.552265E-002 -3.101975E-002 3.834225E-002 7.093586E-002 3.191842E-002 6.067942E-003 1.164528E-002 -1.753361E-016 1.363689E-003 -1.191526E-002 -4.603490E-003 5.527821E-002 1.138449E-001 8.695100E-002 -3.849407E-002 -1.370337E-001 -1.618936E-001 -1.592956E-001 -1.969308E-001 -1.209177E-001 -1.546304E-016 4.340778E-004
<VARIANCE> 39
 8.033193E-001 1.495041E000 1.850822E000 2.154702E000 2.460311E000 3.979951E000 4.154805E000 4.479418E000 2.540313E000 2.280062E000 2.646608E000 1.000000E-004 4.872362E-003 5.157052E-002 8.761853E-002 1.667745E-001 2.894339E-001 2.922338E-001 2.779931E-001 3.427934E-001 2.857904E-001 2.966371E-001 2.834243E-001 2.695936E-001 1.000000E-004 3.384433E-004 1.123523E-002 2.169970E-002 3.507598E-002 3.673343E-002 4.353255E-002 5.905259E-002 6.895547E-002 4.770665E-002 5.190155E-002 4.522472E-002 5.332005E-002 1.000000E-004 1.000000E-004
<MIXTURE> 5 0.31540027
<MEAN> 39
 -7.597686E000 4.018540E000 -1.442207E000 -4.138904E000 -1.224571E000 -1.836251E000 -1.785790E-001 -9.360023E-001 -1.804203E000 -2.213568E000 -1.290197E000 1.590503E-013 2.152015E-001 2.173096E-002 -8.959313E-003 -1.513072E-002 -3.910685E-002 -1.360861E-002 2.133618E-002 3.586858E-002 3.182514E-002 1.454003E-003 -6.826853E-003 -3.356502E-002 -2.291079E-016 -1.482318E-003 -1.907734E-002 -1.422965E-002 5.345683E-002 1.047684E-001 1.390047E-001 6.025440E-002 9.388553E-003 5.928674E-002 9.847295E-002 1.286068E-001 1.102460E-001 1.142769E-016 1.756772E-003
<VARIANCE> 39
 7.337288E-001 1.062724E000 2.174039E000 2.473052E000 2.481497E000 3.334900E000 3.495845E000 3.732532E000 2.213828E000 2.583540E000 2.893856E000 1.000000E-004 5.823920E-003 6.020483E-002 1.215093E-001 1.928309E-001 3.043187E-001 3.112014E-001 3.863580E-001 4.239312E-001 3.784620E-001 3.300330E-001 3.814511E-001 3.608123E-001 1.000000E-004 3.014708E-004 1.012777E-002 2.398204E-002 3.244587E-002 4.702485E-002 4.759577E-002 5.746948E-002 6.019503E-002 5.946309E-002 4.630060E-002 4.615190E-002 5.021431E-002 1.000000E-004 1.000000E-004
<STATE> 3
<NUMMIXES> 5
<MIXTURE> 1 0.18236591
<MEAN> 39
 -1.162616E001 -3.502595E000 2.833565E000 -7.776272E000 4.333894E000 -1.538171E000 2.427447E000 -5.144637E-001 4.702848E-001 -1.154227E-001 -1.108176E-001 1.765330E-013 2.246153E-001 -5.030109E-001 -1.265968E000 5.071204E-001 -5.047584E-001 9.648005E-001 -3.900662E-001 2.372184E-001 -4.755711E-001 1.665717E-001 4.880985E-002 1.722600E-001 1.111054E-014 7.345746E-002 -1.656659E-002 -7.660217E-002 -1.559866E-001 6.926517E-003 4.202971E-002 -7.485786E-002 -1.113266E-001 -2.057456E-002 -2.981566E-002 -2.608102E-002 -7.921958E-003 5.527772E-016 8.430759E-003
<VARIANCE> 39
 1.522414E001 2.069652E001 1.686110E001 3.990325E001 2.604359E001 1.843324E001 2.560090E001 2.062411E001 8.741589E000 5.931908E000 7.613199E000 1.000000E-004 5.310988E-002 4.093395E000 2.944795E000 1.891797E000 1.889526E000 2.388443E000 1.951739E000 2.031220E000 1.544522E000 7.915388E-001 7.201153E-001 6.066157E-001 1.000000E-004 8.161307E-003 3.955388E-001 5.392057E-001 2.785313E-001 2.956758E-001 4.294971E-001 3.844024E-001 2.770712E-001 2.889530E-001 1.558402E-001 1.237566E-001 1.259281E-001 1.000000E-004 1.301035E-003
<MIXTURE> 2 0.18711862
<MEAN> 39
 -6.714754E000 -3.573247E000 2.628281E000 -6.798019E000 4.541377E000 -3.224508E-001 4.736611E000 1.587454E000 8.731775E-001 1.200638E-001 -2.855737E-001 1.647347E-013 7.043906E-002 3.116535E-002 1.239075E-003 2.975159E-002 3.074743E-002 -5.807573E-002 8.068001E-003 2.652959E-002 -2.544015E-002 4.193413E-002 3.352734E-002 -2.227713E-003 -5.121682E-017 -8.841028E-004 -9.472654E-003 -3.487098E-003 -5.110056E-002 -1.269704E-001 -1.829052E-001 -1.782526E-001 -1.421770E-001 -1.557974E-001 -1.100597E-001 -5.691952E-002 -2.683889E-002 7.218383E-017 -3.311869E-003
<VARIANCE> 39
 8.838417E-001 1.959561E000 2.038198E000 2.363448E000 2.463970E000 3.889104E000 4.430054E000 4.520559E000 3.945312E000 3.235672E000 2.067076E000 1.000000E-004 7.752513E-003 5.325336E-002 1.197407E-001 1.796406E-001 2.808882E-001 3.681955E-001 4.195670E-001 3.759145E-001 4.483517E-001 3.661034E-001 2.636905E-001 2.236368E-001 1.000000E-004 2.785967E-004 1.159662E-002 2.368195E-002 3.082191E-002 4.143958E-002 4.583444E-002 6.698550E-002 6.839266E-002 7.495811E-002 7.722706E-002 5.073326E-002 3.802708E-002 1.000000E-004 1.000000E-004
<MIXTURE> 3 0.15115236
<MEAN> 39
 -8.336363E000 -3.908291E000 3.029961E000 -9.696337E000 4.165018E000 -1.743299E000 3.656543E000 -5.682504E-001 2.638636E-001 7.207499E-002 -4.619020E-001 1.736956E-013 6.983605E-002 9.971504E-002 1.718132E-002 1.334110E-001 -1.497197E-001 1.151515E-001 -1.062700E-001 7.553743E-002 2.525342E-003 1.000391E-003 -1.241451E-001 -9.198837E-003 1.098810E-015 1.735643E-003 -2.813368E-001 -4.431732E-003 -5.298680E-002 -1.017529E-002 -4.344078E-002 6.577640E-002 -7.113139E-002 8.293094E-003 -7.079539E-003 3.837875E-002 1.244538E-002 -1.111268E-016 8.712856E-003
<VARIANCE> 39
 4.583529E000 3.357661E000 4.696597E000 1.042628E001 6.112882E000 7.965541E000 5.647944E000 7.146639E000 4.659691E000 5.193935E000 3.058218E000 1.000000E-004 5.489961E-003 6.513748E-001 3.106284E-001 5.793861E-001 9.979977E-001 6.204771E-001 8.955180E-001 8.722499E-001 7.448647E-001 5.181270E-001 3.689910E-001 3.646105E-001 1.000000E-004 1.336975E-003 1.166607E-001 9.897703E-002 1.452777E-001 2.013239E-001 1.743762E-001 1.806260E-001 1.667360E-001 1.443432E-001 1.010820E-001 8.356071E-002 6.700484E-002 1.000000E-004 3.767312E-004
<MIXTURE> 4 0.23183662
<MEAN> 39
 -6.898280E000 -4.020926E000 1.685187E000 -8.268983E000 2.656852E000 -2.321620E000 2.585106E000 -5.789906E-001 -1.233054E000 -1.380427E000 -1.063756E000 1.643813E-013 5.240766E-003 2.192952E-002 -7.343204E-003 5.907811E-003 5.928445E-002 5.417787E-002 7.045660E-002 5.982739E-002 1.161139E-001 4.856192E-002 6.802938E-002 3.969514E-002 -8.199488E-017 2.126101E-003 3.387577E-003 4.967264E-002 5.761134E-002 4.094095E-002 1.943232E-002 6.871916E-002 1.310874E-001 1.458991E-001 1.959975E-001 1.476693E-001 7.681390E-002 7.123447E-017 3.212001E-003
<VARIANCE> 39
 6.758380E-001 1.269911E000 1.703357E000 2.347423E000 3.133973E000 4.036851E000 3.673358E000 3.300903E000 2.404926E000 2.031507E000 2.742467E000 1.000000E-004 1.919593E-003 5.183323E-002 1.057130E-001 1.658544E-001 2.331106E-001 3.275930E-001 3.909680E-001 3.916818E-001 4.726788E-001 3.469110E-001 2.794000E-001 2.383670E-001 1.000000E-004 1.948144E-004 1.110152E-002 1.886345E-002 3.167618E-002 4.334275E-002 6.559219E-002 8.343054E-002 7.027864E-002 7.336362E-002 4.499720E-002 3.562957E-002 4.251891E-002 1.000000E-004 1.000000E-004
<MIXTURE> 5 0.24752645
<MEAN> 39
 -6.688217E000 -3.531262E000 1.980871E000 -8.442634E000 2.005337E000 -2.433918E000 3.406664E000 6.802232E-001 5.756069E-001 6.069629E-002 -1.635237E-001 1.656490E-013 1.754899E-002 -1.703050E-002 -1.580950E-002 -1.358601E-002 -4.154067E-002 -4.889277E-002 -1.034258E-001 -9.816521E-002 -6.265284E-002 -7.003575E-002 -1.038988E-001 -4.746538E-002 -2.358248E-017 -1.980494E-003 -1.670792E-002 -3.883506E-002 -8.884163E-003 6.393634E-002 1.224928E-001 8.333873E-002 -1.315208E-002 -3.688263E-002 -1.061269E-001 -8.249586E-002 -4.902853E-002 -1.395863E-016 3.034954E-004
<VARIANCE> 39
 4.019463E-001 9.670743E-001 2.010465E000 2.394191E000 2.076074E000 3.647244E000 3.553659E000 3.226717E000 2.472425E000 2.180088E000 2.115467E000 1.000000E-004 1.402693E-003 4.203718E-002 1.114418E-001 2.217267E-001 2.846768E-001 3.323248E-001 4.172229E-001 4.149775E-001 3.927736E-001 4.124215E-001 2.525885E-001 2.046033E-001 1.000000E-004 1.682045E-004 8.001095E-003 2.044980E-002 4.099011E-002 5.252158E-002 4.254136E-002 6.292936E-002 6.804720E-002 6.185993E-002 4.806069E-002 4.031474E-002 3.941837E-002 1.000000E-004 1.000000E-004
<STATE> 4
<NUMMIXES> 5
<MIXTURE> 1 0.14456226
<MEAN> 39
 -1.770162E001 -1.339781E001 1.792042E-002 -6.509383E000 8.033932E000 -4.957526E000 -1.506583E000 -3.023579E000 4.256977E-001 -6.828350E-001 1.975879E-001 2.463779E-013 9.371579E-001 2.754404E-002 -6.739563E-001 -7.589357E-001 -5.949867E-001 -3.395196E-001 -5.643263E-001 -7.379195E-001 -3.560326E-001 -7.617524E-002 -2.273074E-001 -1.218070E-001 7.104479E-015 5.993006E-002 5.007359E-001 7.100857E-001 1.761369E-001 2.275829E-002 -4.050341E-001 -6.824126E-003 1.914607E-002 7.502710E-002 4.498405E-002 -4.846627E-002 -7.514458E-002 -4.464277E-015 -4.765784E-002
<VARIANCE> 39
 2.603951E001 1.353936E001 1.325568E001 3.382840E001 2.678138E001 1.698399E001 2.142889E001 1.573449E001 1.009365E001 7.322035E000 5.892852E000 1.000000E-004 4.277514E-003 2.000869E000 3.419180E000 1.209267E000 1.389008E000 3.286590E000 1.935900E000 1.700902E000 1.238816E000 9.326963E-001 5.770745E-001 5.168184E-001 1.000000E-004 8.878644E-003 3.054742E-001 4.009450E-001 3.771356E-001 2.844207E-001 5.407549E-001 3.349974E-001 3.400684E-001 2.185684E-001 2.309419E-001 1.271649E-001 1.191017E-001 1.000000E-004 5.356602E-004
<MIXTURE> 2 0.31385237
<MEAN> 39
 -1.418326E001 -9.149368E000 1.953051E000 -2.704296E000 6.054618E000 -2.568918E000 -2.541816E000 -2.728881E000 8.894827E-001 -1.829348E-001 -1.346365E-001 1.898828E-013 3.745255E-001 2.313571E-001 6.923250E-002 9.088209E-002 1.094740E-001 -1.574999E-001 9.381246E-002 -2.429562E-002 1.346885E-001 1.801703E-002 4.736621E-002 -3.065878E-002 -2.282167E-015 -1.701599E-002 3.690033E-003 1.862009E-002 -1.525950E-002 -8.043442E-003 -4.292526E-002 -1.764340E-002 -1.099780E-002 5.732101E-003 -3.413307E-002 -4.294290E-002 -2.755836E-002 7.784567E-017 1.627851E-003
<VARIANCE> 39
 3.835245E000 4.984118E000 5.210024E000 5.251996E000 5.544717E000 9.586987E000 6.045120E000 1.093683E001 4.653558E000 6.411727E000 3.493860E000 1.000000E-004 1.210628E-002 6.114730E-002 1.083119E-001 1.767730E-001 2.368252E-001 3.911073E-001 3.565916E-001 4.682329E-001 4.290736E-001 3.632117E-001 4.460478E-001 3.226569E-001 1.000000E-004 1.154552E-004 1.113159E-002 2.068801E-002 3.510877E-002 4.492814E-002 7.708868E-002 6.982883E-002 8.592515E-002 8.969197E-002 6.897234E-002 9.104486E-002 6.597059E-002 1.000000E-004 1.000000E-004
<MIXTURE> 3 0.12407962
<MEAN> 39
 -1.372180E001 -1.129694E001 5.731444E-001 -9.126575E000 3.955373E000 -8.315783E000 -3.292351E000 -4.880600E000 5.633714E-001 -1.123544E000 1.244311E-001 2.402751E-013 7.643680E-001 4.340786E-001 2.466745E-001 4.892319E-001 5.874144E-002 -1.968458E-001 -1.709073E-001 1.076249E-001 -2.891801E-001 1.039742E-001 3.721153E-001 3.356909E-001 -4.736084E-015 -6.745916E-002 -1.194265E-001 -2.003454E-001 -3.974751E-002 1.663295E-001 2.781805E-001 3.255891E-001 2.023575E-001 1.493571E-001 -6.464389E-003 1.693866E-001 1.244648E-001 -5.197139E-016 -1.170089E-003
<VARIANCE> 39
 1.352844E001 9.472742E000 6.641170E000 2.812360E001 1.005236E001 1.686191E001 1.327565E001 1.151359E001 7.999104E000 6.834750E000 5.348253E000 1.000000E-004 1.749125E-002 3.307983E-001 5.085580E-001 3.681244E-001 6.032863E-001 8.365014E-001 9.611242E-001 7.688103E-001 7.659819E-001 9.258959E-001 5.029801E-001 3.057903E-001 1.000000E-004 7.432192E-004 7.267164E-002 9.797855E-002 1.134618E-001 1.089560E-001 1.750553E-001 1.372903E-001 2.106270E-001 1.723178E-001 1.958377E-001 1.096243E-001 7.318147E-002 1.000000E-004 3.187669E-004
<MIXTURE> 4 0.18794994
<MEAN> 39
 -7.644651E000 -1.049470E001 3.553487E000 -6.015842E000 3.354719E000 -4.124371E000 1.194347E000 3.809543E-001 -1.473431E-001 3.191605E-001 -2.410085E-001 1.720250E-013 1.181538E-001 9.638356E-002 4.152296E-001 -2.064252E-002 1.805446E-001 -6.843703E-002 1.041934E-001 2.071801E-001 1.098304E-001 7.348145E-002 -7.852253E-002 -7.574095E-002 -1.320912E-015 -1.231829E-002 1.088803E-002 1.622176E-002 -7.489298E-003 -4.890377E-002 -2.310556E-002 -2.880218E-002 -1.374074E-002 2.334225E-003 8.551303E-003 1.239847E-002 1.255468E-002 1.678443E-016 1.964986E-003
<VARIANCE> 39
 1.390022E000 6.282659E000 6.617067E000 7.972095E000 5.324190E000 9.200572E000 1.346094E001 7.359564E000 7.835995E000 4.651538E000 3.397982E000 1.000000E-004 6.043229E-003 8.227175E-002 1.351381E-001 2.132221E-001 3.018925E-001 2.837390E-001 4.764865E-001 5.137052E-001 4.548666E-001 4.434447E-001 3.788751E-001 2.404348E-001 1.000000E-004 1.217202E-004 1.277405E-002 2.847605E-002 3.575737E-002 4.770916E-002 5.141330E-002 8.269283E-002 8.893197E-002 7.865690E-002 8.441173E-002 6.967422E-002 5.278118E-002 1.000000E-004 1.000000E-004
<MIXTURE> 5 0.22955576
<MEAN> 39
 -8.803093E000 -1.406929E001 1.981074E000 -1.124367E001 2.564767E000 -7.125096E000 -1.128354E000 -2.030729E000 -4.823700E-001 1.918399E000 1.243433E000 2.090934E-013 4.541731E-001 7.583647E-002 4.266660E-002 1.435744E-001 3.108999E-001 1.208372E-001 4.657480E-001 1.667495E-001 3.788983E-001 -1.274885E-001 7.339694E-002 -9.742907E-002 -4.174058E-015 -3.075552E-002 -2.462200E-002 4.233371E-002 1.637430E-002 1.655012E-002 1.764687E-002 -1.226967E-003 4.589564E-003 -5.041882E-002 1.677352E-002 -4.486379E-002 -3.758446E-002 2.545484E-016 1.927661E-003
<VARIANCE> 39
 3.619480E000 4.137573E000 9.257801E000 1.100039E001 8.566810E000 1.398411E001 1.909095E001 1.125605E001 8.055512E000 6.145513E000 5.600327E000 1.000000E-004 2.096717E-002 8.057596E-002 1.657262E-001 2.321091E-001 2.952023E-001 3.401801E-001 4.471001E-001 5.599083E-001 5.498011E-001 4.353257E-001 4.917452E-001 3.100559E-001 1.000000E-004 1.000000E-004 1.847015E-002 2.992365E-002 4.121688E-002 6.495690E-002 5.822072E-002 9.339792E-002 1.051650E-001 1.023133E-001 8.836777E-002 8.658987E-002 6.139994E-002 1.000000E-004 1.000000E-004
<STATE> 5
<NUMMIXES> 5
<MIXTURE> 1 0.2044384
<MEAN> 39
 -9.785954E000 3.482721E000 -9.642066E-001 -1.562418E000 6.547020E-003 1.039451E000 2.449533E000 1.759294E000 6.959551E-001 -2.626529E-001 -3.866396E-001 1.424151E-013 9.850963E-002 -2.844054E-002 7.124284E-002 4.786595E-002 -4.321188E-002 5.138151E-002 2.025354E-002 8.559158E-003 6.864041E-002 -1.033249E-001 -7.959067E-002 2.200221E-002 -6.723603E-017 -4.530084E-004 -7.268097E-002 -3.616086E-002 5.687264E-002 -6.075664E-002 -4.531396E-002 -1.608801E-001 -2.203124E-001 -1.118381E-001 -1.306404E-001 -7.630570E-002 2.068129E-002 1.974947E-016 -3.848138E-003
<VARIANCE> 39
 9.633588E-001 2.937483E000 3.546144E000 5.582462E000 4.001779E000 3.051329E000 4.151353E000 4.016062E000 3.788311E000 3.647654E000 2.761008E000 1.000000E-004 2.190529E-002 7.707692E-002 1.076964E-001 2.829493E-001 3.928922E-001 3.900526E-001 3.375134E-001 4.830824E-001 4.516338E-001 3.965192E-001 2.865692E-001 2.094162E-001 1.000000E-004 8.738808E-004 3.201969E-002 2.044569E-002 7.162917E-002 8.258913E-002 7.968473E-002 7.210603E-002 9.185986E-002 8.515546E-002 7.420912E-002 5.926988E-002 5.852199E-002 1.000000E-004 1.541503E-004
<MIXTURE> 2 0.23898026
<MEAN> 39
 -1.039574E001 2.945819E000 -1.857785E000 -2.778474E000 -2.227337E000 -2.125607E000 -4.012461E-001 -2.831663E-001 -6.215540E-001 -8.072295E-001 -5.923559E-001 1.413966E-013 -6.192100E-002 4.956062E-003 6.928984E-002 -1.039388E-002 4.073337E-003 -3.003019E-002 1.596009E-002 5.225902E-002 1.156178E-002 3.803953E-002 4.864339E-002 1.111934E-002 -1.663964E-016 1.000596E-003 1.311938E-002 3.529125E-002 1.019211E-001 1.130605E-001 1.447909E-001 1.514310E-001 5.860265E-002 3.200264E-002 2.499416E-002 -5.866618E-003 1.074755E-003 -2.439259E-017 6.121345E-003
<VARIANCE> 39
 5.428483E-001 1.519941E000 1.615296E000 2.434014E000 2.661827E000 2.490180E000 3.873228E000 4.084346E000 4.238252E000 3.460002E000 3.018553E000 1.000000E-004 3.966485E-003 6.063354E-002 1.192257E-001 2.029319E-001 3.147043E-001 4.335009E-001 4.346411E-001 4.265600E-001 3.807341E-001 3.737337E-001 3.056923E-001 2.231272E-001 1.000000E-004 4.643952E-004 1.294580E-002 1.843844E-002 2.902338E-002 4.076234E-002 5.127982E-002 5.430044E-002 6.692667E-002 7.367650E-002 7.709891E-002 5.642635E-002 4.715290E-002 1.000000E-004 1.000000E-004
<MIXTURE> 3 0.22123988
<MEAN> 39
 -1.023322E001 3.043100E000 -2.735350E-001 -5.053176E-001 -7.542177E-002 -9.384802E-001 -7.092341E-001 -1.006965E000 -1.134796E000 -1.302661E000 -7.977337E-001 1.407204E-013 -5.180139E-003 -3.479186E-002 4.693573E-002 -5.700576E-002 -7.400125E-002 -3.937931E-002 -2.555610E-003 -3.747315E-002 -1.342920E-002 -5.323227E-003 4.315219E-002 4.434942E-002 -1.483233E-016 -4.965739E-003 -5.480377E-003 -4.343928E-002 -9.027864E-002 -1.334014E-001 -1.089112E-001 -3.258386E-002 7.507773E-002 1.139377E-001 7.718852E-002 4.884920E-002 7.243086E-003 8.977887E-017 -8.003414E-004
<VARIANCE> 39
 7.581190E-001 2.911014E000 1.371356E000 2.141634E000 2.100935E000 2.897980E000 3.171094E000 3.372541E000 3.011532E000 3.154879E000 2.546055E000 1.000000E-004 8.488083E-003 5.073926E-002 1.034055E-001 1.956856E-001 2.275925E-001 2.453725E-001 3.268983E-001 4.066954E-001 4.189694E-001 4.000232E-001 3.309566E-001 2.743275E-001 1.000000E-004 3.124098E-004 1.156593E-002 1.952325E-002 3.207625E-002 3.627836E-002 3.953948E-002 5.278041E-002 6.206819E-002 5.518754E-002 5.758283E-002 5.155388E-002 3.807279E-002 1.000000E-004 1.000000E-004
<MIXTURE> 4 0.13099228
<MEAN> 39
 -1.002492E001 -2.805884E000 2.141182E-001 -1.990580E000 -2.583634E-002 -1.038334E000 -7.094207E-001 -3.747360E-001 2.274502E-002 -1.284991E000 -1.335629E000 1.529276E-013 9.234782E-002 1.460022E-001 5.077741E-001 5.677250E-002 -1.019965E-002 -8.547832E-002 3.531760E-002 1.796690E-001 1.959683E-001 3.832335E-002 1.574566E-002 6.862481E-002 -4.053988E-016 3.186319E-003 -8.861213E-003 2.938486E-002 3.283055E-002 9.531972E-002 1.450364E-001 -1.008167E-002 -5.623840E-002 -4.844525E-002 3.472888E-002 1.037624E-001 7.300927E-002 8.027895E-017 1.432095E-003
<VARIANCE> 39
 2.212374E000 1.561295E001 6.162082E000 1.157614E001 7.119682E000 7.076057E000 7.639640E000 9.045224E000 4.996912E000 5.513457E000 3.826100E000 1.000000E-004 8.114937E-003 6.575162E-002 1.152418E-001 3.223309E-001 4.842236E-001 4.173194E-001 3.320900E-001 3.935318E-001 4.197142E-001 3.720043E-001 4.690072E-001 2.718194E-001 1.000000E-004 3.431979E-004 1.464088E-002 2.993842E-002 6.399102E-002 7.925617E-002 8.233870E-002 7.328380E-002 8.822858E-002 9.233043E-002 8.080947E-002 9.202566E-002 6.238657E-002 1.000000E-004 1.000000E-004
<MIXTURE> 5 0.20434909
<MEAN> 39
 -1.103361E001 -4.930235E000 1.696508E000 5.773097E-001 1.821999E000 -2.056603E000 -3.341459E000 -1.238495E000 6.271229E-001 -5.162199E-001 -1.196902E000 1.551451E-013 1.350447E-001 7.271809E-002 2.840411E-001 -1.795010E-001 6.146220E-002 -1.876945E-001 6.454946E-002 9.517138E-002 -1.344916E-003 -6.051141E-002 -1.427410E-001 -8.843432E-002 -1.085173E-015 -1.145716E-002 -1.999368E-004 8.653171E-003 -3.569768E-002 -6.861850E-002 -2.229812E-002 1.558094E-002 6.426821E-002 4.493523E-002 -1.174473E-002 -4.485403E-002 -1.063793E-002 1.163109E-016 1.042591E-005
<VARIANCE> 39
 9.462358E-001 7.892870E000 4.127428E000 4.105267E000 4.824154E000 5.501325E000 4.660079E000 9.378956E000 3.923789E000 3.937886E000 3.119489E000 1.000000E-004 7.028820E-003 4.692949E-002 1.157278E-001 1.594935E-001 2.732586E-001 3.012817E-001 4.039144E-001 4.135188E-001 3.778645E-001 3.396555E-001 3.441344E-001 2.286896E-001 1.000000E-004 1.557900E-004 9.717233E-003 2.169226E-002 2.998814E-002 5.235589E-002 5.571871E-002 7.664822E-002 8.182970E-002 7.368358E-002 6.152065E-002 6.466448E-002 3.811063E-002 1.000000E-004 1.000000E-004
<STATE> 6
<NUMMIXES> 5
<MIXTURE> 1 0.1849004
<MEAN> 39
 -6.978799E000 -7.957824E-001 4.510667E000 -5.705733E000 4.959040E000 -1.307270E000 2.194418E000 1.649748E000 -1.846946E-001 -1.312130E-001 6.934295E-001 1.746385E-013 3.468793E-001 2.884624E-001 4.865381E-001 8.297819E-001 1.963910E-001 7.370819E-001 1.930257E-001 7.119650E-002 4.094832E-001 -4.640719E-003 1.325019E-002 2.063850E-001 2.078351E-015 6.512959E-002 6.513613E-002 2.780043E-002 -4.422293E-002 1.390333E-001 -3.120719E-002 1.347472E-001 1.196295E-001 -2.808838E-003 6.451846E-002 2.171892E-002 -5.522557E-002 -1.057793E-015 -8.098174E-003
<VARIANCE> 39
 2.600524E001 1.611868E001 1.517220E001 1.087747E001 1.488532E001 1.160662E001 1.756725E001 1.046631E001 6.673139E000 7.234236E000 6.618701E000 1.000000E-004 8.402885E-002 1.356168E000 8.391017E-001 1.045366E000 1.531506E000 6.932173E-001 1.283796E000 1.214607E000 9.224494E-001 5.652300E-001 5.304046E-001 6.894611E-001 1.000000E-004 6.041788E-003 2.442226E-001 1.638754E-001 2.479308E-001 2.106720E-001 1.776336E-001 2.080723E-001 1.844425E-001 1.803135E-001 9.807276E-002 9.882799E-002 1.399669E-001 1.000000E-004 1.342688E-003
<MIXTURE> 2 0.27404013
<MEAN> 39
 -6.881145E000 -4.102313E000 1.890044E000 -7.975486E000 2.610775E000 -2.027923E000 3.032728E000 -5.349716E-003 -2.337956E-001 -3.479609E-001 -3.957483E-001 1.652923E-013 2.411553E-002 9.290348E-004 2.926728E-002 -2.709207E-002 7.007068E-003 5.223567E-002 6.075852E-002 5.394177E-002 2.926129E-002 5.443747E-002 4.710657E-004 1.710648E-002 5.522001E-017 1.028773E-003 4.157209E-002 6.828794E-002 1.034814E-001 9.940338E-002 8.743735E-002 4.930428E-002 8.142393E-002 6.048749E-002 5.070610E-002 2.538161E-002 8.499529E-003 1.548622E-016 7.556542E-003
<VARIANCE> 39
 6.535324E-001 1.443790E000 1.456604E000 2.431466E000 3.844919E000 4.419546E000 4.221468E000 4.346581E000 4.474995E000 3.806381E000 3.204247E000 1.000000E-004 1.935602E-003 6.761155E-002 1.456873E-001 1.968264E-001 2.350824E-001 3.425042E-001 4.068589E-001 4.332114E-001 4.393042E-001 3.337437E-001 3.180289E-001 3.110370E-001 1.000000E-004 3.706389E-004 1.509739E-002 2.980238E-002 3.291426E-002 4.478542E-002 6.408575E-002 8.729477E-002 8.392644E-002 8.409313E-002 6.493975E-002 6.129982E-002 6.358727E-002 1.000000E-004 1.364232E-004
<MIXTURE> 3 0.26036853
<MEAN> 39
 -6.141170E000 -2.808559E000 3.744885E000 -6.023732E000 4.168874E000 -6.838384E-001 4.550580E000 1.058029E000 7.588379E-001 -1.278432E-001 -1.570015E-001 1.659376E-013 1.240167E-001 -5.105382E-002 -1.533669E-002 -1.058390E-001 -1.407415E-001 -1.521886E-001 -1.162602E-001 -1.433362E-001 -1.270695E-001 -9.428115E-002 -4.952734E-002 -2.091516E-002 -8.348045E-017 -1.020294E-002 -2.104654E-002 -4.630991E-002 -5.551569E-002 -5.448530E-002 -2.596550E-002 -2.156779E-002 -5.183269E-002 -3.408001E-002 -3.254601E-002 2.710045E-003 3.281529E-003 6.134815E-017 -3.369032E-004
<VARIANCE> 39
 5.558473E-001 1.788207E000 2.224166E000 2.996267E000 3.795837E000 5.464820E000 3.816376E000 4.177694E000 3.658733E000 2.988950E000 2.515118E000 1.000000E-004 6.100495E-003 6.145802E-002 1.535246E-001 2.069197E-001 2.887056E-001 3.475767E-001 4.529615E-001 4.066449E-001 4.205157E-001 3.762771E-001 2.735962E-001 2.392076E-001 1.000000E-004 6.180260E-004 1.015214E-002 2.103876E-002 3.401541E-002 4.469130E-002 5.664015E-002 7.969380E-002 7.272545E-002 8.310508E-002 7.375932E-002 5.436869E-002 4.139569E-002 1.000000E-004 1.000000E-004
<MIXTURE> 4 0.18738495
<MEAN> 39
 -3.839393E000 -1.257235E-001 7.486731E000 -2.670147E000 8.456736E000 1.963373E000 6.579466E000 2.887538E000 2.050826E000 1.171553E000 4.396615E-001 1.709787E-013 5.143756E-001 -2.167742E-001 -1.749217E-001 -2.582050E-001 -9.556382E-002 -2.010995E-001 3.407292E-002 -7.803003E-003 -6.068533E-002 5.608675E-002 -2.325221E-002 -5.799310E-003 -9.160633E-016 -2.979369E-002 -3.543146E-002 -9.008144E-002 -1.213754E-001 -1.260740E-001 -1.086591E-001 -1.497320E-001 -1.337294E-001 -1.203446E-001 -5.314966E-002 -3.769098E-002 -3.324462E-002 3.240571E-016 -7.109043E-003
<VARIANCE> 39
 1.517967E000 2.317852E000 4.309163E000 4.984400E000 5.445899E000 6.083207E000 5.533138E000 4.791073E000 4.524757E000 3.435007E000 3.260475E000 1.000000E-004 2.359291E-002 8.037023E-002 1.507209E-001 2.383489E-001 3.287586E-001 3.885150E-001 5.556738E-001 6.270523E-001 5.085183E-001 5.112437E-001 3.663198E-001 3.076942E-001 1.000000E-004 7.752625E-004 2.071428E-002 4.024533E-002 5.352385E-002 5.647949E-002 6.938189E-002 8.656953E-002 1.168147E-001 8.486533E-002 8.540186E-002 6.737182E-002 5.824586E-002 1.000000E-004 2.060254E-004
<MIXTURE> 5 0.093305945
<MEAN> 39
 -1.179139E001 3.777888E000 1.319968E000 -3.925338E000 9.164879E-001 -5.180984E-001 -1.798233E000 2.504323E000 -1.313864E000 -1.756902E000 1.185392E000 1.461323E-013 2.377117E-002 2.036309E-001 8.042873E-003 -2.978060E-001 4.082183E-001 -2.338186E-001 6.603754E-002 2.894590E-001 -3.721193E-001 2.111876E-001 1.774528E-001 -2.562345E-001 -1.350190E-015 -8.432816E-003 -6.279529E-002 -2.677610E-003 5.806911E-002 -5.568173E-002 9.062204E-003 -1.672811E-002 -3.230906E-002 4.226286E-002 -2.197578E-002 -1.404053E-002 5.750373E-002 3.215020E-016 3.700093E-003
<VARIANCE> 39
 2.651986E000 1.467077E000 4.153752E000 6.184507E000 4.837649E000 3.931679E000 5.381542E000 7.399879E000 3.370422E000 3.995871E000 3.181761E000 1.000000E-004 1.019296E-002 1.369991E-001 1.090562E-001 2.475044E-001 4.007999E-001 3.184055E-001 3.856582E-001 5.361100E-001 5.648383E-001 3.785585E-001 3.296878E-001 3.065510E-001 1.000000E-004 6.523912E-004 1.184417E-002 1.743456E-002 3.807827E-002 7.747176E-002 5.358279E-002 7.166471E-002 9.081890E-002 1.011729E-001 6.654870E-002 6.082902E-002 5.287760E-002 1.000000E-004 1.000000E-004
<TRANSP> 7
 0.000000E000 1.000000E000 0.000000E000 0.000000E000 0.000000E000 0.000000E000 0.000000E000
 0.000000E000 9.700136E-001 2.998638E-002 0.000000E000 0.000000E000 0.000000E000 0.000000E000
 0.000000E000 0.000000E000 9.779323E-001 2.206772E-002 0.000000E000 0.000000E000 0.000000E000
 0.000000E000 0.000000E000 0.000000E000 9.693130E-001 3.068697E-002 0.000000E000 0.000000E000
 0.000000E000 0.000000E000 0.000000E000 0.000000E000 9.731122E-001 2.688783E-002 0.000000E000
 0.000000E000 0.000000E000 0.000000E000 0.000000E000 0.000000E000 9.820171E-001 1.798290E-002
 0.000000E000 0.000000E000 0.000000E000 0.000000E000 0.000000E000 0.000000E000 1.000000E000
<ENDHMM>
~o
<STREAMINFO> 1 39
<VECSIZE> 39 <NULLD> <MFCC_E_D_A>
~h "EM"
<BEGINHMM>
<NUMSTATES> 7
<STATE> 2
<NUMMIXES> 5
<MIXTURE> 1 0.17285582
<MEAN> 39
 -7.640922E000 3.029995E000 -1.912892E000 -2.715722E000 -3.001157E-001 -1.205989E000 1.617413E000 1.924888E000 -2.251143E-001 -1.391402E000 -5.906865E-001 1.597111E-013 1.982080E-001 -4.606543E-002 -1.037606E-002 1.919317E-002 -7.699854E-002 -2.281928E-002 -2.676628E-002 -8.733653E-002 -2.505413E-002 1.849888E-002 -2.551042E-002 -3.102354E-002 -2.874320E-016 -5.026586E-003 -1.898864E-002 6.176013E-003 6.930386E-002 5.713536E-003 -4.436998E-003 -1.505020E-001 -2.606710E-001 -2.121516E-001 -9.353503E-002 1.152498E-002 7.977924E-003 6.656881E-017 -4.874507E-004
<VARIANCE> 39
 8.345398E-001 2.936350E000 3.105620E000 5.136638E000 3.195671E000 4.020902E000 3.633755E000 4.105629E000 4.339952E000 4.719367E000 4.788416E000 1.000000E-004 2.172846E-002 6.254103E-002 1.207532E-001 1.913909E-001 2.974014E-001 2.202584E-001 4.186999E-001 4.121781E-001 4.115443E-001 3.415379E-001 2.858276E-001 2.896620E-001 1.000000E-004 3.532548E-004 1.626716E-002 2.562680E-002 4.485760E-002 7.112347E-002 6.420842E-002 7.369597E-002 5.047438E-002 6.416065E-002 6.332548E-002 6.281613E-002 6.960496E-002 1.000000E-004 1.000000E-004
<MIXTURE> 2 0.27238366
<MEAN> 39
 -7.260445E000 4.447323E000 -8.292962E-001 -2.625025E000 -8.023224E-001 -2.655440E000 -6.001048E-001 -2.162158E-001 -7.032621E-001 -1.060991E000 -6.490234E-001 1.590008E-013 2.125522E-001 3.297942E-002 2.063685E-002 1.428592E-002 -2.756172E-002 5.518879E-002 8.246904E-002 6.990132E-002 1.414395E-002 -3.414435E-002 5.300160E-004 4.631718E-002 4.408846E-017 1.165219E-004 -4.509677E-002 -9.786490E-002 -1.025212E-001 -1.082683E-001 -3.391685E-002 5.868498E-002 5.085434E-002 2.396708E-002 -1.246103E-002 -1.958784E-002 1.564598E-002 1.489751E-016 -2.066544E-003
<VARIANCE> 39
 5.494479E-001 1.179024E000 1.433528E000 2.470957E000 2.713999E000 2.995115E000 3.446514E000 2.783012E000 3.495248E000 2.903114E000 3.011619E000 1.000000E-004 1.027474E-002 5.335892E-002 1.250954E-001 1.984233E-001 3.399437E-001 3.483742E-001 3.535613E-001 3.799320E-001 3.684228E-001 3.604580E-001 2.989334E-001 3.264362E-001 1.000000E-004 2.229782E-004 9.551513E-003 1.567131E-002 3.180081E-002 5.624487E-002 5.463536E-002 5.384764E-002 6.117835E-002 5.797535E-002 7.929112E-002 4.330101E-002 5.423648E-002 1.000000E-004 1.000000E-004
<MIXTURE> 3 0.2229248
<MEAN> 39
 -7.858344E000 2.589519E000 -2.349893E000 -3.394941E000 -1.179083E000 -3.263463E000 -1.285164E000 -5.310124E-001 -1.609243E000 -1.790051E000 -9.469880E-001 1.597383E-013 1.544154E-001 3.829870E-002 2.830024E-002 3.063159E-002 -7.043057E-003 -2.124028E-002 -2.987230E-002 -4.850486E-002 -8.073117E-002 -3.008234E-002 -2.137363E-002 -9.069333E-003 -1.433317E-016 -1.115273E-003 2.868098E-002 7.457728E-002 7.915050E-002 8.238646E-002 6.484797E-002 7.657090E-002 1.210619E-001 1.355840E-001 1.027535E-001 1.464738E-002 -1.223687E-002 -4.432324E-017 3.369897E-003
<VARIANCE> 39
 9.785308E-001 2.577662E000 2.050332E000 3.863037E000 3.189400E000 4.379013E000 3.102452E000 4.338065E000 3.570258E000 3.339438E000 3.601543E000 1.000000E-004 1.149530E-002 6.551652E-002 1.317094E-001 2.591332E-001 3.176013E-001 3.163106E-001 3.836137E-001 4.657320E-001 4.208582E-001 4.421972E-001 2.730427E-001 2.898012E-001 1.000000E-004 2.225982E-004 8.688351E-003 1.702743E-002 3.543866E-002 6.413935E-002 6.225386E-002 7.121538E-002 5.960974E-002 5.893052E-002 5.952102E-002 5.490130E-002 5.489491E-002 1.000000E-004 1.000000E-004
<MIXTURE> 4 0.13060677
<MEAN> 39
 -1.012083E001 3.069567E-001 -1.365208E000 -4.097726E000 -1.007270E-001 4.905210E-001 -8.771507E-001 8.620272E-001 -1.584291E000 -3.317845E-001 -1.991692E-001 1.371563E-013 3.243595E-002 9.162803E-001 -1.235955E000 6.615146E-001 -1.205678E000 1.345541E000 -3.684922E-001 7.852122E-001 -2.677490E-001 5.859524E-002 -2.763058E-001 1.143230E-001 1.388902E-014 3.366528E-002 -2.476260E-001 1.453602E-001 -6.875710E-002 6.327956E-003 3.151860E-001 1.202557E-001 -3.358164E-002 -3.320472E-002 6.421572E-002 -3.315943E-002 -7.823700E-002 -1.995125E-016 8.458363E-003
<VARIANCE> 39
 1.360813E001 1.111080E001 1.683913E001 1.462186E001 1.604518E001 1.373939E001 1.405081E001 1.004189E001 8.545940E000 6.721783E000 4.812345E000 1.000000E-004 3.856270E-002 2.964708E000 1.811818E000 1.785101E000 1.053582E000 1.528047E000 2.071842E000 1.930291E000 7.473819E-001 9.977587E-001 3.810986E-001 4.777994E-001 1.000000E-004 1.499774E-003 1.413131E-001 3.348272E-001 3.210956E-001 3.056110E-001 3.393262E-001 2.395264E-001 2.109291E-001 1.975521E-001 2.058299E-001 8.674148E-002 9.597889E-002 1.000000E-004 2.584574E-004
<MIXTURE> 5 0.20122895
<MEAN> 39
 -1.613316E001 -2.925415E-001 -4.092394E000 -3.476461E000 6.086314E000 2.622790E000 -3.923648E000 -6.358726E-001 -2.110705E000 -1.443224E000 -1.614159E000 1.465280E-013 2.781078E-001 -6.977788E-002 -9.975345E-001 -8.635264E-002 5.525296E-001 1.839812E-001 -4.998472E-001 -1.594549E-001 1.067059E-001 1.309124E-002 -1.116759E-002 -1.946416E-003 2.456277E-015 1.605681E-002 1.957546E-001 -1.042582E-001 1.017455E-001 5.500206E-002 -2.398076E-001 -1.990515E-001 1.157771E-001 8.830139E-002 7.443901E-003 3.171089E-004 3.339532E-002 4.546880E-016 -3.301488E-003
<VARIANCE> 39
 2.484433E001 6.314531E001 1.195365E001 2.419907E001 3.851690E001 2.289659E001 2.221686E001 8.717604E000 1.566392E001 7.465630E000 4.792232E000 1.000000E-004 1.041413E-001 9.263217E-001 1.521435E000 7.380441E-001 1.086724E000 1.325142E000 1.038481E000 8.683356E-001 7.044026E-001 6.975600E-001 3.825651E-001 3.908843E-001 1.000000E-004 9.546465E-004 1.229478E-001 2.758770E-001 1.298472E-001 1.674713E-001 1.676003E-001 1.630902E-001 1.315003E-001 1.097779E-001 1.082444E-001 7.910409E-002 6.166289E-002 1.000000E-004 1.137115E-004
<STATE> 3
<NUMMIXES> 5
<MIXTURE> 1 0.10997748
<MEAN> 39
 -2.231472E001 1.080859E001 -4.050436E000 7.449325E-001 -1.608541E000 7.489473E000 -7.244598E000 1.844803E000 -7.024154E-002 1.472837E000 -2.201729E000 3.261204E-014 9.655042E-001 -5.816343E-004 -2.462695E-004 1.699708E-003 1.543123E-003 -3.851391E-003 1.461400E-003 -1.275343E-004 -4.028752E-003 2.524968E-003 3.413159E-003 2.070001E-004 -2.396112E-018 2.289545E-005 -1.060686E-003 1.548271E-003 1.572157E-003 -8.909994E-005 -1.864953E-003 -2.431111E-003 1.061900E-003 3.799667E-003 -1.025449E-003 -1.668708E-003 -1.803124E-008 -8.217835E-019 3.821372E-005
<VARIANCE> 39
 4.603280E-001 5.184795E-001 1.294685E000 7.734405E-001 1.208064E000 1.373095E000 1.338392E000 1.383761E000 1.044524E000 1.185663E000 1.195115E000 1.000000E-004 1.538078E-004 4.559121E-002 5.701486E-002 1.303659E-001 8.855171E-002 1.349653E-001 1.411613E-001 1.437441E-001 1.593329E-001 1.241858E-001 1.345306E-001 1.193948E-001 1.000000E-004 1.000000E-004 9.084730E-003 1.136367E-002 2.584592E-002 1.896554E-002 2.792849E-002 2.762848E-002 3.127813E-002 3.285462E-002 2.757607E-002 2.612840E-002 2.315332E-002 1.000000E-004 1.000000E-004
<MIXTURE> 2 0.3177276
<MEAN> 39
 -1.921013E001 -1.102491E001 2.263433E000 1.844599E000 5.155337E000 -7.348846E000 -5.029953E000 2.797942E000 2.226634E-001 -3.921504E000 -1.074750E000 2.027731E-013 6.499825E-001 -3.550599E-002 1.106648E-002 2.122361E-002 4.475255E-002 -6.817000E-002 -8.715626E-002 5.820242E-002 4.835854E-002 -2.384073E-002 1.561321E-002 9.132386E-004 -1.768471E-016 -1.024778E-003 2.170149E-002 2.539730E-002 -2.223120E-002 -2.099811E-002 2.001524E-002 3.238961E-002 5.213570E-003 -3.269993E-002 -1.430842E-002 1.263861E-002 5.330016E-003 -1.151948E-017 -1.003484E-003
<VARIANCE> 39
 2.124678E000 6.429917E000 6.000401E000 5.399300E000 9.038375E000 6.552642E000 7.732248E000 7.446797E000 7.247047E000 5.319933E000 3.964720E000 1.000000E-004 1.575534E-002 1.076734E-001 1.684313E-001 2.420478E-001 3.124214E-001 3.939602E-001 4.052049E-001 3.760544E-001 4.342691E-001 3.267437E-001 4.013907E-001 2.918867E-001 1.000000E-004 1.636177E-004 1.736954E-002 3.017208E-002 3.739088E-002 5.922879E-002 5.975532E-002 7.781786E-002 7.116698E-002 7.954671E-002 6.626851E-002 7.832915E-002 6.101412E-002 1.000000E-004 1.000000E-004
<MIXTURE> 3 0.20744826
<MEAN> 39
 -1.207314E001 -3.946698E000 -7.213777E-001 2.206160E000 2.236982E000 -5.116650E000 -7.612340E-001 1.147382E000 -1.465379E000 -2.058166E000 -2.238495E-002 1.654683E-013 1.625424E-001 2.794626E-001 2.725655E-001 -1.705317E-002 1.340954E-003 -1.964811E-001 1.429914E-001 1.465563E-001 1.040139E-002 1.828979E-002 6.364717E-003 4.233132E-002 -1.367390E-015 -1.605096E-002 -3.502383E-002 1.512025E-002 1.408814E-002 -2.878241E-003 -4.533233E-002 -7.642225E-003 -2.281561E-002 2.650631E-002 1.397488E-002 1.128769E-002 9.451625E-004 -2.097040E-016 -3.823926E-004
<VARIANCE> 39
 1.021547E001 1.321058E001 1.002411E001 1.136842E001 2.180578E001 1.261034E001 1.313500E001 8.047270E000 5.550215E000 6.380826E000 5.478461E000 1.000000E-004 3.561937E-002 1.959081E-001 4.782160E-001 4.550565E-001 5.237238E-001 6.525431E-001 6.026939E-001 6.541831E-001 5.792651E-001 4.184079E-001 4.158171E-001 3.739155E-001 1.000000E-004 9.443751E-004 3.045984E-002 7.499987E-002 9.091907E-002 9.985498E-002 1.223661E-001 1.133888E-001 1.301754E-001 1.007526E-001 7.521062E-002 8.133796E-002 6.665322E-002 1.000000E-004 1.205480E-004
<MIXTURE> 4 0.16155446
<MEAN> 39
 -1.043397E001 2.977397E000 -5.295642E-001 -3.996206E-001 -1.042938E000 -2.174801E000 -5.375707E-001 4.719616E-001 3.046135E-001 3.150138E-001 6.607319E-001 1.407400E-013 -4.600684E-002 -1.135295E-002 7.936630E-002 -1.649589E-003 -6.055977E-002 2.062896E-002 7.264367E-002 6.223825E-002 2.698036E-002 5.072102E-002 2.658652E-002 6.120203E-003 -4.761067E-017 7.587747E-005 -2.840335E-003 -1.688564E-002 -3.823441E-002 -4.817279E-002 -2.261777E-002 -3.863275E-002 -1.426561E-002 -3.721808E-002 -1.092297E-001 -1.530423E-001 -1.175368E-001 -2.282891E-017 8.430098E-005
<VARIANCE> 39
 7.418356E-001 2.097589E000 2.064592E000 3.772916E000 3.740734E000 3.884295E000 4.542195E000 4.265174E000 3.070357E000 2.627879E000 2.605397E000 1.000000E-004 9.355447E-003 5.270547E-002 1.310501E-001 2.334120E-001 2.651248E-001 3.117829E-001 3.515731E-001 3.684466E-001 3.611700E-001 3.638228E-001 3.439027E-001 2.622117E-001 1.000000E-004 4.427237E-004 1.300702E-002 2.230113E-002 4.015436E-002 5.435368E-002 6.204737E-002 7.186782E-002 7.485199E-002 7.478782E-002 6.517632E-002 5.242474E-002 4.223357E-002 1.000000E-004 1.000000E-004
<MIXTURE> 5 0.20329222
<MEAN> 39
 -1.059364E001 2.545003E000 -1.263279E000 -1.253347E000 -1.943379E000 -3.167618E000 -6.862660E-001 5.618615E-002 -1.087399E000 -1.919786E000 -9.407734E-001 1.402536E-013 -9.616819E-002 -1.190330E-002 9.151757E-002 1.549206E-002 -8.318955E-002 -6.468669E-002 7.927435E-003 -7.283840E-002 -9.120061E-002 -1.429920E-002 2.848065E-002 -1.029064E-002 -2.635909E-016 -1.702139E-003 -1.041148E-002 -1.788004E-002 2.179524E-002 4.953681E-002 5.563854E-002 4.342586E-002 1.716911E-002 3.553668E-002 8.186962E-002 1.073366E-001 9.353658E-002 1.727725E-016 1.549275E-003
<VARIANCE> 39
 7.330812E-001 3.003872E000 1.883988E000 3.981179E000 3.778565E000 4.033457E000 4.220905E000 4.302219E000 3.247786E000 2.305864E000 1.791816E000 1.000000E-004 4.144642E-003 4.819524E-002 1.141682E-001 1.596208E-001 2.554183E-001 2.739890E-001 2.876607E-001 3.706036E-001 3.594835E-001 3.126870E-001 2.878234E-001 2.429935E-001 1.000000E-004 1.000000E-004 1.056670E-002 1.929850E-002 3.059297E-002 4.378229E-002 4.725691E-002 5.135832E-002 6.920866E-002 6.290025E-002 5.340401E-002 4.018811E-002 3.703089E-002 1.000000E-004 1.000000E-004
<STATE> 4
<NUMMIXES> 5
<MIXTURE> 1 0.2455029
<MEAN> 39
 -8.117132E000 -7.756338E000 3.733684E000 -7.584159E000 5.056691E000 -2.983413E000 5.347444E000 9.899858E-001 9.797870E-002 -4.345460E-001 3.253341E-001 1.873663E-013 2.077440E-001 1.651396E-001 7.651775E-002 -1.055685E-001 5.562892E-002 -1.046108E-001 1.330676E-001 -5.385401E-002 2.079904E-002 -2.696012E-002 3.272348E-002 -5.277461E-002 -1.797033E-015 -1.779705E-002 -2.133018E-002 6.394450E-003 -2.885124E-002 -3.820900E-002 -2.867915E-002 -4.186610E-002 -4.326289E-002 -2.046725E-002 -1.292670E-002 -6.826051E-003 -2.209984E-003 9.675653E-017 -1.386516E-004
<VARIANCE> 39
 1.365106E001 2.337324E001 1.285272E001 1.497810E001 7.820940E000 2.127695E001 1.254285E001 1.012791E001 1.022651E001 7.466570E000 4.155979E000 1.000000E-004 2.719553E-002 2.010877E-001 2.956314E-001 3.795913E-001 4.198304E-001 5.819080E-001 5.712635E-001 6.208410E-001 5.636674E-001 4.827883E-001 4.186965E-001 3.082520E-001 1.000000E-004 7.881583E-004 2.670686E-002 4.507881E-002 6.976660E-002 7.064750E-002 1.176840E-001 1.065495E-001 1.161126E-001 1.049683E-001 9.262139E-002 8.059900E-002 5.781972E-002 1.000000E-004 1.000000E-004
<MIXTURE> 2 0.2537086
<MEAN> 39
 -6.534903E000 -3.455368E000 2.480478E000 -7.550413E000 3.731167E000 -6.667358E-001 3.999639E000 1.109109E000 4.624516E-001 2.435732E-001 -7.967884E-002 1.651909E-013 7.247475E-003 -1.111382E-002 -1.023029E-002 -2.530075E-002 -1.527644E-002 -3.425050E-002 -7.526617E-002 -5.876026E-002 -3.090132E-002 -6.249187E-003 -2.226578E-002 2.046560E-002 9.102663E-017 -1.960370E-003 -1.255437E-002 -2.444356E-002 -2.623341E-002 -6.473604E-002 -9.167042E-002 -1.198576E-001 -1.005346E-001 -6.873292E-002 -4.595728E-002 -3.814120E-002 -2.197838E-002 3.800758E-017 -1.272819E-003
<VARIANCE> 39
 8.736371E-001 1.290837E000 2.053761E000 2.788876E000 3.132895E000 3.809340E000 3.995884E000 3.616582E000 3.834751E000 3.206502E000 2.522951E000 1.000000E-004 4.966313E-003 5.816628E-002 1.173459E-001 2.059811E-001 2.848277E-001 3.553696E-001 4.282657E-001 4.322383E-001 4.145320E-001 3.702760E-001 3.293106E-001 2.711705E-001 1.000000E-004 3.269048E-004 1.219217E-002 1.994263E-002 3.462261E-002 5.074173E-002 5.970856E-002 7.178716E-002 7.104480E-002 7.893821E-002 6.669798E-002 6.206228E-002 5.147819E-002 1.000000E-004 1.000000E-004
<MIXTURE> 3 0.21985911
<MEAN> 39
 -6.744383E000 -4.154739E000 1.682739E000 -8.883649E000 1.826379E000 -2.879749E000 2.113946E000 -2.875924E-001 -5.659224E-001 -3.757046E-001 -4.876448E-001 1.653829E-013 -4.261601E-002 2.454679E-002 3.420559E-002 1.036648E-002 -1.550042E-002 -2.553043E-002 1.941941E-002 -9.063953E-004 3.396826E-002 -1.374378E-003 4.277113E-003 -5.515593E-003 -1.510954E-016 3.721205E-004 1.313241E-002 3.937653E-002 6.519897E-002 9.203092E-002 1.421462E-001 1.477314E-001 1.382350E-001 1.163230E-001 6.827279E-002 4.459146E-002 5.290212E-002 1.256072E-016 5.391569E-003
<VARIANCE> 39
 7.606935E-001 1.656789E000 2.171654E000 2.937524E000 2.941189E000 3.697928E000 3.742110E000 3.486636E000 3.329870E000 3.107933E000 2.968420E000 1.000000E-004 2.746114E-003 6.944337E-002 1.449967E-001 1.976049E-001 3.091244E-001 3.977439E-001 4.648446E-001 4.836672E-001 4.172033E-001 3.476204E-001 3.275602E-001 3.211519E-001 1.000000E-004 3.146965E-004 1.586350E-002 2.720661E-002 4.195020E-002 5.496250E-002 5.988546E-002 6.231677E-002 8.234627E-002 6.988920E-002 6.659829E-002 6.308202E-002 5.809546E-002 1.000000E-004 1.000000E-004
<MIXTURE> 4 0.16567576
<MEAN> 39
 -6.954252E000 -3.328670E000 1.905572E000 -1.390528E001 2.229565E000 -6.629107E000 2.967107E000 3.372934E000 -3.267717E-001 -2.061992E000 3.080930E000 2.136187E-013 4.171675E-001 -4.272815E-002 -1.850122E-001 -1.216809E-001 -1.976297E-001 2.783849E-001 2.035830E-001 1.566252E-001 -6.547180E-002 -1.278154E-001 -5.724606E-002 5.714665E-002 3.077412E-015 3.800771E-002 -5.272046E-002 -4.737323E-002 -1.715043E-002 5.810346E-002 1.969862E-002 7.158690E-002 -4.770221E-004 -5.535648E-002 3.117362E-003 2.043979E-002 -4.334647E-002 -1.426201E-016 -1.422663E-003
<VARIANCE> 39
 8.530006E000 2.582685E001 1.821956E001 4.425639E001 2.278458E001 4.370111E001 1.783077E001 2.085302E001 1.439094E001 1.313552E001 1.336961E001 1.000000E-004 1.010057E-001 6.916531E-001 1.540737E000 1.086840E000 1.338724E000 1.417290E000 2.229467E000 1.220050E000 1.548824E000 1.061677E000 8.289663E-001 8.269430E-001 1.000000E-004 2.198352E-003 1.613096E-001 1.911886E-001 1.675715E-001 2.080714E-001 2.532230E-001 2.306329E-001 2.269900E-001 2.341011E-001 1.978095E-001 1.507095E-001 1.389034E-001 1.000000E-004 5.344078E-004
<MIXTURE> 5 0.11525362
<MEAN> 39
 -1.466764E001 -1.575283E001 5.118397E-001 -1.049782E001 6.078871E000 -6.621570E000 2.252259E000 -3.968275E-001 -8.534946E-001 -2.197189E000 1.284536E000 2.585984E-013 8.765708E-001 -3.200414E-001 5.440618E-003 4.565260E-001 2.736124E-001 -2.528881E-002 -4.395399E-001 1.098576E-002 4.911300E-002 2.584520E-001 3.340944E-002 9.197790E-003 -3.646083E-016 -1.134199E-002 4.706328E-002 4.567925E-002 1.731342E-002 -4.375567E-002 -2.126928E-002 -3.828639E-002 3.809331E-002 3.766313E-002 -1.144756E-003 -2.770949E-002 1.384544E-002 -7.336034E-017 -2.532647E-003
<VARIANCE> 39
 1.117725E001 4.601184E000 2.781189E001 1.556368E001 1.388002E001 3.557196E001 1.373939E001 1.209813E001 9.932522E000 6.786172E000 3.876364E000 1.000000E-004 7.053090E-003 2.399442E-001 3.960525E-001 5.464087E-001 1.102992E000 1.023316E000 1.584410E000 1.177148E000 1.044183E000 7.856258E-001 7.161114E-001 3.812731E-001 1.000000E-004 2.587086E-004 2.516080E-002 5.442653E-002 1.057025E-001 1.545234E-001 1.556591E-001 2.698269E-001 1.747183E-001 1.993946E-001 1.475611E-001 1.350076E-001 7.804489E-002 1.000000E-004 1.000000E-004
<STATE> 5
<NUMMIXES> 5
<MIXTURE> 1 0.1533137
<MEAN> 39
 -1.708857E001 -1.060691E000 2.674825E000 -6.078719E000 3.990126E000 -1.445732E000 9.372543E-001 -3.053836E-001 1.405443E000 -1.686814E000 6.201208E-002 1.984621E-013 4.567285E-001 -2.269326E000 -8.276852E-001 3.987552E-001 -5.307342E-001 6.300570E-001 -9.166144E-002 -1.521629E-001 -3.192874E-001 4.572328E-001 -4.614961E-001 -1.719465E-001 1.319293E-014 1.311078E-001 1.330176E-001 -2.681243E-001 -4.062899E-002 5.744163E-002 -2.269462E-002 -1.778934E-002 1.663912E-002 -9.394570E-002 1.089375E-002 3.214059E-003 -4.967033E-002 -5.112635E-017 -1.718391E-003
<VARIANCE> 39
 5.422243E001 3.982011E001 3.077203E001 2.693858E001 1.898143E001 1.315302E001 1.183092E001 9.707465E000 7.084234E000 6.526352E000 5.824959E000 1.000000E-004 1.490503E-001 3.300811E000 2.597361E000 2.112744E000 1.457923E000 1.142996E000 1.295832E000 1.159909E000 1.307317E000 7.440078E-001 7.309061E-001 7.990179E-001 1.000000E-004 9.602286E-003 1.053632E000 3.963853E-001 4.023137E-001 2.779547E-001 2.114954E-001 2.539873E-001 2.275113E-001 2.328728E-001 1.402331E-001 1.685049E-001 1.323172E-001 1.000000E-004 3.139231E-003
<MIXTURE> 2 0.25016567
<MEAN> 39
 -2.556418E001 -3.720408E000 -3.826591E000 -3.411787E000 7.077073E000 -4.125206E-001 -1.798796E-003 -2.062531E000 1.524060E000 -2.770193E000 -7.834862E-001 2.396139E-013 9.301238E-001 9.390502E-002 -2.156671E-001 -2.097509E-001 -1.234879E-001 1.487942E-001 1.487166E-001 1.145920E-001 -3.650059E-002 -1.976292E-001 -1.565043E-002 7.619603E-002 3.329685E-016 -3.176707E-003 3.995532E-002 5.672192E-002 -1.418481E-002 -1.724041E-002 -5.987931E-002 1.857152E-002 2.981668E-002 3.746703E-002 -1.290444E-002 -2.954297E-002 -1.375274E-002 -3.670248E-016 -3.583510E-003
<VARIANCE> 39
 4.325164E000 1.340893E001 1.290586E001 6.881129E000 1.119803E001 1.800915E001 1.301968E001 1.470261E001 1.667272E001 1.372168E001 2.316550E001 1.000000E-004 2.416619E-003 3.376372E-001 6.800657E-001 5.773180E-001 5.420291E-001 5.469654E-001 6.639162E-001 8.861587E-001 8.233038E-001 7.247091E-001 1.036043E000 1.590555E000 1.000000E-004 2.653671E-004 6.942140E-002 1.127873E-001 1.029496E-001 9.525916E-002 9.347379E-002 1.152608E-001 1.649542E-001 1.534745E-001 1.471779E-001 1.870140E-001 3.201397E-001 1.000000E-004 1.000000E-004
<MIXTURE> 3 0.13425137
<MEAN> 39
 -2.189815E001 -3.926045E000 -8.710038E000 -5.622586E000 5.267974E000 1.510934E000 2.931218E000 -9.003621E-001 -5.863348E-001 -3.385795E000 -1.029976E000 2.198187E-013 6.280549E-001 4.993851E-001 2.543242E-002 4.699103E-002 -8.812454E-002 -2.649616E-001 -2.858020E-001 -7.614186E-002 -1.595689E-002 5.889679E-002 2.149611E-001 6.042329E-002 -3.127681E-015 -4.362178E-002 2.438854E-002 -3.937215E-003 1.254575E-001 1.933292E-002 4.646673E-002 -3.874313E-002 -5.603916E-002 -8.085304E-002 -3.195611E-004 7.349641E-002 4.755288E-002 -2.054874E-017 -9.751809E-004
<VARIANCE> 39
 6.218326E000 1.002527E001 1.399387E001 8.426978E000 1.291383E001 1.381433E001 1.023594E001 1.157303E001 1.183847E001 9.158254E000 1.067256E001 1.000000E-004 3.180757E-002 2.208820E-001 3.833447E-001 6.519642E-001 6.151628E-001 6.650311E-001 7.142235E-001 5.048152E-001 8.662337E-001 6.818980E-001 1.085547E000 8.225672E-001 1.000000E-004 5.499417E-004 3.784555E-002 6.998903E-002 8.442321E-002 1.304430E-001 1.259080E-001 1.497570E-001 8.834641E-002 1.336375E-001 1.215283E-001 2.162279E-001 1.778060E-001 1.000000E-004 1.000000E-004
<MIXTURE> 4 0.20856063
<MEAN> 39
 -1.097666E001 -1.242171E001 7.759079E000 -1.099717E001 7.188465E-001 -4.535440E000 5.456837E000 -3.206563E000 1.998482E000 -9.160888E-002 -2.309929E-001 2.069937E-013 2.916138E-001 1.549061E-001 2.550054E-001 2.389705E-001 5.093867E-001 -1.070200E-002 3.712925E-001 2.197678E-001 1.685086E-001 -3.999826E-003 1.169751E-001 -1.462318E-001 -4.149451E-015 -3.014103E-002 -1.204873E-002 -1.740146E-002 -3.320802E-002 -5.431144E-003 3.931262E-002 4.933098E-002 -3.399380E-002 4.230688E-002 -9.227567E-004 -1.986475E-002 1.070013E-002 2.054183E-016 3.240202E-003
<VARIANCE> 39
 2.190320E000 3.923192E000 4.691624E000 1.282780E001 7.360062E000 9.281336E000 9.900975E000 7.376601E000 8.706775E000 5.585069E000 3.797665E000 1.000000E-004 2.224043E-002 9.656265E-002 2.084835E-001 2.451176E-001 4.161624E-001 6.458053E-001 5.767186E-001 6.031836E-001 6.068231E-001 4.096952E-001 4.965896E-001 3.103256E-001 1.000000E-004 3.122957E-004 2.050557E-002 5.017972E-002 4.456003E-002 8.531149E-002 1.399294E-001 1.265824E-001 1.000384E-001 1.249614E-001 8.092514E-002 1.056315E-001 6.797968E-002 1.000000E-004 1.000000E-004
<MIXTURE> 5 0.2537087
<MEAN> 39
 -1.745352E001 -1.600307E001 6.364422E000 -1.178102E001 5.602933E000 -4.406497E000 4.425504E000 -4.665073E000 2.660157E000 -2.596246E000 4.753029E-001 2.584438E-013 7.987164E-001 3.596671E-001 -1.186698E-001 -2.149571E-001 -2.011798E-001 -3.543418E-001 -2.342281E-001 5.185709E-002 -7.183108E-002 -4.304593E-002 6.587479E-002 4.259988E-002 1.561073E-017 -8.342586E-003 2.708165E-002 1.172725E-001 1.926799E-002 1.749351E-002 -2.081368E-002 -4.594741E-003 3.374035E-003 3.320464E-002 -2.823010E-002 3.789423E-002 6.571016E-003 -6.087624E-016 -5.132162E-003
<VARIANCE> 39
 6.959041E000 8.188384E000 9.527795E000 1.311642E001 1.241358E001 1.309104E001 1.344310E001 1.340407E001 9.526019E000 8.318146E000 6.350586E000 1.000000E-004 6.865259E-003 3.119940E-001 8.932736E-001 6.557269E-001 8.369346E-001 8.938299E-001 1.138612E000 1.238559E000 1.315242E000 9.947454E-001 8.320214E-001 7.564540E-001 1.000000E-004 7.935237E-004 4.795109E-002 1.468948E-001 1.264009E-001 1.583655E-001 1.532317E-001 2.144172E-001 2.243422E-001 2.257071E-001 2.053853E-001 1.601578E-001 1.643990E-001 1.000000E-004 1.243532E-004
<STATE> 6
<NUMMIXES> 5
<MIXTURE> 1 0.15943375
<MEAN> 39
 -8.677020E000 1.993244E000 4.931789E000 -4.740989E000 4.652079E000 -1.731844E000 1.161013E000 1.551688E000 -5.706729E-001 -7.217630E-001 5.478007E-001 1.744737E-013 3.305207E-001 2.956546E-001 6.609102E-001 8.233292E-001 2.455886E-001 7.927562E-001 5.557216E-002 -1.870610E-001 1.483177E-001 -2.794783E-001 -9.681146E-002 1.007713E-001 2.288305E-015 5.913508E-002 3.943521E-002 -7.976242E-003 9.747072E-003 9.124791E-002 -5.053971E-002 1.287479E-001 6.265682E-002 -3.046132E-002 2.123634E-002 -2.103447E-003 -5.606561E-002 -9.868581E-016 -6.898968E-003
<VARIANCE> 39
 4.403853E001 2.066746E001 1.737185E001 1.167348E001 1.671769E001 1.054402E001 2.158254E001 8.665721E000 7.719801E000 6.958198E000 6.329897E000 1.000000E-004 9.940165E-002 2.523062E000 9.461365E-001 1.147742E000 1.740261E000 7.584848E-001 1.412144E000 1.492233E000 8.141105E-001 6.361840E-001 5.797853E-001 7.782976E-001 1.000000E-004 7.641539E-003 5.037630E-001 2.120861E-001 2.969762E-001 3.369370E-001 1.675898E-001 2.452327E-001 3.118917E-001 1.586574E-001 1.502409E-001 1.095894E-001 1.428293E-001 1.000000E-004 1.682689E-003
<MIXTURE> 2 0.28784454
<MEAN> 39
 -1.090367E001 3.376404E000 -7.803490E-001 -2.061257E000 -9.448931E-001 -1.491930E000 -5.809469E-002 1.106306E-001 -5.112885E-001 -8.081785E-001 -3.594526E-001 1.411661E-013 -6.043137E-002 4.488688E-002 3.047290E-002 -3.606595E-003 6.832982E-002 -5.785911E-002 -8.114354E-003 -8.738833E-004 2.647799E-002 1.798779E-002 -1.576918E-002 -2.135636E-002 -4.167151E-016 -7.722023E-004 -2.329530E-002 1.724398E-003 1.368062E-002 -1.510278E-002 4.050535E-002 1.943395E-002 9.903537E-003 1.488756E-002 -2.257466E-003 3.112151E-003 1.178841E-002 1.367378E-016 1.489408E-003
<VARIANCE> 39
 8.383936E-001 1.770295E000 2.832244E000 3.178596E000 3.245253E000 4.351923E000 4.913950E000 4.428003E000 3.251858E000 3.343539E000 3.069473E000 1.000000E-004 1.013742E-002 5.953719E-002 9.711427E-002 1.857385E-001 2.298944E-001 2.928162E-001 3.386386E-001 3.540279E-001 3.812494E-001 3.380753E-001 3.259693E-001 2.233716E-001 1.000000E-004 3.101435E-004 1.534921E-002 1.994538E-002 3.776621E-002 4.596426E-002 5.547372E-002 6.212413E-002 6.991167E-002 7.149529E-002 6.056447E-002 5.739872E-002 4.211513E-002 1.000000E-004 1.000000E-004
<MIXTURE> 3 0.21374516
<MEAN> 39
 -7.561939E000 -5.994720E000 5.456418E000 -6.906003E000 8.626286E-001 -7.734650E-002 4.531298E000 -4.797047E-001 8.700098E-001 8.274522E-001 -9.288864E-001 1.632837E-013 6.034638E-003 8.629679E-002 2.098698E-001 -2.469895E-001 1.488273E-002 7.361534E-002 2.078482E-002 -4.991982E-002 3.029022E-002 -1.973397E-002 3.199946E-003 2.102459E-004 -5.339940E-016 -5.226167E-003 1.939154E-003 1.878558E-003 1.429783E-002 2.322812E-003 3.912079E-002 -4.125432E-002 8.642562E-003 -3.642933E-003 1.259521E-002 2.895718E-003 1.548881E-002 3.560456E-016 4.212482E-003
<VARIANCE> 39
 1.283370E000 6.260424E000 8.040412E000 4.387577E000 6.391752E000 5.580520E000 6.469898E000 5.014381E000 4.414572E000 4.087787E000 3.524403E000 1.000000E-004 6.463683E-003 7.582472E-002 1.303236E-001 2.103820E-001 3.112706E-001 4.216800E-001 5.522289E-001 5.244667E-001 4.723125E-001 3.945684E-001 3.885117E-001 3.330177E-001 1.000000E-004 4.252946E-004 1.664410E-002 2.333982E-002 3.885068E-002 6.050263E-002 7.513592E-002 1.089903E-001 1.070727E-001 8.967667E-002 7.475340E-002 7.889978E-002 6.886928E-002 1.000000E-004 1.286714E-004
<MIXTURE> 4 0.10276421
<MEAN> 39
 -2.893330E000 7.224385E-001 8.921778E000 -2.510218E000 8.397205E000 7.243918E-001 5.070333E000 1.083302E000 7.019893E-001 3.421802E-001 -2.788967E-001 1.742052E-013 5.070288E-001 -3.113679E-001 -3.151145E-001 -5.350086E-001 -9.718759E-002 -2.846830E-001 2.421943E-001 1.428462E-001 1.221591E-001 2.858612E-001 1.660287E-001 1.261221E-001 -1.946852E-015 -4.184236E-002 -4.405382E-002 -9.697287E-002 -1.331434E-001 -1.237749E-001 -8.563666E-002 -1.732779E-001 -7.604883E-002 -1.592330E-002 6.873601E-003 4.768767E-002 2.162561E-002 5.778554E-016 -3.372233E-003
<VARIANCE> 39
 1.976218E000 3.165721E000 5.876420E000 3.747665E000 5.781832E000 5.684530E000 5.792583E000 4.224485E000 5.433388E000 5.217323E000 3.284154E000 1.000000E-004 2.713361E-002 8.751009E-002 1.939754E-001 3.148646E-001 5.125571E-001 4.327777E-001 5.332988E-001 6.443043E-001 4.542627E-001 5.395087E-001 4.571507E-001 3.317330E-001 1.000000E-004 6.816825E-004 3.058598E-002 7.557110E-002 1.086625E-001 8.600465E-002 8.591562E-002 7.114222E-002 1.009701E-001 7.291227E-002 1.087159E-001 1.045034E-001 7.277683E-002 1.000000E-004 2.198734E-004
<MIXTURE> 5 0.23621239
<MEAN> 39
 -1.435421E001 -6.118348E-001 -1.305742E000 -4.722936E000 3.674196E000 -8.247287E-001 1.255781E000 -1.549151E000 -1.044836E000 -1.054639E000 1.032813E-001 1.717146E-013 8.571393E-002 2.657070E-001 1.104390E-001 4.868054E-002 3.106620E-002 -2.309572E-001 -6.955808E-002 -1.871231E-002 -5.268237E-003 1.126330E-002 2.104676E-002 -5.362732E-002 -1.942020E-015 -1.959533E-002 -1.953812E-002 1.972304E-002 -1.467764E-002 -8.282895E-003 -3.035591E-002 -1.896174E-002 -2.948473E-002 1.040682E-002 -1.388759E-002 -2.215403E-002 -2.857222E-003 1.011227E-016 1.814739E-003
<VARIANCE> 39
 7.467038E000 2.003718E001 1.742220E001 6.252826E000 9.073059E000 1.004502E001 1.053508E001 1.340163E001 7.427668E000 6.402242E000 9.144307E000 1.000000E-004 1.994244E-002 6.725287E-002 2.108080E-001 3.068471E-001 2.843785E-001 3.346048E-001 3.645771E-001 5.103067E-001 5.286286E-001 3.529190E-001 3.212141E-001 2.720762E-001 1.000000E-004 2.372070E-004 1.484476E-002 2.792164E-002 3.938288E-002 5.758042E-002 6.123363E-002 7.522143E-002 1.026607E-001 1.041681E-001 6.931828E-002 6.804917E-002 5.056842E-002 1.000000E-004 1.000000E-004
<TRANSP> 7
 0.000000E000 1.000000E000 0.000000E000 0.000000E000 0.000000E000 0.000000E000 0.000000E000
 0.000000E000 9.722905E-001 2.770955E-002 0.000000E000 0.000000E000 0.000000E000 0.000000E000
 0.000000E000 0.000000E000 9.857986E-001 1.420140E-002 0.000000E000 0.000000E000 0.000000E000
 0.000000E000 0.000000E000 0.000000E000 9.908683E-001 9.131731E-003 0.000000E000 0.000000E000
 0.000000E000 0.000000E000 0.000000E000 0.000000E000 9.751300E-001 2.487004E-002 0.000000E000
 0.000000E000 0.000000E000 0.000000E000 0.000000E000 0.000000E000 9.816333E-001 1.836670E-002
 0.000000E000 0.000000E000 0.000000E000 0.000000E000 0.000000E000 0.000000E000 1.000000E000
<ENDHMM>
~o
<STREAMINFO> 1 39
<VECSIZE> 39 <NULLD> <MFCC_E_D_A>
~h "Hyphen"
<BEGINHMM>
<NUMSTATES> 7
<STATE> 2
<NUMMIXES> 5
<MIXTURE> 1 0.2045238
<MEAN> 39
 -1.617288E001 2.998374E000 -2.025544E000 -3.897789E000 1.635524E000 3.166017E000 -3.594318E000 3.414737E-001 -8.085307E-001 -9.604083E-001 -1.545344E000 1.221483E-013 2.415642E-001 5.034258E-001 -1.353057E000 -1.319174E-001 -4.398201E-001 7.176563E-001 -2.581274E-001 4.145662E-001 -2.624030E-001 -3.109976E-001 -2.104777E-001 3.674843E-002 8.999727E-015 3.117945E-002 1.627008E-001 -1.440882E-001 2.807568E-002 -2.311551E-003 1.273479E-001 -9.234448E-002 1.171272E-001 -6.926099E-002 4.321048E-002 9.895670E-003 1.793012E-002 1.309034E-015 4.109579E-003
<VARIANCE> 39
 1.961152E001 3.061410E001 1.523288E001 2.415852E001 2.571838E001 1.468578E001 1.156259E001 1.227669E001 1.104387E001 1.287886E001 5.973035E000 1.000000E-004 1.574548E-001 2.323615E000 1.446959E000 1.741785E000 1.290604E000 1.471632E000 1.157667E000 1.148949E000 9.512409E-001 1.108450E000 5.664741E-001 4.455332E-001 1.000000E-004 1.166298E-003 1.827713E-001 2.652831E-001 2.529136E-001 2.535281E-001 2.462429E-001 1.295046E-001 1.432112E-001 1.784198E-001 2.502589E-001 1.323874E-001 8.081693E-002 1.000000E-004 1.431700E-004
<MIXTURE> 2 0.21232314
<MEAN> 39
 -8.530865E000 3.428264E000 -9.513889E-001 -2.399946E000 -2.698716E-001 -2.572219E000 -1.142309E000 -1.915796E-001 1.169280E-001 4.219359E-001 1.860944E-001 1.565016E-013 4.444995E-001 3.593512E-002 3.769666E-002 -1.220687E-003 -6.631619E-002 1.150829E-003 6.542929E-002 8.802085E-002 5.576402E-002 5.334567E-002 7.954788E-002 7.586787E-002 5.475582E-017 2.478659E-004 4.691420E-003 -1.223562E-002 -1.203714E-002 2.191911E-003 9.475084E-002 1.898361E-001 1.945323E-001 9.527043E-002 -3.679041E-002 -1.497428E-001 -9.080966E-002 -2.528013E-018 2.037079E-003
<VARIANCE> 39
 1.011317E000 1.265508E000 2.073800E000 3.521784E000 3.019945E000 2.630602E000 3.414105E000 3.435879E000 2.869521E000 2.613839E000 3.066215E000 1.000000E-004 1.209563E-002 6.101910E-002 1.088136E-001 2.187575E-001 3.228211E-001 3.138875E-001 3.890238E-001 5.151454E-001 3.984014E-001 3.280682E-001 3.445641E-001 2.898128E-001 1.000000E-004 3.884934E-004 1.181920E-002 2.045121E-002 3.804545E-002 5.287320E-002 5.210258E-002 5.502355E-002 6.714575E-002 5.323459E-002 5.162934E-002 4.375612E-002 4.616971E-002 1.000000E-004 1.000000E-004
<MIXTURE> 3 0.19890362
<MEAN> 39
 -8.488096E000 3.379221E000 -9.360411E-001 -2.629666E000 6.105778E-001 -9.857824E-001 -3.328842E-001 -6.391592E-001 -1.798676E000 -2.527328E000 -1.442713E000 1.557128E-013 4.399117E-001 -4.465823E-002 1.549630E-003 7.939808E-002 -3.651496E-002 -1.115098E-004 1.250673E-002 -1.251916E-001 -6.989495E-002 1.109930E-002 -4.449149E-002 -3.062807E-003 -6.721110E-017 -3.662272E-003 -2.578961E-002 -1.841051E-002 -1.284016E-003 -7.201584E-002 -3.440213E-002 7.482787E-004 7.690898E-002 2.109087E-001 2.716053E-001 2.602398E-001 1.530086E-001 2.385149E-016 2.017808E-003
<VARIANCE> 39
 1.266732E000 1.841238E000 3.593234E000 7.573017E000 3.838178E000 3.706445E000 4.889908E000 3.833840E000 3.095749E000 2.699243E000 2.508141E000 1.000000E-004 1.175503E-002 9.065206E-002 1.123206E-001 2.485438E-001 4.001984E-001 3.542685E-001 4.269009E-001 6.059844E-001 5.138098E-001 4.131170E-001 4.257517E-001 3.432677E-001 1.000000E-004 4.417390E-004 1.690273E-002 2.155915E-002 4.566260E-002 7.583389E-002 6.666163E-002 7.021502E-002 9.535740E-002 6.778593E-002 4.264401E-002 4.084119E-002 4.360606E-002 1.000000E-004 1.000000E-004
<MIXTURE> 4 0.20777266
<MEAN> 39
 -8.201892E000 4.077960E000 -6.318073E-001 -2.207602E000 9.150739E-001 -2.676650E-002 1.513304E000 1.193956E000 1.537592E-001 -1.380733E-001 1.899471E-001 1.578059E-013 5.333666E-001 1.050101E-002 -1.440854E-002 -1.863910E-003 3.304217E-002 6.329048E-002 3.365368E-002 -7.174213E-003 -6.370272E-003 -2.929737E-002 -4.625821E-002 -4.325656E-002 -2.611475E-016 -2.630272E-004 -4.456926E-002 -7.094061E-002 -5.776206E-002 -5.761383E-002 -7.328247E-002 -1.489517E-001 -1.740818E-001 -1.083965E-001 -4.751952E-002 -3.517135E-002 -4.936804E-002 -8.115423E-017 -5.424080E-003
<VARIANCE> 39
 9.237950E-001 9.158065E-001 1.907074E000 3.574615E000 2.881757E000 2.919291E000 3.111168E000 2.844726E000 2.878529E000 2.896399E000 2.666839E000 1.000000E-004 1.142668E-002 6.824957E-002 1.231478E-001 2.323686E-001 2.424323E-001 3.043047E-001 3.896452E-001 4.085945E-001 3.558072E-001 4.137113E-001 3.905488E-001 3.092490E-001 1.000000E-004 4.193108E-004 1.253323E-002 1.803545E-002 4.111521E-002 5.161800E-002 4.943458E-002 4.920654E-002 5.767331E-002 5.656068E-002 5.558068E-002 5.645202E-002 5.612599E-002 1.000000E-004 1.000000E-004
<MIXTURE> 5 0.17647678
<MEAN> 39
 -9.064174E000 2.285749E000 -1.806005E000 -3.294793E000 6.384053E-001 -6.468630E-001 1.114444E000 2.443497E000 1.556767E000 -4.054018E-001 -6.541212E-001 1.562342E-013 4.267339E-001 -2.798508E-002 -9.512100E-003 2.737421E-002 -1.723222E-001 -7.310671E-002 -4.657356E-002 -2.015814E-002 1.836391E-002 3.836298E-002 -4.873748E-002 -8.446498E-002 -1.470627E-016 -4.828991E-003 1.176776E-002 1.011509E-001 1.269834E-001 8.466699E-002 4.184351E-002 -4.030747E-002 -1.692143E-001 -2.480444E-001 -1.920434E-001 -8.357436E-002 -1.501993E-002 5.106984E-017 2.727365E-003
<VARIANCE> 39
 1.931877E000 1.757129E000 4.399483E000 9.338635E000 4.827569E000 6.294740E000 6.137042E000 3.326553E000 3.610319E000 3.871950E000 4.771091E000 1.000000E-004 1.684258E-002 8.518657E-002 1.590764E-001 2.897238E-001 4.407141E-001 3.291042E-001 3.806885E-001 5.615237E-001 5.569568E-001 5.318988E-001 4.255853E-001 3.149813E-001 1.000000E-004 3.476295E-004 1.775739E-002 2.505374E-002 5.291018E-002 8.119355E-002 7.697991E-002 8.699212E-002 1.001076E-001 6.725366E-002 7.423045E-002 7.475332E-002 6.324058E-002 1.000000E-004 1.000000E-004
<STATE> 3
<NUMMIXES> 5
<MIXTURE> 1 0.2756375
<MEAN> 39
 -6.779531E000 -3.811302E000 1.778209E000 -8.635589E000 2.322218E000 -3.086545E000 2.259564E000 -2.264886E-001 -1.485587E-001 -4.070190E-001 -4.537586E-001 1.663469E-013 3.435811E-002 2.151361E-002 -6.174242E-003 -1.467897E-002 -4.790604E-002 -1.395914E-002 5.361138E-002 -3.209846E-002 -5.341489E-003 -3.236156E-002 3.619676E-004 -5.830263E-003 -1.198745E-016 -3.790591E-004 -8.534369E-003 -2.728114E-003 1.468450E-002 4.745897E-002 9.715468E-002 1.154530E-001 1.366675E-001 9.718534E-002 6.737813E-002 5.293415E-002 3.263216E-002 6.615226E-017 2.575156E-003
<VARIANCE> 39
 6.739166E-001 1.300427E000 1.908026E000 2.612148E000 3.500595E000 4.178980E000 3.469055E000 3.476276E000 4.142092E000 3.040731E000 2.629918E000 1.000000E-004 4.202731E-003 5.852457E-002 1.165144E-001 1.662515E-001 2.765853E-001 3.684584E-001 4.056763E-001 3.690340E-001 4.020376E-001 4.254017E-001 2.871823E-001 2.711082E-001 1.000000E-004 2.158866E-004 1.314799E-002 2.156567E-002 3.512802E-002 5.786433E-002 6.125651E-002 6.788354E-002 5.001307E-002 6.734456E-002 7.901445E-002 5.124368E-002 5.504118E-002 1.000000E-004 1.000000E-004
<MIXTURE> 2 0.24022663
<MEAN> 39
 -6.773426E000 -3.689016E000 2.186843E000 -7.732840E000 3.868231E000 -9.565372E-001 4.552377E000 1.365814E000 1.051421E000 3.640450E-001 -7.058164E-002 1.664868E-013 7.859715E-002 4.814351E-003 -2.073764E-002 -1.710939E-002 -4.475100E-003 -4.050811E-002 -1.300319E-001 -3.590853E-002 8.115259E-003 4.251528E-002 1.917733E-003 8.614550E-003 1.572605E-016 -2.770946E-004 -7.433682E-003 1.575512E-002 -1.304966E-002 -5.121587E-002 -1.053066E-001 -1.570888E-001 -1.902149E-001 -1.211508E-001 -1.069965E-001 -6.384985E-002 -2.662157E-002 -8.024637E-017 -1.379144E-003
<VARIANCE> 39
 7.376752E-001 1.771935E000 2.587029E000 3.435611E000 3.526114E000 3.563345E000 3.259120E000 4.300539E000 3.769074E000 3.099033E000 2.955176E000 1.000000E-004 7.282396E-003 7.089318E-002 1.242352E-001 2.058651E-001 2.919592E-001 3.396628E-001 4.808739E-001 4.578000E-001 4.566984E-001 3.835729E-001 2.924978E-001 2.919322E-001 1.000000E-004 3.360046E-004 1.507948E-002 2.670863E-002 4.298031E-002 5.052661E-002 6.056019E-002 6.714699E-002 6.729217E-002 7.840738E-002 7.125255E-002 5.261313E-002 5.705732E-002 1.000000E-004 1.000000E-004
<MIXTURE> 3 0.1766633
<MEAN> 39
 -8.254164E000 -3.868892E000 2.676899E000 -9.665267E000 4.231104E000 -4.225059E000 2.769474E000 2.417487E-001 -8.122317E-001 -8.008418E-001 6.534244E-001 1.910738E-013 3.268224E-001 5.960631E-002 -2.456193E-001 1.996442E-001 -1.982043E-001 3.212990E-001 -2.915508E-001 6.482369E-002 -2.093345E-001 4.070912E-002 -4.423174E-002 1.468550E-001 3.853760E-015 2.071050E-002 -4.222289E-002 3.519924E-002 -9.355325E-002 1.158436E-001 -1.309658E-001 8.147344E-002 -1.539577E-001 3.587535E-002 1.035995E-003 2.292815E-002 -4.189338E-002 -1.619235E-015 -6.689972E-003
<VARIANCE> 39
 1.315087E001 9.951339E000 1.530557E001 2.128427E001 2.614435E001 3.346255E001 1.513717E001 1.342473E001 1.096481E001 8.449047E000 6.054663E000 1.000000E-004 8.717089E-002 8.668244E-001 6.632872E-001 1.159824E000 1.378911E000 1.488738E000 1.836921E000 1.354605E000 1.037531E000 9.968163E-001 6.738721E-001 5.654294E-001 1.000000E-004 2.116080E-003 1.848125E-001 1.289493E-001 2.456213E-001 2.043893E-001 2.623295E-001 3.680412E-001 2.077609E-001 1.970623E-001 1.907604E-001 1.272392E-001 1.017257E-001 1.000000E-004 3.019868E-004
<MIXTURE> 4 0.11170396
<MEAN> 39
 -4.039259E000 -4.757370E000 6.544283E-002 -1.429367E001 -9.973959E-001 -4.708763E000 1.500193E000 7.701185E-001 3.866625E-001 -1.116472E000 -1.363828E000 1.794859E-013 2.509483E-001 8.982731E-002 1.650937E-001 1.977460E-002 1.207025E-001 -4.820987E-001 -2.298006E-001 2.515487E-001 3.164771E-001 1.440221E-001 1.824948E-001 7.307328E-002 -1.186313E-015 -6.500546E-003 -7.026672E-002 -8.021752E-003 5.455072E-002 7.967727E-002 1.395493E-001 6.925176E-002 -1.154782E-002 -3.743194E-002 -1.340708E-002 2.151006E-002 2.783905E-002 4.409525E-017 -1.161529E-003
<VARIANCE> 39
 1.959622E000 5.734673E000 3.514194E000 8.359460E000 1.198502E001 8.407238E000 7.296166E000 1.011569E001 8.330770E000 7.078676E000 5.856369E000 1.000000E-004 7.807854E-003 1.496645E-001 1.963814E-001 2.929798E-001 5.244738E-001 5.454307E-001 5.314357E-001 4.865346E-001 5.699143E-001 4.005053E-001 4.927527E-001 2.616173E-001 1.000000E-004 4.099304E-004 1.425428E-002 3.132479E-002 4.805050E-002 1.064039E-001 8.797133E-002 8.017998E-002 8.277588E-002 8.446929E-002 7.861096E-002 9.374145E-002 5.673004E-002 1.000000E-004 1.000000E-004
<MIXTURE> 5 0.19576867
<MEAN> 39
 -6.975472E000 -8.958917E000 1.486531E000 -1.165426E001 6.291323E000 -3.244170E000 -2.885230E000 -2.928838E000 -2.363569E000 -5.825390E-001 1.622362E-001 1.917241E-013 2.858023E-001 9.515593E-002 2.245698E-003 -6.908391E-002 -1.670615E-001 -5.353892E-002 1.809845E-001 -1.681326E-002 -1.862093E-002 2.393892E-002 -5.924509E-002 -1.280900E-001 -3.837503E-016 5.119953E-004 -1.063334E-002 5.240761E-002 -1.192455E-003 -9.336066E-003 -6.567227E-002 -3.836825E-002 6.716130E-002 5.556296E-002 3.539541E-002 1.298561E-002 1.628681E-003 1.918985E-017 1.522684E-004
<VARIANCE> 39
 3.610264E000 4.461000E000 5.606345E000 1.056840E001 8.357224E000 1.321378E001 7.238912E000 7.535298E000 6.815901E000 4.624602E000 4.987205E000 1.000000E-004 1.001660E-002 2.504289E-001 2.821337E-001 3.533523E-001 3.946422E-001 5.798337E-001 7.893164E-001 6.720026E-001 7.031956E-001 6.990812E-001 4.084792E-001 4.530299E-001 1.000000E-004 2.842883E-004 3.462071E-002 4.201475E-002 6.704604E-002 6.987985E-002 8.022508E-002 1.494223E-001 1.135068E-001 1.228572E-001 1.273949E-001 7.299094E-002 9.445964E-002 1.000000E-004 1.000000E-004
<STATE> 4
<NUMMIXES> 5
<MIXTURE> 1 0.13035172
<MEAN> 39
