~o
<STREAMINFO> 1 39
<VECSIZE> 39 <NULLD> <MFCC_E_D_A>
~h "Colon"
<BEGINHMM>
<NUMSTATES> 7
<STATE> 2
<NUMMIXES> 5
<MIXTURE> 1 0.09806648
<MEAN> 39
 -1.773236E001 9.133423E000 -3.993915E000 4.491025E-001 -3.406420E000 5.003732E000 -5.923332E000 2.714849E000 -1.096072E000 1.381553E000 -1.471264E000 3.049674E-014 -1.512925E-001 2.361943E-001 -6.727631E-001 -9.782128E-003 -4.765136E-002 -1.339776E-002 -2.863536E-001 1.373247E-001 -2.431429E-002 -9.710105E-002 6.656338E-003 9.388355E-002 2.495413E-015 5.519420E-005 3.427362E-002 -1.925847E-002 3.758610E-002 -3.909419E-002 3.658186E-002 -1.709891E-002 3.322640E-002 -2.711114E-002 2.878832E-002 9.332263E-004 -1.043644E-004 4.360311E-016 5.069804E-004
<VARIANCE> 39
 4.867901E000 3.916581E001 2.893208E000 4.209266E000 3.387350E000 9.250854E000 5.829581E000 4.545707E000 5.055297E000 2.554447E000 4.226933E000 1.000000E-004 1.000000E-004 2.361724E-001 1.394105E000 3.156579E-001 3.699719E-001 3.895149E-001 5.557461E-001 5.774957E-001 4.229597E-001 3.989341E-001 3.382495E-001 3.949477E-001 1.000000E-004 1.000000E-004 4.228259E-002 1.978394E-001 5.907494E-002 6.728894E-002 7.590675E-002 9.681801E-002 1.096247E-001 8.510734E-002 7.423126E-002 7.286958E-002 8.092728E-002 1.000000E-004 1.000000E-004
<MIXTURE> 2 0.099946275
<MEAN> 39
 -7.089723E000 -8.959096E-001 3.770903E000 -3.356988E000 3.787998E000 -2.097596E-001 3.063414E000 1.061393E000 -1.751298E-001 2.022969E-001 2.233863E-001 1.375075E-013 2.252154E-001 2.378390E-001 2.382976E-002 2.660795E-001 -3.100961E-001 3.705683E-001 -7.054418E-002 3.224624E-001 -5.404418E-002 1.239262E-001 -3.357150E-002 -1.576391E-002 3.147357E-015 1.270376E-002 -6.372368E-002 -2.209872E-002 -8.749734E-002 -1.022345E-001 -5.822849E-002 -2.405227E-002 -2.199767E-002 1.678258E-002 6.052734E-003 -2.545072E-003 -2.666182E-002 -1.347159E-016 -2.218567E-003
<VARIANCE> 39
 1.102613E001 6.702630E000 1.687277E001 1.414953E001 1.589917E001 1.021663E001 1.519049E001 9.475797E000 7.223969E000 6.360080E000 5.824879E000 1.000000E-004 5.327461E-002 7.445281E-001 4.480875E-001 7.709175E-001 9.137557E-001 1.169420E000 1.105875E000 1.173250E000 8.306400E-001 8.158590E-001 7.224983E-001 5.599765E-001 1.000000E-004 1.247106E-003 1.198119E-001 8.885422E-002 1.327247E-001 1.461131E-001 2.023027E-001 2.363418E-001 1.858688E-001 1.708694E-001 1.601861E-001 1.477818E-001 1.091299E-001 1.000000E-004 1.960752E-004
<MIXTURE> 3 0.27144516
<MEAN> 39
 -7.717257E000 -4.687312E000 4.703352E-001 -9.436820E000 1.418422E000 -3.346748E000 2.362453E000 -2.590007E-001 -8.558264E-002 -3.830096E-001 -3.799408E-001 1.462155E-013 2.274948E-002 -3.354093E-002 -2.242103E-002 4.757761E-002 4.357866E-002 -1.126718E-002 -2.761534E-003 -4.204991E-002 -4.665727E-002 -3.880906E-002 1.933749E-002 4.540821E-002 -4.086367E-017 -2.351298E-003 9.113243E-002 1.638658E-001 2.208749E-001 2.258623E-001 1.961286E-001 1.743732E-001 1.010929E-001 5.810437E-002 3.331932E-002 1.939718E-002 1.645286E-002 -7.166842E-017 6.577847E-003
<VARIANCE> 39
 1.059533E000 1.812500E000 2.520770E000 3.666682E000 4.704327E000 8.478096E000 6.828681E000 7.204323E000 6.133837E000 5.312308E000 4.359094E000 1.000000E-004 2.248223E-003 1.276698E-001 2.296423E-001 3.469504E-001 5.063793E-001 7.032388E-001 1.023893E000 8.404877E-001 8.256685E-001 7.189241E-001 5.592854E-001 5.293067E-001 1.000000E-004 2.648858E-004 2.837102E-002 3.973834E-002 5.831197E-002 8.840165E-002 1.258222E-001 2.181186E-001 1.813595E-001 1.725080E-001 1.517869E-001 1.209582E-001 1.076338E-001 1.000000E-004 1.000000E-004
<MIXTURE> 4 0.257777
<MEAN> 39
 -6.952973E000 -3.205513E000 2.823261E000 -7.095703E000 3.129694E000 -2.395153E000 2.746438E000 -2.193404E-001 -1.932276E-002 -1.780496E-001 -2.135462E-001 1.454600E-013 7.260541E-002 1.911632E-001 2.872376E-001 3.148229E-001 3.410569E-001 3.193949E-001 2.744300E-001 2.114820E-001 1.394961E-001 8.028962E-002 -2.432973E-002 -1.404519E-002 -1.065100E-017 1.366987E-002 -3.049003E-002 -6.447090E-002 -1.457029E-001 -1.487827E-001 -7.348055E-002 -1.345837E-002 3.267293E-002 4.174075E-002 2.065994E-002 -1.673317E-002 -1.930896E-002 9.023746E-017 -1.101808E-003
<VARIANCE> 39
 9.291757E-001 1.593669E000 2.256305E000 3.976521E000 5.329160E000 7.642156E000 7.344039E000 7.167888E000 6.108437E000 5.168373E000 3.983509E000 1.000000E-004 2.844267E-003 1.106236E-001 1.706131E-001 3.071267E-001 4.601288E-001 5.912681E-001 9.626561E-001 8.355048E-001 7.984189E-001 7.013075E-001 5.887952E-001 4.730997E-001 1.000000E-004 2.291170E-004 2.656315E-002 3.776638E-002 5.619305E-002 9.357287E-002 1.439079E-001 2.036242E-001 1.897614E-001 1.752027E-001 1.513573E-001 1.253621E-001 1.051068E-001 1.000000E-004 1.000000E-004
<MIXTURE> 5 0.2727651
<MEAN> 39
 -6.762957E000 -3.143296E000 2.384887E000 -7.564598E000 3.358598E000 -1.536788E000 3.730600E000 6.873338E-001 5.373002E-001 -1.271110E-001 -2.658460E-001 1.460762E-013 9.354295E-002 -1.585983E-001 -2.658209E-001 -3.604023E-001 -3.886667E-001 -3.046771E-001 -2.726805E-001 -1.743323E-001 -1.075651E-001 -4.042255E-002 -9.860380E-003 -3.996406E-002 1.150526E-016 -1.114041E-002 -7.040505E-002 -7.636576E-002 -5.725496E-002 -4.558622E-002 -1.132854E-001 -1.510776E-001 -1.372916E-001 -9.593085E-002 -6.409413E-002 -4.944295E-003 1.128316E-002 -5.318989E-017 -4.392335E-003
<VARIANCE> 39
 9.469007E-001 1.629966E000 2.855656E000 4.161467E000 5.688893E000 6.799716E000 6.142923E000 5.959233E000 5.558166E000 4.810939E000 4.161901E000 1.000000E-004 3.484674E-003 1.081487E-001 1.762855E-001 2.973489E-001 4.756063E-001 6.525089E-001 9.399635E-001 7.991939E-001 7.568552E-001 6.555672E-001 6.142182E-001 4.914584E-001 1.000000E-004 2.305476E-004 2.507554E-002 4.048096E-002 6.801938E-002 1.067105E-001 1.431524E-001 1.975700E-001 1.545499E-001 1.490792E-001 1.328741E-001 1.259042E-001 1.098797E-001 1.000000E-004 1.000000E-004
<STATE> 3
<NUMMIXES> 5
<MIXTURE> 1 0.03987685
<MEAN> 39
 -1.747163E001 8.532198E-001 -1.426477E-001 -5.550440E000 2.700764E000 -3.086079E000 9.423143E-001 -6.096652E-001 1.124817E000 -1.801941E000 1.176996E-001 1.797245E-013 4.224851E-001 -1.677452E000 -2.277477E-001 2.663270E-001 -1.910837E-001 4.060380E-001 -1.666270E-001 -1.116427E-002 -5.817474E-002 2.269379E-001 -2.722978E-001 5.239770E-002 9.494905E-015 1.064570E-001 1.010914E-001 -1.027567E-001 4.447118E-003 5.476720E-002 -2.385616E-002 5.983824E-003 1.504747E-003 -5.075406E-002 -2.648712E-002 2.718358E-002 -1.502660E-002 -1.340996E-016 -4.214988E-004
<VARIANCE> 39
 3.417675E001 1.226234E001 2.291504E001 2.848191E001 1.810880E001 1.129047E001 1.332028E001 1.026830E001 9.100983E000 9.504293E000 7.247285E000 1.000000E-004 1.279061E-001 1.855670E000 1.065007E000 1.287853E000 1.113852E000 1.250104E000 1.319511E000 1.271840E000 9.787301E-001 1.062051E000 9.371346E-001 7.817977E-001 1.000000E-004 7.752557E-003 4.981996E-001 1.795079E-001 1.945645E-001 2.026730E-001 2.544507E-001 2.743939E-001 2.634552E-001 1.760767E-001 2.253759E-001 2.047324E-001 1.490215E-001 1.000000E-004 2.186338E-003
<MIXTURE> 2 0.26032785
<MEAN> 39
 -2.311744E001 -2.491232E000 -4.850562E000 -4.555961E000 4.313452E000 -2.225772E000 6.877546E-001 -1.619222E000 -4.893647E-001 -2.901446E000 1.615290E000 2.245446E-013 8.473447E-001 5.095045E-002 -6.956646E-002 -6.443729E-002 -5.518667E-002 7.848330E-003 4.769181E-002 1.065531E-002 -8.714451E-003 -3.221371E-002 3.063418E-002 2.527027E-002 -9.100015E-017 -2.936814E-003 7.932184E-003 5.027337E-004 3.000633E-003 -1.253423E-003 -3.309040E-003 6.962704E-003 3.364609E-003 2.611596E-003 9.770350E-004 3.592487E-003 -1.138752E-003 -7.665153E-017 -6.781127E-004
<VARIANCE> 39
 4.530457E000 1.290157E001 1.473836E001 1.151657E001 1.800385E001 1.514225E001 1.682545E001 1.506957E001 1.674010E001 1.159547E001 2.042914E001 1.000000E-004 1.007288E-002 1.939870E-001 3.941624E-001 5.024851E-001 5.136567E-001 5.896707E-001 6.787844E-001 6.728175E-001 6.256831E-001 7.628385E-001 6.130385E-001 9.086766E-001 1.000000E-004 1.647391E-004 3.907289E-002 7.287069E-002 9.763261E-002 9.777261E-002 1.118631E-001 1.303538E-001 1.274283E-001 1.170656E-001 1.366082E-001 1.141396E-001 1.589743E-001 1.000000E-004 1.000000E-004
<MIXTURE> 3 0.21643245
<MEAN> 39
 -1.502392E001 -4.416039E000 -4.588373E000 -4.899740E000 3.415849E000 -1.013804E000 1.990268E000 -5.663992E-001 -7.465640E-001 -8.815928E-001 5.189894E-001 1.676612E-013 1.825701E-001 1.023945E-001 2.179095E-002 7.421275E-002 4.505917E-002 -5.716091E-004 -4.433000E-003 -1.060023E-002 -1.730974E-002 -1.218303E-002 1.936397E-002 -2.741836E-003 -6.940236E-016 -7.140993E-003 5.431692E-003 2.792684E-002 1.560293E-002 -1.075137E-003 -2.022523E-002 -2.332078E-002 -1.582313E-002 -5.740680E-003 2.082528E-003 1.898979E-003 2.151596E-003 2.992779E-017 5.289305E-004
<VARIANCE> 39
 8.148216E000 7.893610E000 9.597595E000 8.464920E000 1.143844E001 1.198523E001 1.514792E001 1.139531E001 1.254293E001 8.416713E000 8.862226E000 1.000000E-004 3.079336E-002 1.296640E-001 2.722085E-001 4.432186E-001 5.915204E-001 7.426823E-001 8.194250E-001 8.484094E-001 8.395402E-001 7.282031E-001 6.215367E-001 5.171403E-001 1.000000E-004 1.160929E-004 2.733720E-002 5.751291E-002 9.369342E-002 1.250121E-001 1.591249E-001 1.821166E-001 1.863527E-001 1.745383E-001 1.562903E-001 1.280946E-001 1.057858E-001 1.000000E-004 1.000000E-004
<MIXTURE> 4 0.21782088
<MEAN> 39
 -9.732010E000 2.076697E000 -2.809691E000 -4.125873E000 -1.082624E000 -1.922081E000 2.798496E-001 2.778087E-001 1.382487E-001 -8.480316E-002 6.730684E-002 1.367960E-013 4.147004E-002 -1.427728E-002 1.095679E-002 -3.994135E-003 -1.516336E-002 -5.984912E-003 2.594680E-002 3.271755E-002 1.637924E-002 1.216727E-002 8.795311E-003 -9.128858E-003 -6.056790E-017 -1.604686E-003 3.536591E-002 1.045399E-001 1.887935E-001 2.274646E-001 1.828875E-001 7.849129E-002 -9.261465E-003 -5.606208E-002 -8.772274E-002 -7.074634E-002 -2.200986E-002 -8.954660E-017 4.986113E-003
<VARIANCE> 39
 3.350928E000 3.132213E000 3.098655E000 4.703033E000 5.705637E000 7.578084E000 8.871764E000 7.836323E000 7.005504E000 5.672034E000 5.196506E000 1.000000E-004 1.329539E-002 1.467278E-001 2.756777E-001 4.573990E-001 6.567577E-001 7.099906E-001 7.253085E-001 8.207187E-001 7.814257E-001 7.688898E-001 6.728742E-001 5.277236E-001 1.000000E-004 4.250469E-004 2.675631E-002 4.482945E-002 6.200955E-002 8.895407E-002 1.166200E-001 1.451200E-001 1.774353E-001 1.689726E-001 1.634082E-001 1.382022E-001 1.148646E-001 1.000000E-004 1.000000E-004
<MIXTURE> 5 0.26554197
<MEAN> 39
 -9.176085E000 3.447712E000 -4.859792E-001 -1.527312E000 7.766709E-001 -1.266705E000 -3.810520E-002 -5.293502E-001 -8.050776E-001 -7.112356E-001 -1.137191E-001 1.354985E-013 1.034053E-001 -3.284660E-003 1.141193E-002 -6.304769E-004 2.071590E-003 -1.525922E-002 -2.595356E-002 -3.355173E-002 -1.107095E-002 2.287551E-003 -7.178392E-003 2.212537E-003 -3.632435E-017 2.753059E-004 -5.049292E-002 -1.070400E-001 -1.696483E-001 -1.843874E-001 -1.303240E-001 -5.111789E-002 1.889601E-002 4.838862E-002 7.106630E-002 4.826944E-002 1.777376E-002 1.431056E-016 -3.748280E-003
<VARIANCE> 39
 3.257191E000 2.724650E000 2.888329E000 4.672165E000 5.710644E000 6.690365E000 7.335882E000 6.135799E000 5.748147E000 5.358588E000 4.901615E000 1.000000E-004 1.632647E-002 1.325131E-001 2.573094E-001 4.463477E-001 6.070240E-001 7.053042E-001 7.625678E-001 8.284270E-001 7.568095E-001 7.294485E-001 6.349382E-001 5.496925E-001 1.000000E-004 4.313342E-004 2.584369E-002 4.070847E-002 6.353120E-002 9.466754E-002 1.262389E-001 1.532796E-001 1.636067E-001 1.482087E-001 1.397981E-001 1.334201E-001 1.142924E-001 1.000000E-004 1.000000E-004
<STATE> 4
<NUMMIXES> 5
<MIXTURE> 1 0.17066766
<MEAN> 39
 -2.231385E001 -7.427741E000 -6.479514E000 -5.690688E000 8.085230E000 3.128516E000 2.990656E000 -3.158883E000 -4.572046E000 -3.199317E000 4.068391E000 2.291250E-013 7.153307E-001 6.163853E-002 -4.104447E-002 -3.508374E-002 1.173756E-002 -1.377136E-002 4.613051E-002 1.802013E-002 2.233537E-002 -1.258788E-003 -4.061801E-002 -8.199025E-002 -8.568881E-016 -8.242534E-003 9.688034E-003 1.083004E-002 2.241884E-002 4.323923E-003 -9.107836E-003 -2.195599E-002 -4.904695E-003 6.329875E-003 1.389981E-002 1.010655E-002 -5.426573E-003 -3.828015E-017 -2.024375E-004
<VARIANCE> 39
 2.895608E000 4.395555E000 1.610354E001 9.532360E000 9.936189E000 1.246413E001 1.537841E001 1.201498E001 1.244654E001 1.121376E001 1.529353E001 1.000000E-004 2.214048E-002 2.069887E-001 3.859588E-001 5.325097E-001 5.985997E-001 6.111122E-001 8.946494E-001 6.081296E-001 6.848417E-001 6.998823E-001 5.933353E-001 6.372892E-001 1.000000E-004 2.043340E-004 3.703223E-002 7.260454E-002 1.010880E-001 1.160812E-001 1.173197E-001 1.781439E-001 1.147810E-001 1.314076E-001 1.306996E-001 1.070334E-001 1.188257E-001 1.000000E-004 1.000000E-004
<MIXTURE> 2 0.17163007
<MEAN> 39
 -2.071291E001 -8.975221E000 9.049602E000 -7.703299E000 5.095867E000 -7.466347E000 4.391825E000 -4.308250E000 1.099431E000 1.153409E000 -1.287094E-001 2.191234E-013 8.346645E-001 -1.321514E-002 -3.264634E-001 -1.933172E-001 2.370802E-001 5.088911E-002 -1.894346E-001 1.622946E-001 -6.509318E-002 -9.378690E-002 8.401328E-002 -2.901680E-003 8.273292E-016 6.721218E-003 3.951294E-002 -1.395940E-003 -9.883270E-002 -2.916812E-002 2.648940E-002 5.947961E-002 7.206299E-002 2.203364E-002 -7.521273E-002 -4.236977E-002 1.326355E-002 -5.106092E-017 -2.129425E-003
<VARIANCE> 39
 3.485287E000 1.919413E001 1.458392E001 1.943211E001 1.451315E001 1.659270E001 1.853503E001 1.332133E001 1.300607E001 1.060140E001 1.251774E001 1.000000E-004 1.726081E-002 2.610969E-001 6.544594E-001 8.032159E-001 7.995309E-001 9.980824E-001 1.130107E000 1.398615E000 1.030481E000 1.329673E000 8.507863E-001 8.561051E-001 1.000000E-004 5.764833E-004 5.553006E-002 1.232796E-001 1.674050E-001 1.765899E-001 2.113304E-001 2.179729E-001 2.871104E-001 1.907429E-001 2.498262E-001 1.649445E-001 1.872207E-001 1.000000E-004 1.106199E-004
<MIXTURE> 3 0.25922996
<MEAN> 39
 -1.884247E001 -1.444815E001 3.810268E000 -6.872639E000 5.340608E000 -7.366878E000 7.976271E000 -3.736696E000 -1.952031E000 5.875487E-002 1.056320E000 2.323323E-013 8.659279E-001 7.625497E-002 -6.169214E-002 -5.711430E-002 -1.260603E-002 -5.501601E-002 -1.935810E-002 7.968442E-002 9.851094E-002 -2.612077E-002 -5.299503E-002 5.778362E-002 6.081055E-017 -2.116584E-003 -8.225121E-004 2.609767E-002 3.833986E-002 -3.417808E-003 -1.768556E-002 -4.157397E-002 -5.399680E-002 1.167313E-002 5.992072E-002 3.242882E-002 2.945862E-003 -6.914558E-017 -8.859947E-005
<VARIANCE> 39
 3.081258E000 4.809495E000 8.183141E000 9.844515E000 8.880524E000 1.123983E001 1.134736E001 1.036917E001 9.211222E000 8.521775E000 7.066914E000 1.000000E-004 4.433895E-003 1.906583E-001 3.291360E-001 6.769132E-001 8.254841E-001 8.348694E-001 8.937727E-001 8.079811E-001 6.252903E-001 9.136866E-001 8.400097E-001 6.484738E-001 1.000000E-004 1.468273E-004 3.225901E-002 6.132537E-002 1.233396E-001 1.522724E-001 1.710256E-001 1.794048E-001 1.405596E-001 1.283330E-001 1.778698E-001 1.600108E-001 1.316423E-001 1.000000E-004 1.000000E-004
<MIXTURE> 4 0.21766174
<MEAN> 39
 -1.201857E001 -3.968952E000 -2.516999E000 -1.209873E000 3.173777E000 3.308717E-001 -7.402382E-001 -3.149413E000 -2.537407E000 8.326524E-001 2.168786E000 1.407163E-013 -6.571198E-002 5.008533E-002 1.066917E-001 2.503526E-002 6.799632E-002 -7.215624E-002 -1.628849E-002 -2.427246E-002 1.635076E-002 7.127753E-003 3.621953E-002 8.737057E-003 -5.572257E-016 -3.463373E-003 -1.319206E-002 -2.389969E-002 -2.765877E-002 -2.047174E-002 2.234513E-002 2.349054E-002 1.002403E-002 9.128358E-006 3.342638E-003 4.456258E-003 6.467669E-003 4.480896E-017 3.738966E-004
<VARIANCE> 39
 2.876374E000 5.247734E000 7.092449E000 9.313919E000 8.840404E000 9.987709E000 1.681372E001 1.060368E001 1.447846E001 9.762419E000 6.782460E000 1.000000E-004 4.497504E-003 1.324280E-001 2.638133E-001 4.803963E-001 7.334704E-001 7.297665E-001 8.256233E-001 9.781445E-001 7.763743E-001 7.904342E-001 6.633937E-001 4.488181E-001 1.000000E-004 1.439382E-004 2.704119E-002 5.572809E-002 9.747864E-002 1.554686E-001 1.463356E-001 1.674309E-001 2.098695E-001 1.640153E-001 1.622992E-001 1.401567E-001 9.792781E-002 1.000000E-004 1.000000E-004
<MIXTURE> 5 0.18081051
<MEAN> 39
 -1.617139E001 -8.431631E000 -3.426627E000 -3.784547E000 7.879406E000 1.492632E000 7.844753E-001 -3.500548E000 -2.936881E000 1.150570E-001 2.072311E000 1.697957E-013 1.573657E-001 1.209387E-001 1.821846E-002 7.272057E-002 2.135203E-002 -4.805038E-002 -2.605431E-002 -3.543854E-002 2.011111E-003 3.065599E-003 1.855440E-002 6.605475E-003 -6.618591E-016 -6.366980E-003 4.490911E-003 3.793781E-002 2.690014E-002 7.034113E-003 -3.692555E-002 -2.695071E-002 -1.027135E-002 8.938741E-003 3.323500E-003 -1.589108E-002 -1.443738E-002 -2.911811E-017 -1.298406E-004
<VARIANCE> 39
 5.373925E000 3.685978E000 1.034209E001 1.021181E001 9.071481E000 1.037779E001 2.118221E001 1.060116E001 1.051549E001 9.420418E000 8.018031E000 1.000000E-004 1.293999E-002 1.224396E-001 2.644230E-001 4.441537E-001 4.710231E-001 7.062404E-001 8.561348E-001 8.304786E-001 8.819862E-001 7.635588E-001 6.964751E-001 4.563598E-001 1.000000E-004 1.003718E-004 2.621789E-002 5.574426E-002 8.033834E-002 9.915345E-002 1.504753E-001 1.811025E-001 1.827669E-001 1.914635E-001 1.661965E-001 1.506181E-001 9.418995E-002 1.000000E-004 1.000000E-004
<STATE> 5
<NUMMIXES> 5
<MIXTURE> 1 0.13667141
<MEAN> 39
 -7.279520E000 -2.473385E000 7.513112E000 -6.346290E000 4.898855E000 -3.224667E000 4.425900E000 -2.332981E-001 5.235072E-001 5.216146E-001 3.174129E-001 1.713228E-013 5.338688E-001 -1.199041E-001 5.402046E-002 1.788804E-001 -7.002734E-003 8.228420E-002 -6.442353E-002 3.724960E-002 -7.850485E-002 3.345008E-002 2.598074E-002 -5.212006E-002 1.221093E-015 2.043898E-002 -1.067143E-002 -6.477363E-002 -3.512224E-002 1.911677E-002 -1.069603E-002 4.720307E-003 1.789286E-002 -1.597241E-002 -1.379392E-002 -5.036483E-003 -6.824688E-003 -1.023877E-016 -3.331213E-003
<VARIANCE> 39
 4.009764E001 9.849945E000 2.305374E001 2.838018E001 2.045254E001 1.434122E001 1.561176E001 1.078409E001 8.207954E000 5.607289E000 5.778689E000 1.000000E-004 6.103713E-002 1.321761E000 9.192666E-001 1.080732E000 1.374913E000 1.351759E000 1.523298E000 1.134301E000 9.711171E-001 8.158564E-001 5.565554E-001 5.452616E-001 1.000000E-004 3.351364E-003 1.963991E-001 1.535182E-001 1.860271E-001 2.519999E-001 2.596350E-001 3.049485E-001 2.175115E-001 1.984248E-001 1.712338E-001 1.070438E-001 1.084170E-001 1.000000E-004 4.416134E-004
<MIXTURE> 2 0.2959722
<MEAN> 39
 -6.981538E000 -4.534724E000 3.134679E000 -7.196612E000 1.229636E000 -2.872628E000 3.693002E000 -1.214595E-001 -5.179824E-001 1.635013E-001 2.213413E-001 1.477369E-013 9.588187E-002 -8.999379E-003 3.643979E-002 -4.778314E-002 -2.069749E-002 5.385185E-002 4.479805E-002 -3.251968E-002 3.885058E-003 2.054216E-002 -1.337169E-002 -7.089301E-004 -5.513613E-017 -1.500903E-003 -6.744136E-003 3.979050E-003 1.033711E-002 -2.408985E-004 -3.617359E-003 -2.153767E-002 -2.007436E-003 2.035620E-004 4.950450E-003 4.937922E-003 1.144318E-003 6.549948E-017 1.422800E-003
<VARIANCE> 39
 1.545587E000 3.798017E000 6.701079E000 6.895943E000 8.399623E000 9.144946E000 1.007895E001 7.428066E000 7.295487E000 5.216617E000 4.999586E000 1.000000E-004 6.249317E-003 1.459724E-001 2.738117E-001 4.574620E-001 5.785337E-001 7.477185E-001 8.827638E-001 8.560677E-001 8.610964E-001 7.032822E-001 5.986716E-001 5.272812E-001 1.000000E-004 3.819074E-004 3.448107E-002 5.966433E-002 9.855832E-002 1.235152E-001 1.622719E-001 1.920264E-001 1.839965E-001 1.853887E-001 1.427321E-001 1.257671E-001 1.135359E-001 1.000000E-004 1.000000E-004
<MIXTURE> 3 0.21000774
<MEAN> 39
 -9.752547E000 -1.021234E001 7.694900E000 -6.155010E000 -6.064773E-001 -6.606769E000 6.609565E000 -5.904589E-001 -1.208531E000 3.143093E-001 1.945280E-001 1.653012E-013 2.377051E-001 4.595606E-002 6.260890E-002 -2.530253E-002 5.477551E-002 -1.918473E-002 1.231019E-001 4.102355E-002 5.917615E-002 -2.666559E-002 3.404649E-002 2.619518E-002 -7.154470E-016 -5.468048E-003 2.088737E-002 2.195108E-002 -1.583009E-002 -3.984088E-002 -2.866430E-002 -4.516181E-002 -6.219606E-002 -5.400658E-002 -2.707070E-002 -1.414633E-002 3.981241E-004 8.243959E-017 5.520004E-004
<VARIANCE> 39
 2.222913E000 4.296053E000 5.326897E000 7.507065E000 7.249593E000 1.028776E001 8.335749E000 8.540366E000 8.544727E000 6.773421E000 5.696266E000 1.000000E-004 1.415829E-002 1.243169E-001 2.524014E-001 4.065337E-001 5.610064E-001 7.034345E-001 8.485691E-001 8.393511E-001 8.375305E-001 7.976310E-001 6.460575E-001 5.594904E-001 1.000000E-004 1.000000E-004 2.871853E-002 5.301253E-002 8.313587E-002 1.125199E-001 1.473314E-001 1.677653E-001 1.640256E-001 1.735514E-001 1.750994E-001 1.346691E-001 1.154225E-001 1.000000E-004 1.000000E-004
<MIXTURE> 4 0.1920479
<MEAN> 39
 -1.725120E001 -1.396760E001 3.556443E000 -9.272219E000 3.661056E000 -8.835567E000 7.840143E000 -4.553944E000 6.342813E-001 7.741080E-001 1.787750E000 2.388302E-013 8.510035E-001 1.527855E-001 -4.058871E-002 -7.648196E-002 -1.257630E-001 -1.429374E-001 -1.355099E-001 -1.135442E-001 -2.454567E-003 1.497482E-002 -1.920957E-002 3.356741E-002 3.824795E-016 9.252526E-004 2.152805E-002 3.743619E-002 1.672737E-002 -1.316007E-002 -3.662556E-002 -1.871436E-002 -4.883559E-002 -2.206207E-002 -3.018476E-002 -1.424539E-002 -8.997932E-003 -7.638960E-017 -2.040220E-004
<VARIANCE> 39
 7.839985E000 9.568991E000 1.203605E001 1.529235E001 1.278055E001 1.239756E001 1.617450E001 1.252182E001 1.213537E001 8.695739E000 8.436441E000 1.000000E-004 4.229350E-003 2.343141E-001 4.429659E-001 6.808949E-001 9.016879E-001 1.174781E000 1.130888E000 1.097992E000 7.748526E-001 1.011540E000 7.888344E-001 6.308067E-001 1.000000E-004 1.909847E-004 4.316796E-002 7.104445E-002 1.224888E-001 1.647463E-001 2.236926E-001 2.399106E-001 1.945661E-001 1.485721E-001 1.936670E-001 1.650344E-001 1.265210E-001 1.000000E-004 1.000000E-004
<MIXTURE> 5 0.16530074
<MEAN> 39
 -1.079163E001 -1.161873E001 6.238886E000 -1.167499E001 -1.716600E000 -1.150378E001 2.069941E000 -5.393890E000 -1.218722E000 -6.594737E-001 9.187253E-001 2.116549E-013 5.973469E-001 4.476376E-002 5.225830E-002 1.346727E-001 1.735190E-001 5.103638E-002 6.984159E-002 6.285939E-002 1.148569E-002 -2.888067E-002 -1.976224E-002 -5.649609E-002 -1.411816E-015 -1.249582E-002 -3.795624E-002 -2.405128E-002 1.463795E-002 6.042273E-002 1.005247E-001 1.224766E-001 1.258309E-001 9.854943E-002 5.866705E-002 2.353962E-002 7.324243E-003 -7.338266E-017 -2.140076E-004
<VARIANCE> 39
 2.523855E000 4.192281E000 7.386888E000 1.049386E001 8.861876E000 9.880444E000 1.357827E001 7.714344E000 8.084935E000 6.968686E000 6.245305E000 1.000000E-004 3.549861E-002 2.210821E-001 3.457320E-001 4.687242E-001 6.490726E-001 8.909594E-001 8.849365E-001 9.743224E-001 8.192033E-001 8.133287E-001 6.675495E-001 5.953240E-001 1.000000E-004 1.481834E-004 3.730869E-002 6.472459E-002 1.000320E-001 1.272318E-001 1.767718E-001 1.788231E-001 1.919443E-001 1.671829E-001 1.515656E-001 1.344448E-001 1.264723E-001 1.000000E-004 1.000000E-004
<STATE> 6
<NUMMIXES> 5
<MIXTURE> 1 0.15498748
<MEAN> 39
 -1.283933E001 3.241988E000 1.605424E000 -5.449129E000 2.195128E000 6.789834E-001 -1.782722E000 3.772882E000 -1.196993E000 -2.148027E000 1.456946E000 1.291078E-013 6.502925E-003 -3.668569E-002 5.616788E-003 4.914241E-002 -5.927783E-002 2.122433E-003 -3.343854E-002 -1.066890E-001 4.061134E-003 -2.839987E-002 -5.019827E-002 2.708222E-002 1.333434E-016 1.143057E-003 -1.735232E-002 -5.380547E-002 -5.323107E-002 -6.754820E-003 -9.533968E-002 -1.015067E-001 -4.043251E-002 -7.068831E-002 8.961861E-003 3.164535E-002 -3.043371E-002 -1.441235E-016 -3.747593E-003
<VARIANCE> 39
 1.010302E001 3.512589E000 1.108506E001 2.508033E001 1.028881E001 8.288459E000 2.063612E001 1.583519E001 8.855324E000 7.854274E000 6.924092E000 1.000000E-004 2.494584E-002 5.395347E-001 2.878900E-001 7.339212E-001 1.193164E000 9.599717E-001 8.578407E-001 1.318377E000 1.340400E000 8.189999E-001 7.182420E-001 6.574087E-001 1.000000E-004 1.776146E-003 1.010262E-001 5.261685E-002 1.284134E-001 2.160535E-001 1.706858E-001 1.720289E-001 2.704230E-001 2.741879E-001 1.627144E-001 1.499796E-001 1.372568E-001 1.000000E-004 3.230853E-004
<MIXTURE> 2 0.20960684
<MEAN> 39
 -1.182401E001 1.376712E000 -2.795089E000 -3.623608E000 -1.825118E000 -6.349031E-001 7.746291E-001 1.710504E000 9.698827E-001 5.317215E-001 6.440231E-001 1.211192E-013 -1.499185E-001 1.130459E-003 5.218564E-002 3.803102E-002 4.660808E-003 -1.116487E-002 5.035411E-002 3.934023E-005 -1.157712E-003 3.586985E-002 -3.412673E-002 -3.614658E-002 -1.002565E-016 -1.617360E-004 6.019635E-002 1.633636E-001 2.346414E-001 2.414463E-001 1.812527E-001 1.218315E-002 -1.627805E-001 -2.103380E-001 -2.425824E-001 -1.970024E-001 -8.740125E-002 -1.573780E-016 1.611624E-003
<VARIANCE> 39
 1.887096E000 3.061365E000 3.956306E000 6.380376E000 5.801797E000 6.549725E000 8.327295E000 7.675922E000 5.550274E000 5.245564E000 4.590582E000 1.000000E-004 1.000000E-004 1.340298E-001 2.606486E-001 4.738422E-001 6.726047E-001 6.974482E-001 8.648418E-001 8.582985E-001 8.401747E-001 7.855204E-001 6.498418E-001 5.008014E-001 1.000000E-004 1.000000E-004 2.902750E-002 4.353400E-002 6.376818E-002 9.115242E-002 1.271813E-001 1.538498E-001 1.580594E-001 1.482592E-001 1.211884E-001 1.125972E-001 1.002973E-001 1.000000E-004 1.000000E-004
<MIXTURE> 3 0.21466643
<MEAN> 39
 -1.125223E001 3.041354E000 -2.442081E-001 -2.563416E-001 2.012236E-001 -5.005392E-001 -1.986422E-001 6.446937E-001 7.644846E-001 8.400704E-001 7.174455E-001 1.184428E-013 -1.372374E-001 -3.380673E-002 -1.956191E-002 -4.506259E-002 -4.444555E-002 -2.288288E-002 -5.017830E-002 3.435794E-002 7.796566E-002 2.682432E-002 3.241065E-002 2.941578E-002 3.282334E-017 -2.036512E-004 -2.130477E-002 -7.272180E-002 -1.441024E-001 -2.015837E-001 -1.461604E-001 -4.950693E-002 -1.611475E-002 -8.972897E-002 -1.984207E-001 -2.019756E-001 -9.390222E-002 8.615641E-017 -4.909517E-004
<VARIANCE> 39
 1.184774E000 1.981256E000 2.635803E000 4.002092E000 4.243948E000 4.461517E000 6.047352E000 6.008119E000 4.801205E000 3.714696E000 3.978285E000 1.000000E-004 5.750409E-004 1.131395E-001 2.092097E-001 3.830715E-001 5.872982E-001 7.103541E-001 8.068568E-001 8.006819E-001 7.697812E-001 7.543204E-001 6.345097E-001 5.033317E-001 1.000000E-004 1.000000E-004 2.092199E-002 3.410031E-002 5.674122E-002 8.671703E-002 1.068938E-001 1.251645E-001 1.454771E-001 1.425323E-001 1.109786E-001 9.034000E-002 9.819819E-002 1.000000E-004 1.000000E-004
<MIXTURE> 4 0.21882291
<MEAN> 39
 -1.133135E001 2.859851E000 -9.553686E-001 -1.995862E000 -2.019001E000 -2.801184E000 -2.197077E000 -1.153097E000 -1.412827E000 -1.150377E000 -3.033077E-001 1.184578E-013 -1.499208E-001 3.789570E-002 4.798265E-002 1.604764E-002 2.894249E-002 -5.958220E-003 1.324764E-003 -2.678682E-002 -4.883249E-002 -1.876351E-003 8.405958E-003 -2.640048E-002 -9.868620E-017 -1.179045E-005 -1.611106E-002 -5.234817E-002 -3.816779E-002 4.918295E-002 2.165657E-001 3.394653E-001 3.145737E-001 2.477041E-001 1.883138E-001 1.253243E-001 6.907273E-002 9.430220E-017 1.322382E-003
<VARIANCE> 39
 1.315677E000 2.370697E000 3.952543E000 6.266876E000 4.476975E000 3.982875E000 5.492796E000 5.497957E000 4.491674E000 4.012323E000 4.001008E000 1.000000E-004 1.000000E-004 1.192243E-001 2.682679E-001 4.293159E-001 6.035753E-001 6.684886E-001 7.685695E-001 8.572753E-001 7.652130E-001 7.367738E-001 6.179320E-001 4.598893E-001 1.000000E-004 1.000000E-004 2.272897E-002 4.479000E-002 7.729048E-002 1.128348E-001 1.022471E-001 1.014338E-001 1.257915E-001 1.170518E-001 1.144674E-001 1.027203E-001 9.571807E-002 1.000000E-004 1.000000E-004
<MIXTURE> 5 0.20191628
<MEAN> 39
 -1.126625E001 2.401333E000 -1.339151E000 -1.382802E000 5.378928E-001 1.076040E000 7.080303E-001 -4.454544E-001 -2.264556E000 -2.393166E000 -9.292863E-001 1.189202E-013 -1.490970E-001 -2.938034E-003 3.143123E-003 1.505241E-002 2.880517E-002 9.431626E-003 -8.020909E-003 2.390475E-002 1.656695E-002 -5.976317E-003 1.842959E-003 -7.471106E-004 -6.828279E-017 1.856685E-004 -1.448150E-002 2.207739E-003 -1.127140E-003 -7.924507E-002 -1.889779E-001 -2.602029E-001 -1.346939E-001 1.020475E-001 2.568486E-001 2.633725E-001 1.431031E-001 1.122472E-016 7.851846E-004
<VARIANCE> 39
 1.516495E000 2.781378E000 4.173532E000 6.917080E000 5.150513E000 4.368739E000 5.943766E000 5.743833E000 4.652388E000 3.794771E000 4.427747E000 1.000000E-004 1.000000E-004 1.120452E-001 2.122231E-001 3.945012E-001 6.094543E-001 6.920125E-001 7.902691E-001 8.796091E-001 8.200653E-001 7.824197E-001 6.750449E-001 5.188901E-001 1.000000E-004 1.000000E-004 2.309182E-002 4.468329E-002 7.715871E-002 1.146053E-001 1.052528E-001 1.084133E-001 1.362463E-001 1.353568E-001 1.071265E-001 8.753105E-002 8.221515E-002 1.000000E-004 1.000000E-004
<TRANSP> 7
 0.000000E000 1.000000E000 0.000000E000 0.000000E000 0.000000E000 0.000000E000 0.000000E000
 0.000000E000 9.914138E-001 8.586230E-003 0.000000E000 0.000000E000 0.000000E000 0.000000E000
 0.000000E000 0.000000E000 9.963715E-001 3.628493E-003 0.000000E000 0.000000E000 0.000000E000
 0.000000E000 0.000000E000 0.000000E000 9.867896E-001 1.321041E-002 0.000000E000 0.000000E000
 0.000000E000 0.000000E000 0.000000E000 0.000000E000 9.956222E-001 4.377783E-003 0.000000E000
 0.000000E000 0.000000E000 0.000000E000 0.000000E000 0.000000E000 9.916756E-001 8.324385E-003
 0.000000E000 0.000000E000 0.000000E000 0.000000E000 0.000000E000 0.000000E000 1.000000E000
<ENDHMM>
~o
<STREAMINFO> 1 39
<VECSIZE> 39 <NULLD> <MFCC_E_D_A>
~h "Comma"
<BEGINHMM>
<NUMSTATES> 7
<STATE> 2
<NUMMIXES> 5
<MIXTURE> 1 0.106995024
<MEAN> 39
 -1.753900E001 8.470746E000 -4.133627E000 7.537424E-002 -3.540699E000 5.036614E000 -5.332089E000 2.713228E000 -1.174141E000 1.233170E000 -1.763103E000 3.255436E-014 -1.512925E-001 2.118653E-001 -7.372953E-001 -3.583952E-003 -9.280273E-002 -1.242285E-002 -2.749782E-001 2.050717E-001 -6.287020E-002 -6.266622E-002 -4.822796E-002 5.672599E-002 2.820082E-015 4.487288E-005 2.375561E-002 -7.267899E-003 3.134549E-002 -3.699701E-002 4.829231E-002 -1.986762E-002 2.081096E-002 -1.470995E-002 2.508892E-002 -5.226930E-003 4.891818E-003 4.019502E-016 2.345488E-004
<VARIANCE> 39
 5.215371E000 4.578760E001 3.751924E000 4.653062E000 5.565637E000 9.758184E000 8.058353E000 3.395402E000 4.704575E000 3.285494E000 5.105036E000 1.000000E-004 1.000000E-004 2.176902E-001 1.366343E000 3.786296E-001 5.528261E-001 5.341284E-001 5.875530E-001 5.386600E-001 3.396303E-001 4.118645E-001 3.314195E-001 4.394089E-001 1.000000E-004 1.000000E-004 4.473931E-002 2.101625E-001 7.403408E-002 1.127500E-001 9.876280E-002 1.053779E-001 1.011684E-001 6.913646E-002 7.830235E-002 6.058430E-002 8.390708E-002 1.000000E-004 1.000000E-004
<MIXTURE> 2 0.23057501
<MEAN> 39
 -8.743838E000 2.365106E000 -1.887523E000 -3.600163E000 2.977914E-001 -1.204466E000 6.726625E-001 1.399339E000 7.971188E-001 1.757478E-001 3.711337E-001 1.411594E-013 1.340995E-001 -2.432040E-002 -6.488623E-002 -2.547557E-002 -2.065462E-002 3.960367E-003 -3.867356E-002 3.854228E-002 7.113781E-002 4.966839E-002 -1.655995E-002 -5.656229E-002 -8.849858E-017 -1.825253E-003 7.713039E-002 1.261092E-001 9.513892E-002 1.527244E-002 -9.230551E-002 -1.377411E-001 -2.031072E-001 -2.789490E-001 -2.545038E-001 -1.890829E-001 -1.172241E-001 -7.891330E-017 2.069627E-003
<VARIANCE> 39
 2.032326E000 4.383468E000 6.353462E000 1.041667E001 8.699987E000 1.017389E001 1.165089E001 7.363450E000 6.098068E000 5.718315E000 5.674719E000 1.000000E-004 7.800362E-003 1.751927E-001 4.434287E-001 5.322675E-001 8.794363E-001 8.565397E-001 9.434360E-001 1.069214E000 9.388753E-001 7.774490E-001 6.883839E-001 6.097239E-001 1.000000E-004 4.640191E-004 3.126797E-002 7.678901E-002 1.099897E-001 1.850300E-001 1.850412E-001 2.173519E-001 2.224233E-001 1.546479E-001 1.346259E-001 1.207187E-001 1.214945E-001 1.000000E-004 1.000000E-004
<MIXTURE> 3 0.26960325
<MEAN> 39
 -7.421620E000 4.589598E000 -1.694538E-001 -2.505858E000 7.009479E-002 -1.407837E000 -1.104418E-001 -6.090577E-001 -1.097865E000 -1.209323E000 -5.066810E-001 1.399875E-013 1.895976E-001 4.043821E-002 8.219612E-002 1.054502E-001 9.724706E-002 5.696516E-002 -1.744059E-002 -8.999620E-002 -6.352136E-002 -2.796564E-002 -4.907888E-002 3.586598E-004 2.922489E-017 4.668867E-003 -9.337714E-002 -1.768922E-001 -2.148097E-001 -2.113689E-001 -1.244880E-001 -7.015699E-002 -3.394091E-002 3.424522E-003 1.909379E-002 -2.492010E-004 8.003792E-005 1.017208E-016 -7.004302E-003
<VARIANCE> 39
 9.481403E-001 1.714292E000 2.874660E000 4.163405E000 5.036197E000 6.063927E000 6.677240E000 6.381172E000 5.383269E000 5.450252E000 5.575451E000 1.000000E-004 4.072050E-003 1.271232E-001 2.469298E-001 4.524472E-001 5.985592E-001 6.527392E-001 7.993206E-001 8.715562E-001 8.423778E-001 6.965057E-001 6.528482E-001 6.163933E-001 1.000000E-004 3.493122E-004 1.921014E-002 3.765852E-002 6.262458E-002 9.832869E-002 1.189869E-001 1.471703E-001 1.623400E-001 1.586639E-001 1.371393E-001 1.275877E-001 1.222622E-001 1.000000E-004 1.000000E-004
<MIXTURE> 4 0.1788272
<MEAN> 39
 -8.337773E000 2.876945E000 -2.327460E000 -4.754226E000 -1.371787E000 -1.977882E000 -5.557348E-001 -1.337942E000 -1.942196E000 -1.937528E000 -9.088392E-001 1.403291E-013 1.021426E-001 1.662721E-001 2.558495E-001 2.902620E-001 2.885443E-001 1.741845E-001 1.164889E-001 1.053331E-001 3.752246E-002 1.533530E-003 4.798540E-002 5.847092E-002 3.442290E-017 1.102158E-002 5.688461E-002 1.200473E-001 1.651018E-001 1.725410E-001 1.227775E-001 5.141227E-002 4.633828E-002 1.179366E-001 1.555449E-001 1.188094E-001 9.258668E-002 1.019211E-016 7.213667E-003
<VARIANCE> 39
 1.337443E000 2.045395E000 3.530048E000 5.225764E000 5.659869E000 7.162453E000 7.366982E000 5.425449E000 4.092583E000 4.335527E000 4.798552E000 1.000000E-004 5.187292E-003 9.937546E-002 1.938988E-001 3.506748E-001 5.213328E-001 6.288926E-001 8.225705E-001 8.316561E-001 8.266454E-001 6.717064E-001 5.848458E-001 5.500391E-001 1.000000E-004 2.824917E-004 2.546972E-002 4.039257E-002 7.440789E-002 1.135732E-001 1.181973E-001 1.609050E-001 1.572182E-001 1.289325E-001 9.992059E-002 1.037319E-001 1.014214E-001 1.000000E-004 1.000000E-004
<MIXTURE> 5 0.21399954
<MEAN> 39
 -7.805251E000 3.818331E000 -1.585401E000 -4.284096E000 -1.547913E000 -2.711874E000 -1.330785E000 -1.729864E000 -1.779112E000 -1.730669E000 -7.192193E-001 1.407018E-013 1.390490E-001 -1.752401E-001 -2.697122E-001 -3.266475E-001 -3.479329E-001 -1.920550E-001 -4.962311E-002 -1.241862E-003 4.188586E-004 3.942450E-003 2.394650E-002 -2.662013E-002 -1.084239E-016 -1.448974E-002 -2.730680E-002 -3.282176E-002 4.190234E-002 1.133458E-001 1.605635E-001 1.854516E-001 2.134489E-001 1.944017E-001 1.242712E-001 1.002279E-001 4.748957E-002 -5.579288E-017 1.282358E-003
<VARIANCE> 39
 1.051114E000 1.876781E000 3.274170E000 4.196650E000 4.600485E000 5.053426E000 5.072176E000 5.636258E000 4.109295E000 4.866003E000 4.634746E000 1.000000E-004 5.148592E-003 9.216772E-002 1.914627E-001 3.812103E-001 5.290052E-001 6.115590E-001 7.949429E-001 8.301224E-001 7.772924E-001 6.931757E-001 6.136470E-001 5.385194E-001 1.000000E-004 2.180739E-004 1.996414E-002 3.368292E-002 6.825811E-002 8.771798E-002 1.006428E-001 1.252146E-001 1.211301E-001 1.312710E-001 1.111731E-001 1.207297E-001 1.161559E-001 1.000000E-004 1.000000E-004
<STATE> 3
<NUMMIXES> 5
<MIXTURE> 1 0.17201209
<MEAN> 39
 -1.219357E001 -4.999529E000 3.087968E000 -9.009453E000 4.845283E000 -2.861932E000 2.194181E000 -1.550322E000 4.224815E-001 -5.051741E-001 -9.672439E-002 1.697073E-013 2.441495E-001 -2.439533E-001 -5.058812E-001 1.668152E-001 -1.996401E-001 3.929771E-001 -8.843230E-002 6.822911E-002 -1.939018E-001 7.254715E-002 7.419014E-002 1.103938E-001 4.732808E-015 3.770206E-002 5.400461E-002 -1.706912E-002 -5.540944E-002 9.577218E-003 -1.160700E-002 6.550742E-003 7.353079E-003 3.506484E-002 -1.299029E-002 1.250454E-002 9.398021E-003 5.595825E-019 5.714289E-004
<VARIANCE> 39
 1.823302E001 2.660114E001 1.620035E001 3.825054E001 2.506642E001 2.220708E001 2.667811E001 2.065723E001 1.085474E001 7.698656E000 8.733225E000 1.000000E-004 6.951295E-002 1.904222E000 1.828670E000 1.468622E000 1.669295E000 1.927222E000 1.914454E000 1.657854E000 1.257833E000 1.112845E000 7.320134E-001 8.296352E-001 1.000000E-004 5.023561E-003 2.823214E-001 2.842595E-001 2.605096E-001 3.173768E-001 3.366757E-001 3.677370E-001 3.289424E-001 2.405864E-001 2.398694E-001 1.494799E-001 1.777808E-001 1.000000E-004 7.141782E-004
<MIXTURE> 2 0.23646367
<MEAN> 39
 -6.658995E000 -3.133312E000 2.791339E000 -7.341443E000 3.052559E000 -2.201841E000 3.149547E000 -8.291469E-003 -1.053415E-001 -4.328957E-001 -5.547378E-001 1.456438E-013 6.665890E-003 1.199963E-001 2.108743E-001 2.535602E-001 2.371822E-001 2.497733E-001 2.494450E-001 2.276322E-001 1.844248E-001 1.375502E-001 6.299545E-002 -8.723622E-003 -7.688346E-017 1.007331E-002 -9.047665E-002 -1.426202E-001 -1.981145E-001 -1.828141E-001 -1.106685E-001 -5.372868E-002 -4.667346E-002 -2.327919E-002 -2.783921E-002 -3.347844E-002 2.572546E-003 7.893098E-017 -3.923708E-003
<VARIANCE> 39
 8.815649E-001 1.676178E000 2.731179E000 3.863082E000 4.924090E000 7.176383E000 6.832251E000 6.480256E000 5.689582E000 5.142447E000 4.400002E000 1.000000E-004 3.051787E-003 1.177161E-001 2.062946E-001 3.764644E-001 5.312139E-001 6.512055E-001 8.744939E-001 9.692637E-001 7.681720E-001 7.660226E-001 5.561435E-001 4.857570E-001 1.000000E-004 2.086188E-004 2.714174E-002 4.317349E-002 6.647787E-002 8.884063E-002 1.255281E-001 1.821624E-001 1.827708E-001 1.650825E-001 1.440366E-001 1.194143E-001 1.008203E-001 1.000000E-004 1.000000E-004
<MIXTURE> 3 0.20697816
<MEAN> 39
 -7.831035E000 -3.983758E000 2.517723E000 -8.215531E000 4.664725E000 -7.427267E-001 4.370566E000 6.045325E-001 7.099285E-001 1.470705E-001 -2.284845E-001 1.501429E-013 3.355429E-002 -1.115429E-001 -1.877586E-001 -2.390972E-001 -1.861008E-001 -2.007502E-001 -2.495113E-001 -1.995167E-001 -1.545245E-001 -1.510252E-001 -1.196339E-001 -3.115901E-002 -8.443567E-017 -9.952933E-003 3.298301E-003 5.391198E-004 -4.001906E-002 -1.330297E-001 -2.414357E-001 -2.457021E-001 -2.385310E-001 -1.746239E-001 -1.194491E-001 -7.467608E-002 -3.959444E-002 8.629489E-018 -1.964790E-003
<VARIANCE> 39
 3.511789E000 3.719125E000 4.614081E000 9.904456E000 5.786688E000 7.403355E000 8.274584E000 9.934076E000 8.077855E000 5.890162E000 4.721129E000 1.000000E-004 7.446139E-003 1.435788E-001 2.511458E-001 4.394276E-001 5.879268E-001 7.711564E-001 9.026734E-001 8.648641E-001 9.283761E-001 7.578749E-001 5.650017E-001 4.814184E-001 1.000000E-004 2.371604E-004 3.275058E-002 5.224505E-002 9.239298E-002 1.218444E-001 1.329535E-001 1.673380E-001 1.712687E-001 1.814034E-001 1.807340E-001 1.324292E-001 1.029879E-001 1.000000E-004 1.000000E-004
<MIXTURE> 4 0.17864816
<MEAN> 39
 -7.888337E000 -5.217839E000 3.799624E-001 -9.885376E000 1.609829E000 -2.995547E000 2.516993E000 -4.359417E-001 -3.679920E-001 -4.641004E-001 -4.709345E-001 1.471552E-013 -5.403674E-002 1.577479E-001 2.344282E-001 2.807471E-001 2.977953E-001 1.939840E-001 9.856512E-002 9.024520E-002 5.820126E-002 5.072530E-002 7.165962E-002 2.721122E-002 -3.361451E-017 6.824906E-003 9.113397E-002 1.920711E-001 2.402353E-001 2.191634E-001 1.665414E-001 9.809171E-002 6.820440E-002 3.812123E-002 3.877627E-002 4.703862E-003 -1.395111E-002 -4.803694E-017 6.406935E-003
<VARIANCE> 39
 1.391860E000 1.998345E000 3.627647E000 5.186689E000 6.401657E000 8.585959E000 8.504877E000 7.913417E000 6.261614E000 5.404937E000 4.306047E000 1.000000E-004 1.838523E-003 1.336522E-001 2.006858E-001 3.844839E-001 4.976024E-001 7.051913E-001 9.868765E-001 9.448865E-001 7.821359E-001 7.723398E-001 6.081001E-001 4.784827E-001 1.000000E-004 1.911297E-004 3.160943E-002 3.796335E-002 6.409220E-002 9.316448E-002 1.367391E-001 1.916713E-001 1.952263E-001 1.641440E-001 1.602432E-001 1.254904E-001 1.023245E-001 1.000000E-004 1.000000E-004
<MIXTURE> 5 0.20589793
<MEAN> 39
 -7.005701E000 -3.909007E000 1.443250E000 -9.272932E000 1.220336E000 -3.701425E000 1.723353E000 -9.748214E-001 -8.642261E-001 -1.169143E000 -7.287478E-001 1.466914E-013 -3.112369E-002 -1.393898E-001 -2.496775E-001 -2.980946E-001 -3.169506E-001 -2.682274E-001 -1.746917E-001 -1.402020E-001 -6.518041E-002 -6.539991E-002 -7.282607E-002 -1.671354E-002 3.426891E-017 -9.164355E-003 -3.123672E-002 -5.215893E-003 6.392195E-002 1.482318E-001 2.219438E-001 2.180714E-001 2.127844E-001 1.485484E-001 1.120731E-001 1.087551E-001 4.555294E-002 -2.805578E-017 2.281746E-003
<VARIANCE> 39
 1.036789E000 1.675271E000 3.279866E000 4.437604E000 4.586322E000 6.741563E000 6.077389E000 6.056954E000 5.674422E000 4.237120E000 4.294555E000 1.000000E-004 1.970653E-003 1.069589E-001 2.054220E-001 3.573939E-001 5.025679E-001 6.914830E-001 9.760652E-001 8.916357E-001 7.940583E-001 6.752005E-001 6.190029E-001 4.936657E-001 1.000000E-004 1.676887E-004 2.735342E-002 4.162119E-002 7.543854E-002 9.615303E-002 1.136563E-001 1.771916E-001 1.665480E-001 1.448824E-001 1.304201E-001 1.101090E-001 1.029582E-001 1.000000E-004 1.000000E-004
<STATE> 4
<NUMMIXES> 5
<MIXTURE> 1 0.14784694
<MEAN> 39
 -1.650614E001 -1.240432E001 1.788810E-001 -6.919487E000 7.178496E000 -5.828225E000 -2.348707E000 -3.399837E000 6.321287E-001 -9.781768E-001 6.106807E-002 2.275836E-013 8.831430E-001 2.055426E-001 1.239800E-001 -9.994833E-002 -1.188309E-001 -2.282655E-001 -1.940903E-001 -1.918728E-001 -1.148166E-001 -7.688803E-003 -3.111710E-002 -3.876793E-002 -2.082061E-016 -6.999654E-003 2.533571E-002 7.452410E-002 4.796071E-002 6.729188E-003 -2.788476E-002 1.448506E-002 1.752189E-002 -2.966759E-003 5.996516E-003 6.317318E-003 -3.899120E-003 -5.533351E-016 -5.950727E-003
<VARIANCE> 39
 2.419349E001 1.383880E001 1.331487E001 3.151204E001 2.341519E001 2.094583E001 2.146926E001 1.723665E001 1.188002E001 8.639882E000 7.153889E000 1.000000E-004 1.133875E-002 4.205224E-001 7.472718E-001 1.033232E000 9.290955E-001 1.275988E000 1.566563E000 1.534655E000 1.182477E000 1.120168E000 7.874064E-001 6.670573E-001 1.000000E-004 8.985818E-004 9.469319E-002 1.644904E-001 2.079993E-001 1.991905E-001 2.665068E-001 3.180331E-001 2.998887E-001 2.458939E-001 2.298964E-001 1.623597E-001 1.386975E-001 1.000000E-004 1.672617E-004
<MIXTURE> 2 0.17215459
<MEAN> 39
 -1.251743E001 -1.084113E001 1.767949E000 -3.665347E000 5.517729E000 -2.324187E000 -5.373630E-001 2.086672E-001 2.234977E000 1.405583E000 4.285501E-001 1.643471E-013 2.663174E-001 7.153973E-002 7.965560E-002 -3.964852E-003 3.474773E-002 -5.889941E-002 -7.300043E-003 1.084872E-002 1.040576E-002 -2.382594E-003 -4.780317E-002 1.917385E-002 -4.343412E-016 -6.399399E-003 5.510932E-002 8.549339E-002 5.414366E-002 -4.256025E-002 -1.764893E-001 -2.369165E-001 -2.922137E-001 -3.036883E-001 -2.909278E-001 -2.136118E-001 -1.199687E-001 -8.656575E-017 8.356587E-005
<VARIANCE> 39
 1.056863E001 9.645876E000 7.527468E000 1.246741E001 8.874853E000 1.263326E001 1.089176E001 1.164534E001 7.455107E000 7.146261E000 5.613413E000 1.000000E-004 2.571133E-002 1.178591E-001 2.644523E-001 3.723602E-001 5.726166E-001 6.940664E-001 8.114709E-001 9.513056E-001 7.860523E-001 7.391198E-001 7.513484E-001 5.570319E-001 1.000000E-004 1.000000E-004 2.563181E-002 5.333836E-002 8.457842E-002 1.332895E-001 1.335904E-001 1.573126E-001 1.543861E-001 1.233835E-001 1.265361E-001 1.353087E-001 1.089695E-001 1.000000E-004 1.000000E-004
<MIXTURE> 3 0.28718874
<MEAN> 39
 -8.863817E000 -1.309364E001 2.282745E000 -1.058931E001 2.081913E000 -7.489807E000 -1.498807E000 -2.620418E000 -8.333586E-001 8.682620E-001 7.879118E-001 1.880561E-013 4.027104E-001 2.113333E-002 3.592180E-002 4.076694E-002 8.528211E-002 1.774858E-002 1.034365E-001 6.237360E-002 9.654948E-002 -3.640965E-002 1.765694E-002 -5.415160E-003 -1.140600E-015 -9.737238E-003 -9.572032E-003 -2.667947E-003 8.207078E-003 4.293799E-002 6.995524E-002 8.024900E-002 5.993037E-002 4.827846E-002 4.804050E-002 1.402043E-002 9.452783E-004 -1.761167E-017 2.385490E-004
<VARIANCE> 39
 4.161493E000 5.892840E000 1.123200E001 1.709614E001 9.464622E000 1.742900E001 1.954054E001 1.375456E001 9.990809E000 7.627022E000 6.271243E000 1.000000E-004 5.128662E-002 1.641850E-001 3.090612E-001 4.289760E-001 6.161084E-001 8.172479E-001 9.259500E-001 8.661560E-001 7.693726E-001 7.226965E-001 6.109561E-001 4.759646E-001 1.000000E-004 1.076129E-004 3.341275E-002 6.324677E-002 8.930237E-002 1.258220E-001 1.633740E-001 1.937789E-001 1.789179E-001 1.440540E-001 1.409470E-001 1.294821E-001 1.023074E-001 1.000000E-004 1.000000E-004
<MIXTURE> 4 0.20762254
<MEAN> 39
 -1.119927E001 -6.250526E000 1.615567E000 -6.891490E-001 1.498622E000 -2.363021E000 -3.507168E000 -1.812840E000 2.204686E-001 -8.084884E-001 -1.173036E000 1.408584E-013 1.098963E-001 4.184365E-002 1.092692E-001 -9.574288E-003 5.243568E-002 -2.334206E-002 4.043091E-002 1.607314E-002 1.615708E-002 9.498756E-003 -2.126484E-002 -1.896781E-002 -3.708358E-016 -2.505800E-003 -2.366104E-002 -3.442892E-002 -3.314415E-002 -1.806205E-003 5.277284E-002 4.036541E-002 4.119706E-002 4.646378E-002 4.361790E-002 5.074948E-002 3.831228E-002 5.825552E-017 2.211808E-004
<VARIANCE> 39
 1.726899E000 5.329792E000 7.028917E000 8.722315E000 7.767170E000 9.156940E000 7.030907E000 1.146921E001 5.771909E000 6.199471E000 4.860188E000 1.000000E-004 6.110010E-003 1.246385E-001 2.351815E-001 4.348809E-001 5.583678E-001 7.745748E-001 6.377639E-001 7.937898E-001 7.272401E-001 7.351102E-001 7.360920E-001 5.054180E-001 1.000000E-004 1.422015E-004 2.500357E-002 4.864732E-002 8.770871E-002 1.131156E-001 1.572103E-001 1.169654E-001 1.491882E-001 1.287078E-001 1.290592E-001 1.451886E-001 1.058794E-001 1.000000E-004 1.000000E-004
<MIXTURE> 5 0.18518724
<MEAN> 39
 -1.478607E001 -9.305196E000 1.505641E000 -3.270162E000 6.032048E000 -3.487479E000 -3.398492E000 -4.082262E000 -2.669712E-001 -1.174427E000 -4.874707E-001 1.769740E-013 3.846146E-001 4.582278E-002 -3.875425E-002 1.547737E-002 2.308667E-002 -4.897851E-002 6.062867E-002 1.223813E-002 2.926024E-002 4.323617E-002 7.001136E-002 3.565012E-003 -8.773672E-016 -7.330390E-003 -1.448479E-002 -2.511015E-002 -3.821576E-002 -3.271483E-002 -7.898333E-004 5.820832E-002 1.353368E-001 1.642813E-001 1.504192E-001 1.108748E-001 6.167969E-002 1.339950E-016 7.551777E-004
<VARIANCE> 39
 4.228379E000 6.037942E000 6.819561E000 7.691407E000 7.329873E000 1.170729E001 8.933874E000 9.699854E000 6.249910E000 6.703948E000 5.004171E000 1.000000E-004 1.815311E-002 1.189352E-001 2.591406E-001 4.452856E-001 6.227999E-001 7.432449E-001 7.821183E-001 9.563885E-001 7.918389E-001 8.005219E-001 7.561471E-001 5.416658E-001 1.000000E-004 1.000000E-004 2.373667E-002 5.290131E-002 8.525998E-002 1.216548E-001 1.438348E-001 1.422868E-001 1.662734E-001 1.226126E-001 1.263745E-001 1.353225E-001 1.065702E-001 1.000000E-004 1.000000E-004
<STATE> 5
<NUMMIXES> 5
<MIXTURE> 1 0.1032745
<MEAN> 39
 -1.303282E001 2.762325E000 2.444554E000 -5.642680E000 1.225839E000 -1.150987E000 -2.663482E000 3.426888E000 -2.293451E000 -2.512894E000 1.915810E000 1.344514E-013 4.112282E-002 -9.960371E-002 3.248782E-002 1.420868E-001 -8.274364E-002 7.399064E-002 5.605096E-003 -1.136103E-001 8.409540E-002 -1.561561E-002 -4.773945E-002 4.636117E-002 3.539309E-016 3.132404E-003 6.891618E-002 3.579460E-002 -5.133387E-002 8.243965E-002 -2.933791E-002 -2.724272E-002 5.051335E-002 -7.007787E-002 5.515354E-002 5.107380E-002 -4.623072E-002 -1.756153E-016 -1.162207E-003
<VARIANCE> 39
 1.374954E001 1.022299E001 1.446450E001 1.621976E001 1.308255E001 9.633600E000 1.454614E001 1.662631E001 7.956958E000 6.762150E000 7.894950E000 1.000000E-004 1.995299E-002 8.427907E-001 5.392964E-001 1.320814E000 1.065288E000 1.032617E000 9.253543E-001 1.299270E000 1.413050E000 8.419624E-001 7.271295E-001 8.313243E-001 1.000000E-004 2.474441E-003 1.469256E-001 1.172591E-001 2.667286E-001 2.142845E-001 2.157183E-001 2.085547E-001 2.978497E-001 2.880454E-001 1.589673E-001 1.433373E-001 1.579137E-001 1.000000E-004 4.683705E-004
<MIXTURE> 2 0.23670459
<MEAN> 39
 -1.085011E001 1.987574E000 -2.115916E000 -3.293192E000 -1.348057E000 -5.158068E-001 1.374400E000 2.292461E000 1.496913E000 2.831044E-001 7.071934E-003 1.240802E-013 -7.602856E-002 2.625663E-002 2.911170E-002 -4.258968E-002 3.510033E-004 4.287997E-003 5.455579E-003 7.035115E-002 4.788087E-002 1.478484E-002 -3.006048E-002 -4.344355E-002 -9.159238E-017 1.739036E-004 5.434667E-002 1.048973E-001 1.586326E-001 1.432494E-001 3.026685E-002 -1.448994E-001 -2.995017E-001 -3.448791E-001 -3.267437E-001 -2.130137E-001 -8.237827E-002 -1.042909E-016 2.005613E-003
<VARIANCE> 39
 1.763728E000 4.957550E000 4.383524E000 6.776473E000 6.036963E000 5.393803E000 6.584339E000 5.878047E000 4.973711E000 5.051370E000 5.247271E000 1.000000E-004 5.298609E-003 1.442683E-001 2.565684E-001 4.366871E-001 6.552914E-001 6.945370E-001 7.769484E-001 8.308522E-001 8.999888E-001 8.262107E-001 6.602034E-001 5.495315E-001 1.000000E-004 3.700304E-004 2.874021E-002 4.774772E-002 7.123882E-002 1.038514E-001 1.195092E-001 1.259681E-001 1.191480E-001 1.250255E-001 1.142165E-001 1.045005E-001 1.114882E-001 1.000000E-004 1.000000E-004
<MIXTURE> 3 0.2305202
<MEAN> 39
 -9.994128E000 3.002617E000 2.276529E-001 -3.094044E-001 8.704376E-001 3.808711E-001 4.068375E-001 -5.045105E-003 -8.440719E-001 -1.497917E000 -8.765766E-001 1.230582E-013 9.139753E-003 -1.166893E-002 3.753074E-002 4.131455E-003 -1.222713E-002 -4.457853E-002 -1.120370E-002 -4.736990E-002 -1.022709E-001 -6.082276E-002 4.788836E-003 3.520913E-002 -2.581503E-017 -7.390043E-004 -6.964829E-002 -9.647687E-002 -1.477853E-001 -2.257950E-001 -2.319229E-001 -2.116875E-001 -1.193415E-001 6.170306E-003 7.750426E-002 8.603787E-002 4.950819E-002 1.215273E-016 -6.730429E-003
<VARIANCE> 39
 1.759812E000 6.673907E000 3.821753E000 5.570827E000 4.863744E000 5.696376E000 6.893056E000 6.644355E000 5.114592E000 4.977664E000 4.959615E000 1.000000E-004 1.131124E-002 1.315522E-001 2.337544E-001 4.014092E-001 6.204618E-001 6.309369E-001 7.802188E-001 9.115569E-001 8.627084E-001 7.158387E-001 5.927463E-001 4.692388E-001 1.000000E-004 6.856867E-004 2.441628E-002 4.045004E-002 6.253062E-002 1.005833E-001 1.083945E-001 1.164907E-001 1.274872E-001 1.359206E-001 1.241930E-001 1.100948E-001 1.014444E-001 1.000000E-004 1.128952E-004
<MIXTURE> 4 0.19742428
<MEAN> 39
 -1.060387E001 2.188009E000 -2.103757E-001 -1.564576E000 -1.457490E000 -3.343022E000 -3.103762E000 -1.216230E000 -8.195739E-002 1.362139E-001 2.924161E-001 1.243078E-013 -6.757268E-002 1.660293E-002 6.680881E-002 -8.219778E-003 -5.877110E-003 -6.841489E-003 3.644795E-002 1.037794E-001 1.308872E-001 7.832065E-002 1.172537E-002 -1.690336E-002 -1.588323E-016 6.453328E-004 -2.087999E-002 -5.881879E-002 -9.169453E-002 -7.141422E-002 1.164417E-001 3.155707E-001 3.484341E-001 1.898494E-001 -4.181952E-002 -1.623139E-001 -1.191594E-001 -2.696765E-017 1.601405E-003
<VARIANCE> 39
 1.496846E000 8.267420E000 4.406849E000 6.811413E000 6.031266E000 4.805406E000 5.461056E000 6.869930E000 4.482799E000 4.412939E000 4.552281E000 1.000000E-004 4.597245E-003 1.479423E-001 2.625686E-001 4.187059E-001 6.067294E-001 6.218710E-001 7.104782E-001 8.476338E-001 7.772624E-001 7.444943E-001 6.471209E-001 5.382515E-001 1.000000E-004 3.141392E-004 2.875498E-002 4.763024E-002 7.290990E-002 1.113395E-001 1.176683E-001 1.030233E-001 1.159729E-001 1.319706E-001 1.074662E-001 9.750203E-002 9.076281E-002 1.000000E-004 1.000000E-004
<MIXTURE> 5 0.2320765
<MEAN> 39
 -1.064917E001 2.835230E000 -1.809365E000 -3.269195E000 -2.053765E000 -1.923786E000 -9.785315E-001 -1.104581E000 -2.298711E000 -2.503881E000 -1.283911E000 1.219425E-013 -1.085805E-001 -2.351743E-002 -2.808328E-003 2.464739E-003 -9.362712E-003 -4.431104E-003 -1.517570E-002 -3.733710E-002 -5.878370E-002 -5.167522E-002 1.531260E-002 1.793504E-002 -3.653114E-017 -2.495685E-003 -4.944137E-003 1.365776E-002 8.588830E-002 1.074947E-001 1.210158E-001 9.912119E-002 1.043102E-001 2.118853E-001 2.709962E-001 2.487469E-001 1.542528E-001 1.046562E-016 3.982599E-003
<VARIANCE> 39
 1.329636E000 2.781652E000 3.993743E000 5.902124E000 5.613553E000 4.964302E000 5.508109E000 6.023507E000 3.921677E000 3.563456E000 4.232409E000 1.000000E-004 2.311888E-003 1.235388E-001 2.443621E-001 4.192134E-001 6.193559E-001 6.900095E-001 7.685754E-001 8.846747E-001 8.755988E-001 7.594385E-001 6.535245E-001 5.580559E-001 1.000000E-004 2.327117E-004 2.542586E-002 4.764549E-002 7.707013E-002 1.133092E-001 1.200698E-001 1.207310E-001 1.278087E-001 1.484578E-001 1.123716E-001 8.735043E-002 9.813837E-002 1.000000E-004 1.000000E-004
<STATE> 6
<NUMMIXES> 5
<MIXTURE> 1 0.2726893
<MEAN> 39
 -7.334510E000 -4.941761E000 1.241040E000 -8.776665E000 1.425717E000 -3.396250E000 1.990333E000 -7.333894E-001 -4.517965E-001 -6.861854E-001 -4.737597E-001 1.468394E-013 -2.941008E-002 1.914160E-002 4.478764E-002 4.993069E-003 -1.789825E-002 7.429409E-003 3.694068E-002 -7.272446E-003 -1.845097E-002 -1.837842E-002 1.849089E-002 -3.192256E-003 -8.640645E-017 -9.500550E-004 6.777101E-002 1.276817E-001 1.766457E-001 2.076356E-001 2.184600E-001 1.658242E-001 1.696856E-001 1.207577E-001 6.041813E-002 4.629604E-002 1.911159E-002 1.082349E-017 7.003749E-003
<VARIANCE> 39
 1.222129E000 4.358087E000 3.632344E000 5.001835E000 6.182071E000 7.777940E000 7.244417E000 7.282827E000 6.711690E000 5.416301E000 4.957163E000 1.000000E-004 2.708980E-003 1.264025E-001 2.324080E-001 3.870582E-001 5.382436E-001 7.182626E-001 8.498083E-001 8.387492E-001 8.143007E-001 7.340474E-001 5.846614E-001 5.062519E-001 1.000000E-004 2.863259E-004 2.798894E-002 4.672559E-002 6.983653E-002 9.551970E-002 1.307700E-001 1.741557E-001 1.637817E-001 1.660493E-001 1.473743E-001 1.138819E-001 1.031873E-001 1.000000E-004 1.000000E-004
<MIXTURE> 2 0.22927941
<MEAN> 39
 -6.530120E000 -3.479212E000 3.209434E000 -6.509028E000 3.855256E000 -1.247712E000 3.893264E000 4.203641E-001 2.998152E-001 -2.789981E-001 -2.276246E-001 1.469459E-013 4.600710E-002 1.461518E-001 2.524753E-001 2.777587E-001 3.171583E-001 3.039542E-001 2.486466E-001 2.450497E-001 1.738267E-001 8.611256E-002 5.843807E-002 3.140893E-002 1.929507E-018 1.318724E-002 -4.474772E-002 -7.834139E-002 -1.089735E-001 -1.265808E-001 -1.504616E-001 -1.453822E-001 -1.279849E-001 -7.911589E-002 -3.829263E-002 -2.968792E-002 -1.478192E-002 1.878958E-017 -2.919277E-003
<VARIANCE> 39
 1.081906E000 3.694543E000 3.846235E000 4.764389E000 5.503654E000 7.789399E000 7.087746E000 6.760888E000 6.874779E000 5.245438E000 4.516555E000 1.000000E-004 5.722047E-003 1.086066E-001 1.806774E-001 3.130478E-001 4.721509E-001 6.697297E-001 8.978480E-001 8.252253E-001 8.070208E-001 7.298008E-001 5.669063E-001 5.032708E-001 1.000000E-004 2.623233E-004 2.411146E-002 4.301809E-002 7.299758E-002 9.405652E-002 1.290623E-001 1.670364E-001 1.591900E-001 1.614993E-001 1.570001E-001 1.233984E-001 1.010370E-001 1.000000E-004 1.000000E-004
<MIXTURE> 3 0.19431327
<MEAN> 39
 -6.442131E000 -3.170943E000 3.448184E000 -6.321253E000 3.805237E000 -1.443858E000 3.844524E000 5.122831E-001 3.844126E-001 -2.384761E-001 -2.426848E-001 1.467607E-013 7.061870E-002 -2.237189E-001 -3.545253E-001 -4.584921E-001 -4.597829E-001 -4.457781E-001 -3.577523E-001 -3.163515E-001 -2.098840E-001 -7.852770E-002 -1.132546E-001 -5.127599E-002 1.130087E-017 -2.090000E-002 -1.994671E-002 -4.173646E-002 -7.304502E-002 -9.615652E-002 -7.311966E-002 -3.750430E-002 -8.207235E-002 -8.476456E-002 -4.787608E-002 -3.303595E-002 -8.395129E-003 5.836962E-017 -2.185459E-003
<VARIANCE> 39
 1.267296E000 3.504377E000 4.175953E000 4.917573E000 6.705228E000 9.095782E000 7.831143E000 7.373557E000 6.812739E000 5.482007E000 4.662968E000 1.000000E-004 8.317409E-003 9.854089E-002 1.815304E-001 3.094910E-001 4.291542E-001 6.101422E-001 8.092471E-001 7.243361E-001 7.262595E-001 6.903483E-001 5.605785E-001 4.695514E-001 1.000000E-004 3.083909E-004 2.936089E-002 4.794585E-002 7.955806E-002 1.108767E-001 1.486115E-001 1.975753E-001 1.754055E-001 1.762782E-001 1.575775E-001 1.259708E-001 1.083691E-001 1.000000E-004 1.000000E-004
<MIXTURE> 4 0.22603069
<MEAN> 39
 -3.360544E000 4.108112E-001 7.853360E000 -2.859530E000 7.940791E000 3.455019E-001 4.744039E000 9.400025E-001 3.325234E-001 -1.096327E-001 -2.110552E-001 1.539293E-013 4.970614E-001 -7.877208E-002 -3.072688E-002 -3.713020E-002 2.875121E-002 -3.133570E-002 5.156618E-002 3.106668E-002 1.405564E-002 1.412863E-002 2.723458E-002 3.143965E-002 -4.500219E-016 -7.025621E-003 -3.768845E-002 -7.918878E-002 -8.742903E-002 -6.885941E-002 -6.961016E-002 -5.590596E-002 -2.789067E-002 1.864423E-003 2.331118E-002 2.041873E-002 4.635942E-003 3.785999E-017 -4.796015E-003
<VARIANCE> 39
 2.634154E000 3.780075E000 5.807517E000 7.706760E000 6.644432E000 8.419299E000 7.082364E000 6.041000E000 6.291034E000 5.301164E000 4.915758E000 1.000000E-004 2.658306E-002 1.344621E-001 2.733198E-001 4.383306E-001 5.265093E-001 6.496630E-001 7.028839E-001 7.127552E-001 6.780660E-001 6.129521E-001 5.871227E-001 4.793706E-001 1.000000E-004 8.455741E-004 2.612082E-002 5.819851E-002 8.373739E-002 1.055701E-001 1.348955E-001 1.388468E-001 1.283688E-001 1.279665E-001 1.166390E-001 1.160075E-001 9.513921E-002 1.000000E-004 1.294205E-004
<MIXTURE> 5 0.07768739
<MEAN> 39
 -5.612480E000 -2.987881E000 4.153810E000 -6.477501E000 5.257676E000 -2.597037E000 2.558202E000 -3.883799E-002 3.889605E-001 6.284333E-001 7.277967E-003 1.643500E-013 3.492416E-001 4.220857E-001 3.941323E-001 5.216267E-001 3.066204E-001 4.276720E-001 1.002372E-002 9.787950E-002 6.576660E-002 8.660429E-003 -1.181228E-002 -3.573326E-002 1.525712E-015 4.829508E-002 4.951148E-002 9.634081E-002 1.265693E-001 9.266260E-002 5.967909E-002 9.319983E-002 5.945835E-002 2.601549E-002 -4.208267E-002 -3.680695E-002 -9.607264E-003 -3.783308E-016 2.859771E-003
<VARIANCE> 39
 1.991321E001 1.199167E001 1.277541E001 1.058435E001 1.170755E001 1.603498E001 9.123285E000 8.666575E000 6.512056E000 7.546427E000 7.530412E000 1.000000E-004 7.089170E-002 1.811923E000 1.415006E000 8.646491E-001 1.258931E000 9.716864E-001 1.515330E000 9.339210E-001 1.007447E000 7.090272E-001 7.322466E-001 8.446712E-001 1.000000E-004 3.543225E-003 3.864473E-001 2.551187E-001 1.381578E-001 2.270472E-001 1.990507E-001 2.985268E-001 1.950839E-001 2.054571E-001 1.355928E-001 1.523134E-001 1.728150E-001 1.000000E-004 5.310565E-004
<TRANSP> 7
 0.000000E000 1.000000E000 0.000000E000 0.000000E000 0.000000E000 0.000000E000 0.000000E000
 0.000000E000 9.910171E-001 8.982897E-003 0.000000E000 0.000000E000 0.000000E000 0.000000E000
 0.000000E000 0.000000E000 9.930344E-001 6.965576E-003 0.000000E000 0.000000E000 0.000000E000
 0.000000E000 0.000000E000 0.000000E000 9.916334E-001 8.366583E-003 0.000000E000 0.000000E000
 0.000000E000 0.000000E000 0.000000E000 0.000000E000 9.917010E-001 8.298992E-003 0.000000E000
 0.000000E000 0.000000E000 0.000000E000 0.000000E000 0.000000E000 9.938020E-001 6.197989E-003
 0.000000E000 0.000000E000 0.000000E000 0.000000E000 0.000000E000 0.000000E000 1.000000E000
<ENDHMM>
~o
<STREAMINFO> 1 39
<VECSIZE> 39 <NULLD> <MFCC_E_D_A>
~h "EM"
<BEGINHMM>
<NUMSTATES> 7
<STATE> 2
<NUMMIXES> 5
<MIXTURE> 1 0.19369721
<MEAN> 39
 -1.049331E001 -1.482625E000 -1.533568E000 -6.542085E000 3.004494E000 1.551855E000 -9.642402E-001 1.076481E000 -2.225787E000 -1.349747E000 -7.022873E-001 1.283077E-013 1.325997E-001 5.998126E-002 -2.386892E-001 3.552942E-002 -8.847444E-002 1.620362E-001 -5.011691E-002 6.263258E-002 -3.146023E-002 -1.163362E-002 -2.275889E-002 8.273994E-003 1.607054E-015 5.841337E-003 3.268505E-002 2.048628E-002 1.947651E-002 2.269245E-002 -1.792417E-002 -4.086919E-002 9.465151E-003 -1.892360E-002 6.999815E-004 1.196847E-002 1.775033E-003 3.915432E-017 -3.820362E-004
<VARIANCE> 39
 2.915001E001 6.564059E001 2.864610E001 3.639240E001 2.987318E001 1.897233E001 2.261044E001 1.240703E001 1.509888E001 8.952718E000 6.824480E000 1.000000E-004 5.705017E-002 4.972639E-001 8.401480E-001 8.151676E-001 8.577424E-001 8.566016E-001 1.032416E000 9.543101E-001 8.000545E-001 8.020218E-001 6.042882E-001 5.137496E-001 1.000000E-004 8.236619E-004 7.755993E-002 1.287474E-001 1.601235E-001 1.604510E-001 1.546250E-001 2.146688E-001 1.884761E-001 1.670210E-001 1.663087E-001 1.271370E-001 1.101891E-001 1.000000E-004 1.208925E-004
<MIXTURE> 2 0.3004888
<MEAN> 39
 -7.787555E000 3.282058E000 -1.787748E000 -3.267144E000 -1.195687E000 -2.936541E000 -7.099721E-001 -6.283388E-002 -9.302197E-001 -1.340876E000 -6.484692E-001 1.403069E-013 1.391030E-001 -3.013448E-003 1.189062E-003 9.604771E-003 -1.676643E-002 1.410557E-002 8.534000E-003 -4.105090E-003 -7.006542E-003 -4.416970E-003 -8.794346E-003 5.165823E-003 1.283031E-017 -4.316350E-004 -9.103331E-003 -1.213839E-002 -7.051837E-003 -6.068375E-003 1.010253E-002 1.058619E-002 3.738638E-003 7.211557E-003 4.847609E-003 7.599120E-004 1.677646E-004 1.260010E-017 -2.530872E-005
<VARIANCE> 39
 1.386830E000 3.601391E000 4.097166E000 5.741869E000 5.847544E000 7.324074E000 7.745906E000 7.172652E000 6.151332E000 5.606211E000 5.522343E000 1.000000E-004 1.285431E-002 1.214692E-001 2.521410E-001 4.562095E-001 5.819398E-001 6.411750E-001 7.552751E-001 8.119320E-001 7.526067E-001 6.856362E-001 6.036869E-001 5.633318E-001 1.000000E-004 3.409986E-004 2.422648E-002 5.123599E-002 9.378021E-002 1.194466E-001 1.335535E-001 1.507441E-001 1.614979E-001 1.528066E-001 1.392857E-001 1.262530E-001 1.164645E-001 1.000000E-004 1.000000E-004
<MIXTURE> 3 0.18886183
<MEAN> 39
 -6.334653E000 -2.853640E000 3.039077E000 -7.185804E000 4.110501E000 -8.328957E-001 3.760045E000 9.248751E-001 5.060344E-001 1.082358E-001 -1.278094E-001 1.464367E-013 7.618292E-003 -3.291127E-003 -2.779847E-002 -3.375304E-002 -4.856900E-002 -2.583120E-002 -1.829837E-002 -2.817897E-002 -2.493369E-002 -2.751932E-002 -9.110772E-003 2.023093E-002 1.057800E-016 -4.882246E-004 -6.281842E-002 -1.083630E-001 -1.568350E-001 -1.912110E-001 -1.955467E-001 -1.771124E-001 -1.568931E-001 -1.294153E-001 -1.103605E-001 -7.613945E-002 -4.508460E-002 -1.301393E-017 -5.630665E-003
<VARIANCE> 39
 1.700353E000 2.584599E000 4.227612E000 4.940942E000 5.312594E000 7.120288E000 7.243161E000 6.530144E000 6.520020E000 5.731976E000 4.353749E000 1.000000E-004 9.650099E-003 1.361375E-001 2.475333E-001 4.424959E-001 6.215183E-001 7.501413E-001 9.569834E-001 8.802533E-001 7.973412E-001 7.746882E-001 6.595756E-001 5.433448E-001 1.000000E-004 4.616203E-004 2.765536E-002 4.288042E-002 7.610533E-002 9.889878E-002 1.284455E-001 1.712325E-001 1.729534E-001 1.648058E-001 1.583672E-001 1.428041E-001 1.121317E-001 1.000000E-004 1.000000E-004
<MIXTURE> 4 0.16382486
<MEAN> 39
 -7.115746E000 -4.045177E000 1.380685E000 -9.302110E000 1.911036E000 -3.063800E000 1.885257E000 -4.684682E-001 -5.750510E-001 -6.677221E-001 -5.932969E-001 1.463988E-013 -8.750419E-002 1.501512E-001 2.710051E-001 3.270134E-001 3.363303E-001 3.003699E-001 2.571405E-001 2.488723E-001 2.274047E-001 1.933229E-001 1.245357E-001 8.324685E-002 6.516181E-017 1.089779E-002 2.370211E-002 3.933413E-002 5.698368E-002 7.589708E-002 1.068985E-001 1.252799E-001 8.072601E-002 8.609904E-002 5.257649E-002 5.200835E-002 4.613915E-002 1.438575E-017 3.774365E-003
<VARIANCE> 39
 1.354035E000 2.175513E000 3.662753E000 4.997105E000 5.695264E000 7.928124E000 7.349582E000 6.666058E000 5.752917E000 5.199925E000 4.520401E000 1.000000E-004 2.434680E-003 1.144220E-001 1.962426E-001 3.371131E-001 4.776688E-001 6.839364E-001 8.656490E-001 7.655908E-001 7.143760E-001 6.984926E-001 6.527233E-001 5.652060E-001 1.000000E-004 1.650227E-004 2.896209E-002 4.879677E-002 8.525718E-002 1.204965E-001 1.402940E-001 1.915314E-001 1.758204E-001 1.492996E-001 1.498447E-001 1.272245E-001 1.119532E-001 1.000000E-004 1.000000E-004
<MIXTURE> 5 0.15312736
<MEAN> 39
 -7.187418E000 -4.315133E000 9.871713E-001 -9.621348E000 1.872109E000 -2.825346E000 1.958153E000 -4.025174E-001 -5.648215E-001 -4.344197E-001 -3.886561E-001 1.465994E-013 -8.891391E-002 -1.500809E-001 -2.683794E-001 -3.181907E-001 -3.325330E-001 -3.187485E-001 -3.146226E-001 -2.545348E-001 -2.029728E-001 -1.666143E-001 -1.175423E-001 -7.981494E-002 -2.263236E-017 -1.151413E-002 3.064054E-002 8.479401E-002 1.275939E-001 1.421935E-001 1.247044E-001 9.997025E-002 8.361812E-002 8.369823E-002 6.993838E-002 2.016409E-002 9.717868E-003 -4.170991E-017 3.815257E-003
<VARIANCE> 39
 1.226799E000 2.116213E000 3.610373E000 4.580494E000 6.042414E000 7.467021E000 6.972121E000 6.595126E000 6.497898E000 5.522998E000 5.084077E000 1.000000E-004 2.419869E-003 1.072115E-001 2.047000E-001 3.469911E-001 5.131818E-001 6.688856E-001 8.638459E-001 8.252137E-001 8.003208E-001 7.160677E-001 5.975062E-001 5.251955E-001 1.000000E-004 1.697205E-004 2.729827E-002 5.089440E-002 7.722810E-002 1.038266E-001 1.557968E-001 1.852197E-001 1.725906E-001 1.687085E-001 1.579983E-001 1.403005E-001 1.241252E-001 1.000000E-004 1.000000E-004
<STATE> 3
<NUMMIXES> 5
<MIXTURE> 1 0.19757752
<MEAN> 39
 -1.900601E001 1.304777E001 -3.463854E000 3.592924E-001 -2.840395E000 6.619118E000 -6.649330E000 2.695617E000 -1.481261E-001 1.217819E000 -2.003878E000 1.947109E-014 9.441946E-001 -8.488682E-005 -1.169410E-003 4.208011E-004 9.770792E-004 -7.247497E-004 -2.176433E-004 1.888080E-003 -2.744091E-003 8.737409E-004 1.130849E-004 7.976664E-004 8.650811E-018 -3.693746E-005 7.397855E-005 8.518441E-004 2.426628E-004 -1.324504E-003 -4.265394E-004 1.742497E-003 -4.981683E-004 -3.724214E-004 -3.116682E-004 6.198041E-004 -1.764590E-004 -3.617197E-018 -1.306008E-006
<VARIANCE> 39
 1.043705E-001 1.268291E000 8.403799E-001 1.557459E000 1.365309E000 1.457720E000 2.029230E000 1.726912E000 2.222885E000 1.354401E000 2.038595E000 1.000000E-004 3.292643E-004 1.185484E-002 9.957171E-002 9.468241E-002 1.565757E-001 1.529522E-001 1.746572E-001 2.154532E-001 2.060841E-001 2.456595E-001 1.535908E-001 2.451252E-001 1.000000E-004 1.000000E-004 2.447246E-003 1.703032E-002 1.925622E-002 2.997677E-002 3.120250E-002 3.634815E-002 4.380636E-002 4.338532E-002 4.983819E-002 3.162578E-002 5.130759E-002 1.000000E-004 1.000000E-004
<MIXTURE> 2 0.2591165
<MEAN> 39
 -1.477511E001 -6.341290E000 -1.328941E000 1.117141E000 4.882336E000 -6.014997E000 -3.045223E000 7.636992E-001 -1.197363E000 -2.010529E000 -3.731816E-001 1.643992E-013 3.096533E-001 8.290957E-002 4.831200E-002 1.637789E-002 6.674760E-002 -1.341292E-001 -4.260741E-002 3.309942E-002 3.812439E-002 3.206108E-002 -8.916416E-003 9.546282E-003 -4.788865E-016 -5.460677E-003 -9.705683E-003 -1.888636E-002 8.706884E-003 4.200576E-003 -2.636259E-003 -5.001867E-003 1.087282E-002 4.244484E-002 1.515992E-002 -2.530114E-002 -1.870248E-002 -5.239990E-017 5.587635E-004
<VARIANCE> 39
 8.523870E000 6.247336E000 1.066547E001 1.639121E001 2.864908E001 1.711718E001 1.463350E001 1.018430E001 9.787841E000 7.995152E000 6.242008E000 1.000000E-004 3.849304E-002 1.494990E-001 3.425600E-001 4.524895E-001 6.665051E-001 7.209807E-001 8.537862E-001 8.308261E-001 8.121889E-001 6.972473E-001 6.348896E-001 5.513026E-001 1.000000E-004 2.191357E-004 2.553649E-002 6.736167E-002 9.505817E-002 1.379882E-001 1.502821E-001 1.775899E-001 1.628757E-001 1.643218E-001 1.424063E-001 1.262368E-001 1.121635E-001 1.000000E-004 1.000000E-004
<MIXTURE> 3 0.1799456
<MEAN> 39
 -1.979888E001 -1.272186E001 1.183345E000 6.544521E-001 5.123926E000 -6.522704E000 -5.314114E000 2.176780E000 9.258972E-001 -3.153737E000 -1.337623E-001 1.877283E-013 6.835668E-001 -2.887370E-002 -9.248332E-003 1.952804E-002 1.829438E-002 -2.930725E-002 -3.075041E-002 6.093560E-002 3.235057E-002 -1.863009E-002 7.045182E-003 -1.172153E-002 -9.542439E-017 -6.391824E-006 8.613952E-002 1.667082E-001 1.704269E-001 1.190960E-001 8.541184E-003 -2.633474E-002 3.111464E-002 4.353878E-002 -2.978902E-002 -7.723110E-002 -7.199924E-002 -1.857980E-016 -4.536201E-004
<VARIANCE> 39
 1.769081E000 3.688677E000 8.346218E000 7.456926E000 1.584792E001 1.139660E001 1.263339E001 9.390393E000 9.289062E000 6.980273E000 5.688688E000 1.000000E-004 1.228537E-002 1.090529E-001 2.770210E-001 4.138146E-001 5.496022E-001 5.402057E-001 7.176001E-001 6.761700E-001 6.512234E-001 5.575675E-001 6.285568E-001 5.518044E-001 1.000000E-004 1.156202E-004 1.793771E-002 4.250038E-002 6.474907E-002 1.046700E-001 1.100480E-001 1.593859E-001 1.478004E-001 1.195893E-001 1.068593E-001 1.328302E-001 1.106160E-001 1.000000E-004 1.000000E-004
<MIXTURE> 4 0.19497515
<MEAN> 39
 -1.855256E001 -1.018987E001 2.955345E000 2.056011E000 5.011239E000 -7.750379E000 -5.308174E000 1.678077E000 -1.208316E000 -4.530863E000 -1.128561E000 1.850547E-013 6.231980E-001 -6.342377E-003 1.661533E-003 9.854385E-003 5.435705E-002 4.849945E-002 6.530625E-002 1.454437E-002 2.933726E-002 2.428491E-002 1.502763E-004 3.331137E-003 -1.107537E-016 -5.491886E-004 -4.533102E-002 -9.747872E-002 -1.131625E-001 -3.576781E-002 -7.605263E-003 2.467099E-002 8.430292E-002 1.691704E-001 1.874416E-001 1.241468E-001 5.929385E-002 3.889701E-017 7.643644E-004
<VARIANCE> 39
 1.961632E000 4.216674E000 7.037720E000 7.116251E000 9.856400E000 9.012437E000 9.780787E000 6.296342E000 5.798674E000 6.293948E000 5.632850E000 1.000000E-004 1.352156E-002 9.701798E-002 2.361900E-001 3.694388E-001 6.187367E-001 6.209813E-001 7.780042E-001 6.634308E-001 7.451096E-001 4.882109E-001 6.259707E-001 4.767226E-001 1.000000E-004 1.347974E-004 1.704395E-002 3.885718E-002 6.887165E-002 1.178779E-001 1.266154E-001 1.497937E-001 1.383138E-001 1.108986E-001 6.415424E-002 1.222546E-001 9.976126E-002 1.000000E-004 1.000000E-004
<MIXTURE> 5 0.16838528
<MEAN> 39
 -1.888115E001 -1.069251E001 2.503504E000 2.573952E000 5.308572E000 -7.626993E000 -4.467084E000 4.931735E000 1.740456E000 -3.225707E000 -1.249890E000 1.807195E-013 6.200748E-001 8.069214E-004 -8.388232E-003 -1.796639E-002 3.140822E-003 -4.637859E-002 -1.361127E-001 -4.355369E-002 -4.002894E-002 -3.574993E-002 1.153106E-002 8.050838E-003 2.477500E-017 -6.822156E-006 -1.700275E-002 -1.913302E-002 -7.345702E-002 -1.229952E-001 -3.199843E-003 3.163554E-002 -1.264574E-001 -2.977434E-001 -2.032535E-001 -2.596379E-002 3.808034E-002 2.424220E-016 -1.339533E-003
<VARIANCE> 39
 1.748290E000 5.685986E000 6.900769E000 6.508245E000 8.115300E000 7.621227E000 8.337800E000 7.125927E000 5.450169E000 6.411961E000 4.850800E000 1.000000E-004 1.618733E-002 1.076067E-001 2.737339E-001 3.758512E-001 5.484842E-001 5.472882E-001 7.018099E-001 6.355117E-001 7.669194E-001 5.173808E-001 5.643445E-001 4.806413E-001 1.000000E-004 1.357397E-004 1.612720E-002 4.233374E-002 5.479563E-002 9.894878E-002 1.074021E-001 1.377309E-001 1.158613E-001 1.053858E-001 7.366512E-002 1.038959E-001 9.781549E-002 1.000000E-004 1.000000E-004
<STATE> 4
<NUMMIXES> 5
<MIXTURE> 1 0.18976434
<MEAN> 39
 -7.591947E000 -1.295269E001 -5.424789E000 -1.775313E001 4.210998E000 1.227087E000 6.152979E000 -5.114378E-001 -3.835867E000 -1.563693E000 1.281345E000 2.389121E-013 9.251716E-001 -1.779414E-001 -3.275796E-001 -8.312400E-002 3.313974E-001 1.801698E-001 2.304023E-001 -1.816986E-001 -2.303313E-001 2.375199E-004 1.257120E-001 -7.411002E-002 -1.500237E-016 5.153937E-003 -1.277510E-002 4.383591E-002 5.401747E-002 6.049960E-002 5.457029E-002 -1.048412E-001 -8.606004E-002 -1.110038E-002 3.533425E-002 -1.590231E-002 2.871471E-002 7.824831E-017 -1.996756E-003
<VARIANCE> 39
 6.075992E000 1.095391E001 5.935589E000 1.405900E001 3.380061E001 3.150771E001 2.098940E001 3.357384E001 1.881868E001 9.395185E000 8.556608E000 1.000000E-004 3.755061E-003 2.130498E-001 5.584317E-001 5.810873E-001 8.515064E-001 1.466744E000 2.249772E000 1.713632E000 1.499641E000 1.136331E000 8.083951E-001 6.798058E-001 1.000000E-004 3.178000E-004 4.216883E-002 9.590656E-002 1.097730E-001 1.811423E-001 2.893264E-001 3.936946E-001 2.837508E-001 2.960010E-001 2.063039E-001 1.681947E-001 1.255921E-001 1.000000E-004 1.000000E-004
<MIXTURE> 2 0.21978578
<MEAN> 39
 -6.770052E000 -1.201639E000 1.877066E000 -1.647352E001 2.811074E000 -9.756598E000 1.534748E000 4.110864E000 -1.280366E000 -4.205918E000 4.435787E000 2.212022E-013 5.401047E-001 3.120553E-002 -2.152904E-001 -1.946154E-001 -1.933159E-001 1.265774E-001 1.931214E-001 9.832183E-002 -5.513990E-002 -1.468291E-002 5.119351E-002 2.935090E-002 1.192054E-015 1.186504E-002 3.796594E-002 -5.402191E-002 -1.437757E-001 -2.063835E-001 -2.010173E-001 -2.819309E-002 9.856102E-002 1.316380E-001 1.107741E-001 7.462261E-002 -2.442609E-002 3.035154E-017 4.315899E-003
<VARIANCE> 39
 4.847425E000 1.445870E001 1.717674E001 3.131110E001 1.362812E001 2.350986E001 1.113356E001 1.453513E001 9.881485E000 9.812062E000 1.188970E001 1.000000E-004 5.751377E-002 2.350908E-001 5.709081E-001 6.656396E-001 1.140898E000 9.685863E-001 1.095111E000 9.062015E-001 1.173856E000 8.901325E-001 6.322961E-001 7.082006E-001 1.000000E-004 5.654922E-004 4.390500E-002 9.726896E-002 1.253103E-001 2.000789E-001 1.550635E-001 2.076547E-001 1.782620E-001 1.925997E-001 1.525527E-001 1.306930E-001 1.416593E-001 1.000000E-004 1.000000E-004
<MIXTURE> 3 0.18770976
<MEAN> 39
 -6.338292E000 -7.745376E-001 1.844056E000 -1.885415E001 -3.059582E000 -1.343371E001 1.839289E000 7.615811E000 1.762982E000 -3.633438E000 5.505190E000 2.096280E-013 4.339285E-001 1.526581E-002 8.295287E-002 -7.243223E-002 -1.971026E-001 3.211769E-002 -1.153374E-001 3.814193E-002 9.971384E-002 -3.379690E-002 -1.582351E-001 -4.055585E-002 1.637091E-015 1.516627E-002 -5.748497E-002 -3.120698E-003 1.273207E-001 2.345811E-001 2.426924E-001 9.406956E-002 -8.096970E-002 -1.635846E-001 -1.452337E-001 -6.456485E-002 3.174447E-003 -1.571950E-016 -4.626417E-003
<VARIANCE> 39
 3.757055E000 7.528440E000 8.965865E000 1.786700E001 1.104808E001 1.768909E001 1.194888E001 1.713065E001 8.265058E000 1.225505E001 8.639931E000 1.000000E-004 4.262953E-002 2.458574E-001 4.010772E-001 6.300952E-001 1.118560E000 9.949533E-001 1.144459E000 9.362615E-001 1.260092E000 6.929251E-001 6.645909E-001 7.429971E-001 1.000000E-004 6.009161E-004 4.134599E-002 6.460101E-002 8.978463E-002 1.689549E-001 1.160277E-001 1.940625E-001 1.909307E-001 2.182137E-001 1.228594E-001 1.189106E-001 1.475940E-001 1.000000E-004 1.000000E-004
<MIXTURE> 4 0.24123535
<MEAN> 39
 -1.625272E001 -1.570741E001 3.412118E000 -7.531938E000 5.675251E000 -1.042116E001 2.282635E000 1.582763E000 3.445633E-001 -3.483704E000 1.502758E000 2.418378E-013 8.487158E-001 -6.597664E-002 9.737077E-002 1.807780E-001 -6.378435E-002 -1.414544E-001 2.113075E-002 1.517030E-001 -4.917471E-002 -3.306025E-002 5.224787E-002 1.015976E-003 -2.175289E-016 -3.220153E-003 6.182753E-003 -6.682727E-003 -1.150544E-002 -2.083994E-002 3.171926E-002 3.173350E-002 1.462960E-002 -2.555055E-002 -6.569438E-004 1.623982E-002 1.696801E-002 6.171297E-017 -3.207244E-004
<VARIANCE> 39
 2.953263E000 3.059954E000 8.769604E000 1.321982E001 1.078252E001 9.858183E000 1.172622E001 1.045954E001 7.657838E000 7.768075E000 4.565733E000 1.000000E-004 3.751364E-003 1.312423E-001 2.555842E-001 5.175987E-001 8.915263E-001 8.578065E-001 9.376562E-001 9.638234E-001 1.018946E000 7.440944E-001 7.682786E-001 5.028871E-001 1.000000E-004 1.000000E-004 2.677316E-002 4.966775E-002 1.076134E-001 1.779420E-001 1.734905E-001 1.907263E-001 2.147058E-001 2.250635E-001 1.605882E-001 1.539346E-001 1.027252E-001 1.000000E-004 1.000000E-004
<MIXTURE> 5 0.1615048
<MEAN> 39
 -1.281099E001 -1.689380E001 -2.925699E000 -1.037874E001 1.004408E001 -5.434340E000 -3.742882E-001 -7.304153E-001 1.274958E-001 -2.037529E000 1.927325E000 2.456115E-013 8.815262E-001 -2.013184E-001 -5.331196E-002 2.742315E-001 2.507820E-001 -2.481623E-002 -4.979675E-001 3.337297E-002 2.360450E-001 8.915962E-002 -2.085595E-001 3.836010E-002 3.668263E-016 -3.081341E-003 5.989996E-003 3.799434E-002 1.172716E-002 -8.158503E-003 -8.369533E-002 4.579546E-002 4.419807E-002 1.175637E-002 -3.048440E-002 -1.191892E-002 -5.251588E-002 -2.051993E-016 5.112999E-004
<VARIANCE> 39
 3.516289E000 2.972886E000 1.056305E001 1.112062E001 8.912021E000 1.851185E001 1.041655E001 9.634172E000 9.460874E000 8.088930E000 5.584771E000 1.000000E-004 2.541897E-003 1.524848E-001 2.867887E-001 5.415468E-001 9.110336E-001 9.764816E-001 1.194967E000 1.135281E000 8.159631E-001 9.528710E-001 7.304690E-001 6.203748E-001 1.000000E-004 1.255811E-004 3.050484E-002 5.597549E-002 1.137304E-001 1.813514E-001 1.845434E-001 2.646669E-001 2.320312E-001 1.535911E-001 1.868015E-001 1.417908E-001 1.342261E-001 1.000000E-004 1.000000E-004
<STATE> 5
<NUMMIXES> 5
<MIXTURE> 1 0.14318876
<MEAN> 39
 -5.010571E000 -5.778438E-001 7.159374E000 -4.831417E000 6.971514E000 -2.532250E000 3.071295E000 -3.011364E-001 -7.070304E-001 -4.897373E-001 -1.756396E-001 1.651019E-013 4.274617E-001 -1.149118E-001 2.940352E-003 1.542180E-001 -1.833607E-002 1.588792E-001 3.794992E-003 -6.421749E-002 -3.122010E-003 3.288787E-003 -2.188431E-002 1.756794E-002 1.035612E-015 1.609564E-002 1.332946E-002 -4.875065E-002 -5.945586E-003 -4.154690E-003 -4.667880E-002 3.177877E-002 1.675452E-002 1.182971E-002 3.555963E-002 -2.246990E-003 -3.820901E-003 -1.067336E-016 -1.769171E-003
<VARIANCE> 39
 3.042737E001 1.669140E001 2.066805E001 1.933137E001 1.293906E001 1.480289E001 1.259855E001 8.232848E000 9.004688E000 7.967567E000 6.987920E000 1.000000E-004 6.497251E-002 1.249163E000 1.197812E000 1.140064E000 1.001590E000 1.207210E000 1.122145E000 9.759936E-001 7.913544E-001 9.185846E-001 7.893418E-001 7.458075E-001 1.000000E-004 3.966898E-003 2.012152E-001 1.981792E-001 1.907441E-001 1.862839E-001 2.338342E-001 2.135533E-001 1.979880E-001 1.611264E-001 1.803180E-001 1.665891E-001 1.585186E-001 1.000000E-004 5.031183E-004
<MIXTURE> 2 0.23690936
<MEAN> 39
 -7.274128E000 -5.264881E000 1.889104E000 -8.839854E000 9.594182E-001 -2.964171E000 2.547671E000 -8.043584E-001 -4.019252E-001 -9.759218E-003 -2.522273E-001 1.476445E-013 -7.101147E-002 2.060509E-002 4.359769E-002 -3.551538E-002 -1.202161E-002 2.595974E-002 1.914324E-002 9.159558E-003 1.343448E-002 -1.896182E-003 -2.829095E-003 3.870853E-003 -1.166008E-017 -4.103259E-004 2.350541E-002 6.305032E-002 1.146560E-001 1.614068E-001 1.802917E-001 1.419410E-001 1.198719E-001 7.064433E-002 4.435642E-002 1.507318E-002 -1.893534E-003 -5.495187E-018 4.744621E-003
<VARIANCE> 39
 1.701811E000 4.490355E000 6.014558E000 5.432426E000 7.188052E000 7.996864E000 8.881946E000 7.846940E000 6.394775E000 5.819339E000 5.590567E000 1.000000E-004 3.414814E-003 1.444163E-001 2.759065E-001 4.682027E-001 6.310446E-001 7.809325E-001 8.779293E-001 8.851224E-001 7.726867E-001 6.753141E-001 6.403392E-001 5.670946E-001 1.000000E-004 3.262987E-004 3.096022E-002 5.423399E-002 8.661026E-002 1.055335E-001 1.343610E-001 1.536728E-001 1.705005E-001 1.594036E-001 1.302103E-001 1.359850E-001 1.189503E-001 1.000000E-004 1.000000E-004
<MIXTURE> 3 0.2464615
<MEAN> 39
 -6.795974E000 -4.802815E000 4.328525E000 -6.089773E000 3.621056E000 -7.018121E-001 4.811793E000 3.510457E-001 4.337584E-001 3.029611E-001 -3.128797E-001 1.491930E-013 4.768296E-002 1.057837E-002 3.490510E-002 -3.091398E-002 -8.895465E-004 -5.562361E-002 -1.653615E-002 -4.331832E-002 -1.295090E-002 1.745163E-003 8.482965E-003 -8.324457E-004 -2.246221E-016 -2.019999E-003 -4.537928E-002 -6.883950E-002 -1.216756E-001 -1.681226E-001 -1.730246E-001 -1.847880E-001 -1.354025E-001 -8.601994E-002 -5.102032E-002 -1.723191E-002 2.463666E-003 1.249423E-016 -3.540874E-003
<VARIANCE> 39
 3.051465E000 9.787784E000 1.031004E001 7.238091E000 8.799783E000 9.247248E000 9.100313E000 8.361242E000 7.193532E000 6.678380E000 5.503721E000 1.000000E-004 1.366621E-002 1.446294E-001 2.855608E-001 4.809814E-001 6.111678E-001 7.736757E-001 8.690634E-001 8.777792E-001 8.129123E-001 6.834399E-001 6.982101E-001 5.450823E-001 1.000000E-004 4.679144E-004 3.154403E-002 5.336967E-002 8.468796E-002 1.093596E-001 1.343116E-001 1.553341E-001 1.677929E-001 1.616547E-001 1.473664E-001 1.463146E-001 1.176995E-001 1.000000E-004 1.000000E-004
<MIXTURE> 4 0.21531835
<MEAN> 39
 -1.146819E001 -1.206284E001 5.757730E000 -9.696636E000 1.959456E000 -6.363697E000 5.325234E000 -1.985135E000 1.152065E000 -5.575052E-001 -3.147112E-002 1.868429E-013 2.379102E-001 6.991560E-002 5.140548E-002 1.626751E-002 9.900271E-002 5.275263E-003 1.103047E-001 2.952857E-002 4.312061E-002 -4.565920E-003 2.728733E-002 -2.788189E-002 -1.161569E-015 -9.510280E-003 1.015763E-002 2.221089E-002 1.907270E-002 1.897745E-002 3.430508E-002 3.996217E-002 7.616903E-003 1.087021E-002 -7.986691E-003 -5.560921E-003 -7.824852E-004 9.856840E-019 7.823888E-004
<VARIANCE> 39
 4.931989E000 5.485025E000 1.262399E001 1.673721E001 1.501502E001 1.423919E001 1.269286E001 1.386365E001 1.039437E001 7.497756E000 5.360741E000 1.000000E-004 2.916641E-002 1.343164E-001 2.648597E-001 4.421893E-001 6.203229E-001 7.297326E-001 8.053620E-001 8.347644E-001 8.533985E-001 7.232216E-001 6.273311E-001 5.309202E-001 1.000000E-004 1.083259E-004 2.885650E-002 5.709479E-002 9.559821E-002 1.292344E-001 1.512996E-001 1.756067E-001 1.759481E-001 1.740439E-001 1.560456E-001 1.312243E-001 1.118622E-001 1.000000E-004 1.000000E-004
<MIXTURE> 5 0.158122
<MEAN> 39
 -1.757272E001 -1.452382E001 6.811083E000 -1.102106E001 5.191237E000 -5.097495E000 4.198114E000 -3.792761E000 2.008770E000 -2.284216E000 4.978475E-001 2.361174E-013 7.663624E-001 1.077436E-001 -4.653142E-002 -6.563257E-002 -4.825426E-002 -8.049530E-002 -4.784948E-002 4.099294E-002 -6.107557E-002 1.370002E-002 6.311290E-003 -7.430013E-003 -1.836360E-017 -3.802901E-003 9.499704E-003 2.620811E-002 -7.295269E-003 -1.879527E-003 -5.090058E-003 -1.280270E-002 8.094138E-004 7.842383E-003 -4.903930E-003 1.341890E-002 2.351136E-003 -9.271259E-017 -1.010142E-003
<VARIANCE> 39
 6.580148E000 1.039002E001 1.072071E001 1.267363E001 1.292031E001 1.690276E001 1.535844E001 1.529141E001 1.118862E001 1.009154E001 7.717467E000 1.000000E-004 8.425291E-003 2.237217E-001 4.693116E-001 6.311582E-001 7.032426E-001 8.673739E-001 9.318597E-001 9.161699E-001 9.567624E-001 8.387092E-001 8.588446E-001 7.793170E-001 1.000000E-004 2.528270E-004 4.159807E-002 8.338338E-002 1.242910E-001 1.356145E-001 1.717088E-001 1.822784E-001 1.830494E-001 1.811936E-001 1.644337E-001 1.744164E-001 1.558198E-001 1.000000E-004 1.000000E-004
<STATE> 6
<NUMMIXES> 5
<MIXTURE> 1 0.1653787
<MEAN> 39
 -2.400851E001 -2.804598E000 -4.511405E000 -3.758952E000 6.240380E000 -5.039361E-001 1.954663E-001 -1.915194E000 1.080797E000 -3.076861E000 -8.787882E-001 2.191952E-013 8.703272E-001 4.591922E-002 -6.692468E-002 -8.352536E-002 -4.211617E-002 1.341586E-002 1.052810E-002 3.170541E-002 1.022546E-002 -1.891875E-002 1.314628E-002 3.484380E-003 -1.048162E-016 -3.077466E-003 6.674633E-003 5.726230E-003 7.095682E-003 -5.768611E-003 -8.041888E-003 1.394091E-003 7.755153E-004 -5.226245E-005 -5.305911E-003 7.032661E-003 1.073279E-002 -4.200005E-017 -5.847440E-004
<VARIANCE> 39
 3.997205E000 1.301917E001 1.940005E001 1.062280E001 1.295638E001 2.211950E001 1.563192E001 1.563310E001 1.834846E001 1.267501E001 1.984237E001 1.000000E-004 1.018363E-002 2.517399E-001 4.583380E-001 5.052144E-001 5.817503E-001 5.488130E-001 7.571180E-001 6.721537E-001 6.902340E-001 6.100630E-001 6.568542E-001 7.977806E-001 1.000000E-004 1.536143E-004 4.817662E-002 8.311004E-002 9.919595E-002 1.129860E-001 1.026103E-001 1.507980E-001 1.308647E-001 1.301533E-001 1.134301E-001 1.217597E-001 1.422940E-001 1.000000E-004 1.000000E-004
<MIXTURE> 2 0.2819173
<MEAN> 39
 -1.059599E001 2.771563E000 -5.203958E-001 -9.622224E-001 -1.126277E000 -2.617259E000 -7.562726E-001 1.341488E-001 -7.437500E-001 -1.002446E000 -2.757153E-001 1.225791E-013 -4.979281E-002 -1.507719E-003 2.829389E-002 4.518861E-003 2.920540E-003 -7.957020E-003 3.060905E-003 1.551909E-002 -4.403451E-003 1.212888E-002 1.307368E-002 7.082426E-003 -5.932508E-017 -3.375591E-004 -4.402025E-002 -6.589036E-002 -7.384416E-002 -6.661170E-002 -2.004917E-002 3.235471E-003 1.612832E-002 2.289345E-002 9.206725E-003 1.919313E-003 4.671669E-003 5.153760E-017 -9.733597E-004
<VARIANCE> 39
 1.312852E000 5.600437E000 4.362102E000 8.091825E000 7.261311E000 8.827966E000 7.586665E000 7.060548E000 5.686267E000 6.289454E000 5.127525E000 1.000000E-004 3.991911E-003 1.288471E-001 2.655783E-001 4.351285E-001 6.210766E-001 6.483770E-001 7.515593E-001 8.059145E-001 7.723561E-001 6.441812E-001 7.104410E-001 5.303712E-001 1.000000E-004 3.606490E-004 2.216725E-002 4.563651E-002 8.293758E-002 1.241877E-001 1.310332E-001 1.514150E-001 1.634951E-001 1.532753E-001 1.209072E-001 1.427325E-001 1.132248E-001 1.000000E-004 1.000000E-004
<MIXTURE> 3 0.27991337
<MEAN> 39
 -1.123956E001 2.453239E000 -1.542964E000 -2.174960E000 -1.886297E000 -2.919305E000 -7.953827E-001 -2.516184E-001 -6.126547E-001 -1.011512E000 -3.255365E-001 1.218479E-013 -1.491355E-001 -8.670865E-003 2.718468E-002 2.080866E-003 -1.240971E-002 3.435792E-003 1.606851E-002 -2.015691E-002 3.280877E-003 6.358237E-003 3.498946E-003 -2.176548E-003 -5.220126E-017 -1.060288E-004 1.912762E-002 3.904350E-002 5.212310E-002 4.988247E-002 4.872523E-002 2.783803E-002 1.432426E-002 1.069069E-002 6.314489E-003 9.574895E-003 7.809181E-003 3.888134E-017 1.877340E-003
<VARIANCE> 39
 1.482395E000 3.163700E000 3.798927E000 6.011896E000 6.573619E000 7.515598E000 7.900159E000 7.088904E000 5.600638E000 5.490355E000 5.003555E000 1.000000E-004 1.000000E-004 1.278464E-001 2.457847E-001 4.181634E-001 5.823779E-001 6.303155E-001 7.341523E-001 8.244599E-001 8.289404E-001 6.568400E-001 6.128188E-001 5.287960E-001 1.000000E-004 1.000000E-004 2.601717E-002 4.882080E-002 8.298942E-002 1.159638E-001 1.239828E-001 1.482743E-001 1.730925E-001 1.719957E-001 1.373796E-001 1.335907E-001 1.103805E-001 1.000000E-004 1.000000E-004
<MIXTURE> 4 0.055083513
<MEAN> 39
 -1.588150E001 3.964457E000 1.230850E000 -3.922421E000 1.608814E000 -1.235474E000 -1.571380E000 1.178867E000 -7.895654E-001 -1.749985E000 9.079010E-001 1.523126E-013 2.622702E-001 -4.526065E-001 5.590554E-002 1.723259E-001 5.628101E-002 3.582632E-001 1.485051E-001 -1.070897E-002 8.263039E-002 5.156254E-002 -1.074442E-001 4.503588E-003 3.139079E-015 4.144648E-002 5.800506E-002 -3.850793E-002 -4.941777E-002 5.263604E-002 -1.094523E-002 -2.235498E-002 2.130597E-002 -2.437427E-002 3.430781E-003 -8.604741E-003 -3.855234E-002 -2.338517E-016 -3.451292E-003
<VARIANCE> 39
 3.462864E001 1.533535E001 1.762434E001 2.164538E001 1.468876E001 1.286599E001 2.051029E001 1.413867E001 1.087600E001 7.574289E000 7.442339E000 1.000000E-004 8.663933E-002 2.074669E000 7.964895E-001 9.605631E-001 1.312441E000 1.053457E000 1.171689E000 1.701543E000 1.186047E000 9.382348E-001 7.690663E-001 7.564967E-001 1.000000E-004 8.064186E-003 2.982700E-001 1.319957E-001 1.717190E-001 2.100727E-001 2.074429E-001 2.275042E-001 3.229660E-001 2.269708E-001 1.951393E-001 1.619869E-001 1.473532E-001 1.000000E-004 1.358423E-003
<MIXTURE> 5 0.21770708
<MEAN> 39
 -1.435264E001 -1.458610E000 -2.456341E000 -3.935140E000 2.976071E000 -1.314829E000 1.342509E000 -8.407010E-001 -9.101701E-001 -1.220580E000 1.479189E-001 1.540052E-013 1.119871E-001 7.265511E-002 3.121816E-002 3.030880E-002 -1.281481E-002 -9.021181E-002 -4.685132E-002 -2.894845E-002 -3.575869E-002 -2.340048E-002 -3.752699E-003 -1.101899E-002 -6.213575E-016 -7.815660E-003 9.139939E-003 3.864198E-002 3.934493E-002 1.718900E-002 -2.331936E-002 -3.992582E-002 -4.970363E-002 -3.576101E-002 -1.771772E-002 -2.016401E-002 -1.563088E-002 -2.001136E-017 2.926059E-004
<VARIANCE> 39
 1.395791E001 2.196434E001 2.399288E001 1.879104E001 1.614021E001 1.301504E001 1.437553E001 1.678069E001 1.091744E001 8.239886E000 9.851487E000 1.000000E-004 3.093468E-002 1.261276E-001 2.812470E-001 4.725226E-001 5.824599E-001 7.132540E-001 7.016187E-001 8.251681E-001 7.949100E-001 7.065461E-001 6.426169E-001 5.498582E-001 1.000000E-004 1.877077E-004 2.918972E-002 6.193717E-002 1.036008E-001 1.293555E-001 1.575578E-001 1.527440E-001 1.755970E-001 1.780629E-001 1.598534E-001 1.410348E-001 1.160565E-001 1.000000E-004 1.000000E-004
<TRANSP> 7
 0.000000E000 1.000000E000 0.000000E000 0.000000E000 0.000000E000 0.000000E000 0.000000E000
 0.000000E000 9.961152E-001 3.884792E-003 0.000000E000 0.000000E000 0.000000E000 0.000000E000
 0.000000E000 0.000000E000 9.921277E-001 7.872344E-003 0.000000E000 0.000000E000 0.000000E000
 0.000000E000 0.000000E000 0.000000E000 9.849963E-001 1.500368E-002 0.000000E000 0.000000E000
 0.000000E000 0.000000E000 0.000000E000 0.000000E000 9.963754E-001 3.624558E-003 0.000000E000
 0.000000E000 0.000000E000 0.000000E000 0.000000E000 0.000000E000 9.963011E-001 3.698945E-003
 0.000000E000 0.000000E000 0.000000E000 0.000000E000 0.000000E000 0.000000E000 1.000000E000
<ENDHMM>
~o
<STREAMINFO> 1 39
<VECSIZE> 39 <NULLD> <MFCC_E_D_A>
~h "Hyphen"
<BEGINHMM>
<NUMSTATES> 7
<STATE> 2
<NUMMIXES> 5
<MIXTURE> 1 0.10253076
<MEAN> 39
 -1.711958E001 8.283721E000 -4.270309E000 1.854194E-001 -3.134920E000 5.385114E000 -5.739758E000 2.689698E000 -1.457183E000 1.478900E000 -1.894725E000 3.180435E-014 -1.512925E-001 2.672410E-001 -7.122058E-001 -1.355305E-002 -1.057847E-001 3.618575E-002 -2.734887E-001 1.693919E-001 -6.119327E-002 -1.162173E-001 -9.153305E-003 5.925706E-002 2.766560E-015 1.111719E-004 2.752642E-002 -1.436050E-003 4.532371E-002 -4.250826E-002 3.903105E-002 -1.722367E-002 2.927198E-002 -2.472444E-002 2.743045E-002 -4.146361E-004 4.426945E-005 4.341400E-016 3.985892E-004
<VARIANCE> 39
 8.149669E000 4.527445E001 3.489563E000 5.147260E000 4.155303E000 7.087462E000 6.288141E000 4.467865E000 8.351378E000 3.849243E000 3.843481E000 1.000000E-004 1.000000E-004 2.842003E-001 1.236973E000 4.059480E-001 4.406724E-001 4.558176E-001 4.451441E-001 4.443184E-001 4.977879E-001 5.388830E-001 3.132076E-001 3.403035E-001 1.000000E-004 1.000000E-004 5.571944E-002 1.834788E-001 7.991676E-002 7.274860E-002 9.910090E-002 7.864450E-002 8.676434E-002 1.089761E-001 1.043537E-001 6.030690E-002 7.218529E-002 1.000000E-004 1.000000E-004
<MIXTURE> 2 0.21038663
<MEAN> 39
 -9.737748E000 1.492264E000 -2.842978E000 -4.450796E000 -2.799971E-001 -1.036029E000 5.145052E-001 1.755548E000 1.018541E000 -2.103724E-001 -2.183935E-001 1.373475E-013 3.457698E-001 -8.146361E-003 3.613974E-003 1.292989E-003 -6.269269E-002 -5.336437E-003 1.489993E-002 1.840731E-002 1.725909E-002 8.293697E-003 -3.465651E-002 -4.105262E-002 -2.368409E-017 -2.071371E-003 1.103711E-001 2.086885E-001 2.443774E-001 1.776716E-001 7.021122E-002 -5.848068E-002 -1.563576E-001 -2.209466E-001 -1.869076E-001 -1.223959E-001 -4.419465E-002 -1.671240E-017 6.199405E-003
<VARIANCE> 39
 2.634421E000 2.449366E000 5.516579E000 1.114285E001 7.226967E000 8.869370E000 1.040992E001 6.975163E000 6.824693E000 6.285206E000 5.445334E000 1.000000E-004 1.273402E-002 1.444817E-001 2.704431E-001 4.799712E-001 6.713665E-001 6.121035E-001 7.610635E-001 8.168925E-001 8.274221E-001 7.807046E-001 6.806359E-001 5.145673E-001 1.000000E-004 4.108906E-004 2.618719E-002 3.129127E-002 7.545314E-002 1.111413E-001 1.185879E-001 1.518663E-001 1.564922E-001 1.399359E-001 1.350429E-001 1.350736E-001 1.070129E-001 1.000000E-004 1.000000E-004
<MIXTURE> 3 0.2249051
<MEAN> 39
 -8.682766E000 3.463158E000 -4.755099E-001 -1.669189E000 1.725662E000 -1.243935E-001 2.949620E-001 -4.333133E-001 -1.682928E000 -2.278979E000 -1.357972E000 1.359540E-013 4.264688E-001 -4.668120E-002 -4.666530E-002 -5.222753E-002 -7.480691E-002 -2.902317E-002 -6.843986E-003 -6.982401E-002 -8.543087E-002 -7.288649E-002 -2.767370E-002 -2.424871E-002 -8.730438E-017 -2.009303E-003 -4.302357E-002 -8.100697E-002 -1.360024E-001 -2.110903E-001 -2.647623E-001 -2.183094E-001 -8.166730E-002 1.248798E-001 2.408471E-001 2.487503E-001 1.579640E-001 2.301384E-016 -4.209311E-003
<VARIANCE> 39
 1.808278E000 2.378289E000 4.750661E000 8.191382E000 4.975940E000 5.857813E000 6.200674E000 5.853449E000 5.815243E000 4.793739E000 4.924139E000 1.000000E-004 1.582509E-002 1.396382E-001 2.371608E-001 4.409426E-001 5.880624E-001 6.765627E-001 7.591597E-001 7.642136E-001 7.095611E-001 7.306040E-001 7.522922E-001 5.192330E-001 1.000000E-004 4.321338E-004 2.664070E-002 3.959526E-002 7.415047E-002 1.038814E-001 1.024843E-001 1.213226E-001 1.207474E-001 1.232412E-001 1.157143E-001 1.080966E-001 9.267130E-002 1.000000E-004 1.000000E-004
<MIXTURE> 4 0.23353231
<MEAN> 39
 -8.780507E000 3.237311E000 -1.156071E000 -3.165302E000 -1.067360E000 -3.424555E000 -2.497676E000 -1.431842E000 -1.056481E000 -9.496146E-001 -4.198489E-001 1.370489E-013 3.792674E-001 2.003513E-002 4.716648E-002 9.287779E-002 -1.635735E-002 -2.489345E-002 -3.065701E-002 -3.217507E-002 1.549602E-002 1.253417E-001 7.379857E-002 1.924867E-002 -1.062086E-017 1.011519E-003 -1.082637E-002 -1.738588E-002 -1.014635E-002 3.273421E-002 1.654447E-001 2.995047E-001 3.574445E-001 2.701285E-001 1.253046E-001 4.298768E-002 7.928183E-003 2.038373E-017 2.917097E-003
<VARIANCE> 39
 1.678108E000 2.524601E000 4.336689E000 7.105965E000 5.563407E000 4.980188E000 5.469461E000 5.276044E000 4.731479E000 5.769319E000 5.110425E000 1.000000E-004 1.200713E-002 1.287947E-001 2.223137E-001 4.228315E-001 6.044261E-001 6.827185E-001 7.155210E-001 8.617980E-001 7.946429E-001 6.745369E-001 6.576349E-001 5.524136E-001 1.000000E-004 4.111331E-004 2.185202E-002 3.439856E-002 7.384109E-002 1.116642E-001 1.111994E-001 1.071322E-001 1.134281E-001 1.008495E-001 1.054800E-001 1.264765E-001 1.081009E-001 1.000000E-004 1.000000E-004
<MIXTURE> 5 0.2286452
<MEAN> 39
 -8.331120E000 3.797137E000 -9.871939E-001 -3.020997E000 -2.009711E-001 -1.316863E000 7.519280E-001 1.543345E000 9.707932E-001 5.909171E-001 4.696480E-001 1.387301E-013 4.429809E-001 -7.036550E-004 -1.028763E-002 -3.330696E-003 4.315040E-002 7.274419E-002 6.550007E-002 5.704105E-002 4.595852E-002 -3.382671E-002 -2.365726E-002 2.839172E-002 3.547170E-017 6.491939E-004 -5.628991E-002 -9.454668E-002 -6.903020E-002 9.639864E-004 2.679972E-002 -4.062347E-002 -1.429240E-001 -1.939321E-001 -1.870863E-001 -1.793598E-001 -1.215994E-001 -1.801691E-016 -4.205208E-003
<VARIANCE> 39
 1.153438E000 1.651791E000 3.229622E000 6.048171E000 4.887836E000 5.504414E000 6.016384E000 5.031704E000 4.689501E000 4.466272E000 4.500648E000 1.000000E-004 1.154335E-002 1.204479E-001 2.003295E-001 4.191537E-001 5.771820E-001 6.392634E-001 8.406449E-001 8.756775E-001 7.428800E-001 7.032420E-001 6.705260E-001 5.314076E-001 1.000000E-004 3.856174E-004 1.839130E-002 2.805780E-002 6.354501E-002 1.007279E-001 1.066413E-001 1.192047E-001 1.198417E-001 1.012998E-001 1.011004E-001 1.071149E-001 9.185779E-002 1.000000E-004 1.000000E-004
<STATE> 3
<NUMMIXES> 5
<MIXTURE> 1 0.14961699
<MEAN> 39
 -1.166198E001 2.598928E-001 2.656199E000 -7.803415E000 4.083174E000 -1.250093E000 3.784939E-001 -7.113611E-001 5.726724E-001 -1.522466E000 -1.033109E000 1.531820E-013 3.248355E-001 8.894573E-003 -1.195471E-001 1.049231E-001 -1.719051E-001 5.009602E-001 -4.912863E-002 1.591974E-001 -1.061650E-001 1.320046E-002 -1.653492E-001 -1.737847E-002 3.367650E-015 1.738809E-002 4.390335E-002 -4.554459E-002 -9.344415E-002 2.298956E-002 -3.042456E-002 1.497192E-002 1.165248E-002 1.266593E-002 -3.011574E-002 5.914549E-003 -1.411510E-002 -2.052455E-016 -5.695267E-004
<VARIANCE> 39
 2.291717E001 1.160945E001 1.182688E001 1.573798E001 1.915844E001 1.529678E001 2.387158E001 1.267330E001 1.078357E001 9.190145E000 8.833229E000 1.000000E-004 6.309352E-002 8.816539E-001 6.505311E-001 1.039122E000 1.010737E000 1.225790E000 1.093721E000 1.212649E000 1.095146E000 9.435685E-001 7.277224E-001 5.876711E-001 1.000000E-004 8.781633E-004 1.278083E-001 1.215264E-001 1.531254E-001 1.786519E-001 2.223975E-001 2.041370E-001 2.130453E-001 2.147384E-001 1.628166E-001 1.332933E-001 1.127722E-001 1.000000E-004 1.217115E-004
<MIXTURE> 2 0.26189008
<MEAN> 39
 -7.427567E000 -4.781180E000 2.123051E-001 -1.023931E001 1.246604E000 -4.218509E000 1.372679E000 -1.155222E000 -6.200745E-001 -7.877597E-001 -5.341250E-001 1.483195E-013 -4.266556E-002 -1.969631E-002 -4.890128E-002 -3.783871E-002 -5.696259E-002 -5.137809E-002 2.596877E-002 -1.415578E-002 -4.317716E-002 -5.001900E-002 -2.854585E-002 1.010854E-002 3.636893E-017 -2.555073E-003 4.852426E-002 1.359339E-001 2.119751E-001 2.587041E-001 2.287935E-001 2.441862E-001 2.163483E-001 1.756087E-001 1.406782E-001 9.296475E-002 4.506854E-002 -1.111483E-016 5.154952E-003
<VARIANCE> 39
 1.248065E000 2.108819E000 3.264469E000 4.467562E000 6.309910E000 7.628482E000 6.621237E000 6.980353E000 6.448134E000 5.092330E000 4.804836E000 1.000000E-004 3.776236E-003 1.288588E-001 2.887149E-001 4.227917E-001 6.161803E-001 7.269970E-001 1.009426E000 8.562608E-001 8.285586E-001 7.486828E-001 5.450219E-001 5.396063E-001 1.000000E-004 2.587693E-004 2.741423E-002 4.501266E-002 6.647902E-002 9.602944E-002 1.311052E-001 1.740429E-001 1.436839E-001 1.623513E-001 1.356168E-001 1.147165E-001 1.083745E-001 1.000000E-004 1.000000E-004
<MIXTURE> 3 0.18746759
<MEAN> 39
 -7.389813E000 -4.738510E000 7.910176E-001 -8.777112E000 3.234909E000 -1.127114E000 4.834070E000 2.000220E000 1.742481E000 6.805647E-001 1.120695E-001 1.476235E-013 -9.006914E-003 5.596319E-002 4.006774E-002 4.196919E-002 1.584637E-002 1.678621E-002 -3.106731E-002 -5.123891E-002 7.438280E-002 1.431189E-002 1.199177E-002 -4.385737E-002 -1.808435E-016 1.876348E-003 3.960371E-002 1.179150E-001 9.952942E-002 -6.566285E-003 -1.178607E-001 -2.585692E-001 -3.386074E-001 -3.289380E-001 -2.347841E-001 -1.215502E-001 -5.343779E-002 -9.766785E-018 5.553485E-004
<VARIANCE> 39
 1.288692E000 1.839474E000 2.927797E000 4.514741E000 6.041067E000 6.013673E000 5.724421E000 5.990762E000 6.154276E000 5.157466E000 5.079474E000 1.000000E-004 5.994913E-003 1.345168E-001 2.506391E-001 4.656022E-001 6.294981E-001 7.262012E-001 9.668054E-001 9.068767E-001 8.894295E-001 7.853927E-001 6.026260E-001 5.743548E-001 1.000000E-004 2.818061E-004 2.829381E-002 4.254946E-002 6.525321E-002 1.039042E-001 1.268826E-001 1.460317E-001 1.347235E-001 1.286689E-001 1.262341E-001 1.154039E-001 1.210714E-001 1.000000E-004 1.000000E-004
<MIXTURE> 4 0.2025078
<MEAN> 39
 -6.740911E000 -3.110778E000 2.533983E000 -7.861767E000 2.906619E000 -2.665401E000 2.404976E000 -7.384032E-001 -3.455864E-001 -4.775006E-001 -2.205254E-001 1.476343E-013 6.871358E-003 1.255735E-001 2.679521E-001 3.760070E-001 4.116502E-001 3.612745E-001 2.441397E-001 2.590268E-001 1.566473E-001 1.741844E-001 1.287972E-001 9.066793E-002 1.873190E-016 1.211717E-002 -7.059328E-002 -1.259387E-001 -1.608482E-001 -1.198053E-001 -6.362812E-002 -3.504276E-002 4.248929E-002 1.103592E-001 7.458852E-002 2.216634E-002 -4.574407E-003 -2.283874E-017 -1.850072E-003
<VARIANCE> 39
 1.093400E000 1.499002E000 2.513542E000 4.735674E000 6.866411E000 7.619452E000 5.996181E000 5.940443E000 5.741937E000 5.256339E000 4.523709E000 1.000000E-004 5.315983E-003 1.090536E-001 1.965180E-001 3.113714E-001 4.928828E-001 6.325381E-001 9.236035E-001 7.952768E-001 8.407801E-001 7.632010E-001 5.984110E-001 5.188434E-001 1.000000E-004 1.923145E-004 2.781721E-002 3.937359E-002 6.457052E-002 1.200074E-001 1.481918E-001 1.962858E-001 1.302087E-001 1.428825E-001 1.288408E-001 1.128257E-001 1.080012E-001 1.000000E-004 1.000000E-004
<MIXTURE> 5 0.1985175
<MEAN> 39
 -6.683205E000 -2.887290E000 2.982117E000 -7.342597E000 3.226803E000 -2.660499E000 2.943080E000 1.006006E-001 4.715908E-001 -1.085997E-001 -2.542382E-001 1.470644E-013 3.313728E-002 -1.348830E-001 -2.777990E-001 -3.828453E-001 -4.400251E-001 -3.609977E-001 -3.349957E-001 -2.335584E-001 -1.780745E-001 -1.285948E-001 -8.985288E-002 -3.904465E-002 2.136787E-016 -1.005707E-002 -6.205896E-002 -1.428419E-001 -2.057168E-001 -1.962352E-001 -1.186308E-001 -2.609570E-002 -2.845911E-002 -2.942782E-002 -5.407999E-002 -3.391260E-002 1.312874E-003 7.427449E-017 -4.645284E-003
<VARIANCE> 39
 1.132944E000 1.753780E000 2.700554E000 4.723061E000 6.567610E000 9.337817E000 7.245041E000 6.525838E000 6.429677E000 5.491898E000 5.137477E000 1.000000E-004 7.726037E-003 1.137844E-001 2.038197E-001 3.019350E-001 5.284075E-001 6.588554E-001 9.516549E-001 7.953576E-001 8.668367E-001 6.772672E-001 5.826252E-001 5.264872E-001 1.000000E-004 2.269122E-004 2.355968E-002 4.274163E-002 5.814004E-002 1.043030E-001 1.405596E-001 2.271962E-001 1.773267E-001 1.604850E-001 1.533214E-001 1.223466E-001 1.158006E-001 1.000000E-004 1.000000E-004
<STATE> 4
<NUMMIXES> 5
<MIXTURE> 1 0.065295495
<MEAN> 39
