~o
<STREAMINFO> 1 39
<VECSIZE> 39 <NULLD> <MFCC_E_D_A>
~h "Colon"
<BEGINHMM>
<NUMSTATES> 5
<STATE> 2
<MEAN> 39
 -8.624806E000 3.290795E000 -1.525223E000 -2.885324E000 8.377383E-002 -1.666953E000 2.678838E-001 -1.052123E-001 -4.188128E-001 -3.904726E-001 1.134919E-001 1.411165E-013 1.035482E-001 -1.152349E-002 1.952118E-003 -1.790582E-003 -3.385121E-003 1.891395E-003 -8.653773E-004 8.267006E-004 -5.819866E-004 3.708426E-003 -5.451390E-004 8.895279E-004 5.612932E-017 6.418863E-004 -2.548567E-003 1.425960E-004 -3.496633E-005 -2.789643E-004 1.416003E-004 -3.065530E-004 -6.101452E-005 -2.448407E-004 1.417076E-004 -5.840432E-004 3.119606E-004 1.288872E-017 1.253803E-004
<VARIANCE> 39
 2.122059E000 2.734945E000 4.392960E000 6.084365E000 6.606718E000 6.991751E000 8.335262E000 7.356296E000 6.395110E000 5.512515E000 4.958645E000 1.000000E-004 1.594624E-002 1.076233E-001 1.921725E-001 3.314099E-001 4.442683E-001 5.160297E-001 5.532911E-001 6.039922E-001 5.696220E-001 5.139784E-001 4.409750E-001 3.820895E-001 1.000000E-004 3.249786E-004 1.780030E-002 3.509771E-002 6.030631E-002 8.122746E-002 9.219363E-002 1.007044E-001 1.092673E-001 1.042700E-001 9.250001E-002 7.995683E-002 7.028523E-002 1.000000E-004 1.000000E-004
<STATE> 3
<MEAN> 39
 -1.792752E001 -3.253305E000 -4.133495E000 -4.220028E000 3.840457E000 -1.063035E000 1.068841E000 -1.420938E000 -1.062834E000 -1.626580E000 1.212765E000 1.866788E-013 4.203307E-001 3.856400E-003 -4.583037E-003 -6.102495E-004 9.204175E-004 4.909116E-004 1.470363E-003 -1.052545E-003 -7.723368E-004 -1.763410E-003 1.511306E-003 4.292518E-004 -3.052285E-017 -4.244386E-004 1.340800E-003 2.221895E-004 2.879401E-004 3.639415E-004 -1.803332E-004 -2.643799E-005 5.865916E-005 7.482457E-005 -2.578538E-005 4.125609E-004 3.330012E-005 -5.871710E-018 -6.160230E-005
<VARIANCE> 39
 2.787764E001 1.596259E001 1.295300E001 1.080353E001 1.752694E001 1.461274E001 1.606199E001 1.314273E001 1.478040E001 1.129364E001 1.397545E001 1.000000E-004 1.518040E-001 1.472355E-001 2.284495E-001 3.151983E-001 3.918970E-001 4.437401E-001 4.791047E-001 4.787111E-001 4.538792E-001 4.496385E-001 3.997980E-001 3.510758E-001 1.000000E-004 1.189402E-004 2.551122E-002 4.188446E-002 5.723906E-002 7.109340E-002 8.053973E-002 8.565141E-002 8.483919E-002 8.115920E-002 7.957586E-002 7.180489E-002 6.020593E-002 1.000000E-004 1.000000E-004
<STATE> 4
<MEAN> 39
 -1.169438E001 2.307793E000 -1.051665E000 -2.199024E000 -2.602177E-001 -5.752561E-001 -5.314977E-001 4.796355E-001 -5.721644E-001 -6.489781E-001 2.950513E-001 1.212850E-013 -9.903368E-002 -8.392400E-004 5.750003E-003 3.581271E-003 -1.589544E-003 -1.826250E-003 -1.272659E-003 -1.361385E-003 3.723813E-003 1.246731E-003 -1.842833E-003 -1.046818E-003 -1.258533E-017 1.149052E-005 -2.655313E-004 -3.739246E-004 -4.981746E-004 -5.271522E-004 1.018820E-005 1.361184E-004 -1.020332E-004 -1.756468E-005 -2.766113E-004 -2.001204E-004 -1.142355E-004 1.377053E-019 1.848333E-006
<VARIANCE> 39
 2.842474E000 3.992287E000 6.300728E000 1.140274E001 7.815391E000 7.394479E000 1.010362E001 1.052625E001 7.261375E000 6.614990E000 5.456824E000 1.000000E-004 1.028212E-002 1.012885E-001 1.836930E-001 3.278671E-001 4.566188E-001 5.188168E-001 5.760508E-001 6.092208E-001 5.662830E-001 5.420932E-001 4.658590E-001 3.913821E-001 1.000000E-004 1.000000E-004 1.737683E-002 3.375532E-002 5.920611E-002 8.080491E-002 9.389819E-002 1.046682E-001 1.083186E-001 1.022111E-001 9.839497E-002 8.526091E-002 7.136019E-002 1.000000E-004 1.000000E-004
<TRANSP> 5
 0.000000E000 1.000000E000 0.000000E000 0.000000E000 0.000000E000
 0.000000E000 9.986467E-001 1.353324E-003 0.000000E000 0.000000E000
 0.000000E000 0.000000E000 9.993768E-001 6.232263E-004 0.000000E000
 0.000000E000 0.000000E000 0.000000E000 9.991321E-001 8.679032E-004
 0.000000E000 0.000000E000 0.000000E000 0.000000E000 1.000000E000
<ENDHMM>
~o
<STREAMINFO> 1 39
<VECSIZE> 39 <NULLD> <MFCC_E_D_A>
~h "Comma"
<BEGINHMM>
<NUMSTATES> 5
<STATE> 2
<MEAN> 39
 -8.076452E000 3.461533E000 -1.344558E000 -3.667798E000 -5.373056E-001 -1.790348E000 -3.038854E-001 -5.145932E-001 -9.188719E-001 -1.130357E000 -4.473615E-001 1.405441E-013 1.426452E-001 -3.054700E-003 -4.751010E-003 3.557549E-003 2.053288E-004 4.124936E-003 -1.672774E-003 -1.130365E-004 1.261586E-003 1.330742E-003 -1.232934E-003 -2.526495E-003 3.388057E-018 1.270646E-004 -1.042868E-003 -1.708597E-003 7.128460E-004 -2.028775E-004 7.715200E-004 -3.187117E-004 -4.448514E-004 -1.953584E-005 4.198634E-004 3.821127E-004 2.999778E-004 4.936139E-018 7.566468E-005
<VARIANCE> 39
 1.741447E000 3.346404E000 4.796272E000 6.899248E000 6.704238E000 7.461011E000 8.245698E000 7.680346E000 6.217141E000 5.792154E000 5.530279E000 1.000000E-004 6.696010E-003 9.708042E-002 1.973932E-001 3.301049E-001 4.522832E-001 4.970483E-001 5.457904E-001 5.621151E-001 5.286714E-001 4.973443E-001 4.354684E-001 3.850267E-001 1.000000E-004 1.960535E-004 1.773406E-002 3.482842E-002 5.942173E-002 8.072278E-002 9.107345E-002 9.860154E-002 9.914214E-002 9.391901E-002 8.990434E-002 7.778207E-002 6.892405E-002 1.000000E-004 1.000000E-004
<STATE> 3
<MEAN> 39
 -1.457552E001 -8.753127E000 1.353931E000 -2.356056E000 5.196159E000 -2.957963E000 -3.076458E000 -2.337867E000 5.777094E-001 -6.184365E-001 -4.346676E-001 1.709208E-013 3.704677E-001 1.251666E-003 -7.037811E-003 -2.468940E-003 3.671774E-003 -3.242569E-003 3.921591E-003 -9.651685E-004 -1.375880E-004 1.370477E-003 1.466498E-003 -6.502559E-004 -3.334396E-017 -4.332621E-004 1.806042E-003 3.190490E-003 -1.032080E-003 8.942648E-005 -1.688048E-003 4.325525E-004 1.293885E-003 2.934171E-004 -9.128310E-004 -8.711346E-004 -3.399142E-004 -6.220828E-018 -1.085633E-004
<VARIANCE> 39
 1.195353E001 9.271376E000 8.389353E000 1.135178E001 1.624008E001 1.306402E001 1.052572E001 1.353762E001 7.284563E000 7.908264E000 5.670390E000 1.000000E-004 7.324287E-002 1.237082E-001 2.421899E-001 3.262086E-001 4.100415E-001 5.393389E-001 5.602770E-001 6.181608E-001 5.102487E-001 5.101116E-001 4.771814E-001 3.868146E-001 1.000000E-004 1.183552E-004 1.917481E-002 3.801834E-002 5.772797E-002 7.337637E-002 9.475083E-002 1.012479E-001 1.108556E-001 9.130892E-002 9.197988E-002 8.727507E-002 7.026117E-002 1.000000E-004 1.000000E-004
<STATE> 4
<MEAN> 39
 -1.079715E001 2.333074E000 -6.335273E-001 -2.398337E000 -7.325340E-001 -1.283282E000 -7.816572E-001 3.699564E-001 -5.667438E-001 -1.096173E000 -2.842279E-001 1.247065E-013 -4.932138E-002 -2.104332E-003 8.574317E-003 6.706092E-004 -3.078801E-003 -8.150454E-004 8.227148E-004 1.808484E-003 1.266120E-003 -1.882312E-003 -1.342324E-003 2.084474E-003 -2.417227E-018 -6.790239E-005 -1.768066E-004 -3.868361E-004 -9.331406E-005 1.268207E-004 3.012365E-004 7.060039E-005 -3.990458E-004 -2.502757E-004 2.754052E-004 2.016868E-004 4.988083E-005 1.427549E-019 2.538110E-006
<VARIANCE> 39
 3.467076E000 7.191318E000 7.158775E000 9.896219E000 7.937016E000 7.399507E000 9.806545E000 1.026759E001 7.068668E000 6.140298E000 5.966274E000 1.000000E-004 1.012083E-002 1.023428E-001 1.950051E-001 3.351741E-001 4.481708E-001 5.040449E-001 5.471173E-001 5.777469E-001 5.635040E-001 4.964692E-001 4.614998E-001 4.006948E-001 1.000000E-004 1.867844E-004 1.697450E-002 3.556615E-002 6.005902E-002 8.087172E-002 9.254651E-002 1.003667E-001 1.030919E-001 9.969503E-002 8.817113E-002 8.376328E-002 7.145023E-002 1.000000E-004 1.000000E-004
<TRANSP> 5
 0.000000E000 1.000000E000 0.000000E000 0.000000E000 0.000000E000
 0.000000E000 9.987589E-001 1.241147E-003 0.000000E000 0.000000E000
 0.000000E000 0.000000E000 9.981815E-001 1.818538E-003 0.000000E000
 0.000000E000 0.000000E000 0.000000E000 9.990034E-001 9.965897E-004
 0.000000E000 0.000000E000 0.000000E000 0.000000E000 1.000000E000
<ENDHMM>
~o
<STREAMINFO> 1 39
<VECSIZE> 39 <NULLD> <MFCC_E_D_A>
~h "EM"
<BEGINHMM>
<NUMSTATES> 5
<STATE> 2
<MEAN> 39
 -7.915351E000 2.965773E000 -1.938965E000 -3.460137E000 -8.866348E-001 -2.676353E000 -6.032654E-001 -5.090537E-002 -9.968073E-001 -1.394292E000 -6.476520E-001 1.412113E-013 1.440053E-001 -3.088374E-003 -3.217292E-003 -1.110787E-003 -8.407178E-003 1.083488E-002 2.996429E-003 -2.464528E-003 -9.432189E-004 -3.748116E-003 -2.998738E-003 6.598234E-004 2.521610E-017 1.173840E-004 -4.293666E-004 -1.461435E-004 6.831210E-005 -6.374331E-005 9.211390E-004 3.631248E-004 -9.769048E-005 7.713085E-004 -7.906769E-005 -3.577996E-004 -3.170444E-004 -3.209608E-019 1.264283E-005
<VARIANCE> 39
 1.873204E000 5.166144E000 6.214041E000 7.990909E000 7.682900E000 9.384474E000 9.103959E000 8.112437E000 7.232298E000 5.866634E000 5.775561E000 1.000000E-004 1.506054E-002 9.907980E-002 1.971655E-001 3.093365E-001 4.304595E-001 5.291634E-001 5.918201E-001 6.096720E-001 5.733116E-001 4.900312E-001 4.437305E-001 3.916421E-001 1.000000E-004 1.463370E-004 1.774388E-002 3.488268E-002 5.476473E-002 7.747049E-002 9.707172E-002 1.053575E-001 1.100057E-001 1.057568E-001 8.972041E-002 8.142384E-002 7.157700E-002 1.000000E-004 1.000000E-004
<STATE> 3
<MEAN> 39
 -1.833083E001 -5.005375E000 -1.251165E-002 6.460402E-001 4.034400E000 -3.533731E000 -4.988623E000 2.209334E000 -1.681695E-001 -2.357845E000 -1.104178E000 1.481541E-013 6.601017E-001 -3.963704E-003 -7.295365E-003 1.750961E-004 1.134862E-002 -7.912828E-004 -6.834100E-003 1.349066E-003 8.185754E-004 1.668346E-004 1.209441E-003 1.368323E-004 1.884032E-018 3.677889E-005 5.210018E-004 3.579734E-004 1.314222E-004 -1.341775E-004 -8.924669E-004 1.164837E-004 4.056265E-004 -5.138150E-004 -8.658267E-005 1.761578E-004 2.112226E-004 -3.462749E-019 -1.613094E-005
<VARIANCE> 39
 4.666834E000 9.670390E001 1.557474E001 1.408162E001 2.539291E001 4.257640E001 1.183657E001 9.694193E000 9.616047E000 9.550987E000 5.381962E000 1.000000E-004 4.103566E-002 7.001685E-002 1.809095E-001 2.245914E-001 3.462059E-001 3.719160E-001 4.640062E-001 4.418167E-001 4.323440E-001 3.844003E-001 3.952112E-001 3.260659E-001 1.000000E-004 1.000000E-004 1.262829E-002 3.217366E-002 4.034777E-002 6.292855E-002 6.803653E-002 8.295387E-002 7.983146E-002 7.891703E-002 7.208885E-002 7.397252E-002 5.907508E-002 1.000000E-004 1.000000E-004
<STATE> 4
<MEAN> 39
 -1.405009E001 5.705852E-001 -1.754458E000 -2.291977E000 9.504375E-001 -2.254317E000 -2.816584E-001 -3.724083E-001 -5.046480E-001 -1.470250E000 -2.222895E-001 1.468945E-013 1.257025E-001 7.016065E-004 4.258598E-003 6.164025E-004 -2.472769E-003 -1.083595E-003 2.196336E-003 -1.953331E-004 -3.517683E-004 4.233385E-004 2.285898E-004 2.519434E-004 -1.132031E-017 -1.150933E-004 -1.029712E-004 -8.812556E-005 -5.962775E-005 4.641478E-005 3.822720E-005 -1.906699E-004 -1.241440E-004 -2.927749E-005 1.040752E-004 1.325077E-005 1.206899E-005 3.230283E-019 1.991576E-006
<VARIANCE> 39
 2.706783E001 1.737547E001 1.376719E001 1.370647E001 1.923770E001 1.363459E001 1.211648E001 1.170185E001 9.519596E000 8.161335E000 8.669953E000 1.000000E-004 1.301827E-001 1.356715E-001 2.208972E-001 3.216915E-001 4.296885E-001 5.026372E-001 5.742193E-001 5.732439E-001 5.267075E-001 4.616633E-001 4.453033E-001 3.895260E-001 1.000000E-004 1.466112E-004 2.324245E-002 4.023328E-002 5.786554E-002 7.717068E-002 9.168810E-002 1.035034E-001 1.016474E-001 9.474135E-002 8.495245E-002 8.148076E-002 7.017379E-002 1.000000E-004 1.000000E-004
<TRANSP> 5
 0.000000E000 1.000000E000 0.000000E000 0.000000E000 0.000000E000
 0.000000E000 9.985132E-001 1.486778E-003 0.000000E000 0.000000E000
 0.000000E000 0.000000E000 9.989260E-001 1.074016E-003 0.000000E000
 0.000000E000 0.000000E000 0.000000E000 9.995505E-001 4.494786E-004
 0.000000E000 0.000000E000 0.000000E000 0.000000E000 1.000000E000
<ENDHMM>
~o
<STREAMINFO> 1 39
<VECSIZE> 39 <NULLD> <MFCC_E_D_A>
~h "Hyphen"
<BEGINHMM>
<NUMSTATES> 5
<STATE> 2
<MEAN> 39
 -8.886971E000 2.930178E000 -1.185483E000 -3.181670E000 -1.155317E-002 -1.364497E000 -3.734085E-001 3.028731E-001 -1.263684E-001 -7.790052E-001 -4.213364E-001 1.370974E-013 3.961687E-001 -4.987995E-003 -1.071537E-003 4.025197E-003 -8.530999E-003 3.851225E-003 2.219083E-003 -2.690967E-003 -1.882382E-003 2.247449E-003 -5.177456E-004 -2.295924E-003 7.401979E-018 -1.402139E-005 -3.944396E-004 -2.227393E-004 3.169676E-004 -1.695191E-004 2.302238E-004 4.196143E-005 -2.379535E-004 1.458093E-004 1.243372E-004 -2.750637E-004 -1.287121E-004 9.461053E-019 1.194653E-005
<VARIANCE> 39
 3.430060E000 3.531550E000 5.691636E000 1.001276E001 8.037749E000 8.831632E000 9.108185E000 7.674510E000 7.015069E000 6.533994E000 5.627114E000 1.000000E-004 1.432973E-002 9.662567E-002 1.873327E-001 3.263936E-001 4.584853E-001 5.124205E-001 5.613098E-001 5.773678E-001 5.617985E-001 5.064448E-001 4.647900E-001 3.907242E-001 1.000000E-004 1.937419E-004 1.722773E-002 3.464885E-002 5.924867E-002 8.391054E-002 9.418749E-002 1.041068E-001 1.062147E-001 1.039053E-001 9.224967E-002 8.381129E-002 7.133685E-002 1.000000E-004 1.000000E-004
<STATE> 3
<MEAN> 39
 -1.663097E001 -9.615307E000 -2.122697E-001 1.014590E000 5.283875E000 -4.407427E000 -4.115335E000 -5.570444E-001 8.558882E-001 -3.143442E000 -1.400689E000 1.737259E-013 7.740204E-001 7.366228E-004 -6.711155E-003 -3.770980E-003 1.103871E-002 4.367010E-004 -5.595893E-003 4.263895E-004 2.812255E-003 2.572323E-004 6.619472E-004 1.077440E-003 -1.675048E-017 -1.720889E-004 5.502748E-004 7.010094E-004 -7.143038E-005 -2.889056E-004 -7.623024E-004 1.527711E-004 4.395255E-004 -1.189103E-004 -4.987252E-005 4.061912E-004 3.529418E-004 -5.400175E-019 -1.517811E-005
<VARIANCE> 39
 1.197966E001 2.082664E001 1.219289E001 1.938670E001 1.908764E001 2.473661E001 1.343886E001 1.051935E001 8.372226E000 8.233179E000 5.983325E000 1.000000E-004 2.515948E-002 8.466295E-002 1.990794E-001 2.849376E-001 3.915735E-001 4.427743E-001 5.737209E-001 5.408981E-001 5.166655E-001 4.631259E-001 4.551944E-001 3.712466E-001 1.000000E-004 1.000000E-004 1.492637E-002 3.466041E-002 5.040510E-002 7.001680E-002 8.061551E-002 1.028126E-001 9.679081E-002 9.403329E-002 8.547664E-002 8.466438E-002 6.702937E-002 1.000000E-004 1.000000E-004
<STATE> 4
<MEAN> 39
 -1.143859E001 1.824227E000 -8.583133E-001 -1.068521E000 -8.448828E-001 -1.132846E000 -6.018984E-001 9.995323E-001 -2.488330E-002 -9.008734E-001 -2.417605E-001 1.172631E-013 1.551873E-001 7.318875E-004 6.661187E-003 -1.466718E-004 -3.748730E-003 -2.676160E-003 4.100824E-003 1.860768E-003 -1.107320E-003 -1.103773E-003 2.684378E-004 5.697191E-004 -1.134704E-017 -8.849693E-005 -1.621839E-004 -2.616063E-004 -6.057513E-005 3.415978E-004 4.442351E-004 -3.679588E-004 -9.952491E-005 8.532427E-005 7.999382E-005 4.990831E-005 2.111217E-005 4.451806E-019 1.282525E-005
<VARIANCE> 39
 3.360130E000 5.618433E000 5.257504E000 9.533996E000 9.183087E000 1.007630E001 9.325706E000 8.190195E000 6.438130E000 5.919617E000 5.328016E000 1.000000E-004 1.306463E-002 9.980374E-002 1.925481E-001 3.413941E-001 4.653421E-001 5.134073E-001 5.621844E-001 6.158569E-001 5.854878E-001 5.270488E-001 4.755270E-001 4.086579E-001 1.000000E-004 2.073442E-004 1.747634E-002 3.486643E-002 6.129061E-002 8.359987E-002 9.382880E-002 1.026314E-001 1.118257E-001 1.068078E-001 9.652298E-002 8.575124E-002 7.398045E-002 1.000000E-004 1.000000E-004
<TRANSP> 5
 0.000000E000 1.000000E000 0.000000E000 0.000000E000 0.000000E000
 0.000000E000 9.988828E-001 1.117170E-003 0.000000E000 0.000000E000
 0.000000E000 0.000000E000 9.989476E-001 1.052439E-003 0.000000E000
 0.000000E000 0.000000E000 0.000000E000 9.991001E-001 8.999111E-004
 0.000000E000 0.000000E000 0.000000E000 0.000000E000 1.000000E000
<ENDHMM>
~o
<STREAMINFO> 1 39
<VECSIZE> 39 <NULLD> <MFCC_E_D_A>
~h "Period"
<BEGINHMM>
<NUMSTATES> 5
<STATE> 2
<MEAN> 39
 -8.214412E000 3.401110E000 -1.585562E000 -3.376955E000 -1.565161E000 -1.980631E000 -3.897564E-001 -4.300359E-001 -9.331730E-001 -9.234577E-001 -4.568927E-001 1.344519E-013 7.465556E-002 -7.292058E-003 2.850908E-004 7.693528E-005 1.649860E-003 2.642496E-003 1.953786E-004 1.479595E-003 4.501534E-004 1.559734E-003 -4.064833E-004 5.535521E-004 2.595783E-017 3.533498E-004 -1.584956E-003 2.090481E-005 8.798204E-006 2.194043E-004 3.194551E-004 -2.804667E-004 9.169172E-005 -2.661003E-005 -1.707131E-005 -1.899739E-004 2.315544E-004 7.526710E-018 8.880574E-005
<VARIANCE> 39
 3.322202E000 4.125984E000 4.375397E000 6.793582E000 9.035822E000 9.487710E000 9.166194E000 7.197340E000 6.174302E000 5.572254E000 4.901290E000 1.000000E-004 1.305314E-002 9.954149E-002 1.868108E-001 3.117318E-001 4.270902E-001 5.049422E-001 5.496758E-001 5.865771E-001 5.503355E-001 4.900577E-001 4.427373E-001 3.843820E-001 1.000000E-004 2.466660E-004 1.732482E-002 3.390997E-002 5.710776E-002 7.831085E-002 9.291579E-002 9.993932E-002 1.052772E-001 9.844496E-002 9.014361E-002 8.067107E-002 7.019897E-002 1.000000E-004 1.000000E-004
<STATE> 3
<MEAN> 39
 -2.161365E001 -4.244722E000 -5.176472E000 -2.624235E000 4.880986E000 -6.809279E-001 9.784351E-001 -1.695157E000 -2.164825E000 -1.509276E000 1.179167E000 2.060317E-013 7.261415E-001 4.652436E-003 -4.677838E-003 -3.591942E-003 -1.039327E-003 1.875484E-003 1.590373E-003 -1.302964E-003 -1.559895E-004 -2.079878E-003 8.890399E-004 -1.605638E-004 -3.247659E-017 -6.109214E-004 2.361347E-003 2.415316E-004 4.793176E-004 5.156013E-005 -7.837713E-004 2.117562E-005 -1.303729E-004 1.469895E-004 1.438608E-004 2.805571E-004 -3.383394E-004 -1.101780E-017 -1.222895E-004
<VARIANCE> 39
 2.481204E001 3.403720E001 2.030446E001 1.438505E001 2.004712E001 2.726174E001 1.721478E001 1.552642E001 1.547888E001 1.371368E001 1.901629E001 1.000000E-004 6.467234E-002 2.158646E-001 3.104215E-001 3.724151E-001 3.771914E-001 4.586754E-001 5.117237E-001 4.489444E-001 3.929446E-001 4.175821E-001 3.891115E-001 3.517970E-001 1.000000E-004 1.000000E-004 3.975179E-002 5.829878E-002 6.808888E-002 6.929348E-002 8.289071E-002 9.285890E-002 8.090213E-002 6.785734E-002 7.301729E-002 6.940848E-002 5.973249E-002 1.000000E-004 1.000000E-004
<STATE> 4
<MEAN> 39
 -1.081350E001 2.183199E000 -1.276319E000 -1.878097E000 -1.288901E000 -1.113480E000 -1.220677E000 -4.394310E-001 -9.960750E-001 -7.707585E-001 -9.438267E-002 1.191857E-013 -1.025842E-001 2.762880E-003 3.529241E-003 3.400686E-003 -7.018504E-005 -5.498646E-003 -1.127698E-003 -7.694421E-004 9.978329E-004 1.590362E-003 1.972407E-004 -2.341424E-004 -2.855854E-017 -1.442378E-004 -2.110247E-004 -1.786443E-004 -4.267730E-004 -3.200230E-004 1.651450E-004 2.756990E-004 -4.584869E-005 2.357323E-005 -5.087375E-006 -1.776259E-005 1.905632E-004 7.976190E-019 3.667301E-006
<VARIANCE> 39
 3.318239E000 4.992400E000 5.819817E000 8.078579E000 9.823800E000 9.750135E000 9.533793E000 8.463663E000 6.754111E000 5.639529E000 5.867935E000 1.000000E-004 5.109612E-003 9.478084E-002 1.870125E-001 3.249407E-001 4.373528E-001 5.328256E-001 5.944266E-001 6.046301E-001 5.697066E-001 4.938569E-001 4.422993E-001 3.967303E-001 1.000000E-004 1.000000E-004 1.662303E-002 3.441322E-002 5.894880E-002 7.884354E-002 9.693792E-002 1.070730E-001 1.079837E-001 1.003055E-001 8.987197E-002 8.198912E-002 7.208460E-002 1.000000E-004 1.000000E-004
<TRANSP> 5
 0.000000E000 1.000000E000 0.000000E000 0.000000E000 0.000000E000
 0.000000E000 9.991637E-001 8.363128E-004 0.000000E000 0.000000E000
 0.000000E000 0.000000E000 9.988765E-001 1.123548E-003 0.000000E000
 0.000000E000 0.000000E000 0.000000E000 9.990522E-001 9.478329E-004
 0.000000E000 0.000000E000 0.000000E000 0.000000E000 1.000000E000
<ENDHMM>
~o
<STREAMINFO> 1 39
<VECSIZE> 39 <NULLD> <MFCC_E_D_A>
~h "QM"
<BEGINHMM>
<NUMSTATES> 5
<STATE> 2
<MEAN> 39
 -1.088430E001 6.481006E-001 -1.032399E000 -2.430773E000 7.788845E-001 -1.865205E000 8.564622E-001 -1.322461E000 -2.424278E000 -9.685942E-001 7.585510E-003 1.498883E-013 1.613873E-001 -2.812964E-003 2.836624E-004 -1.533051E-004 -2.410641E-005 9.698432E-004 -1.697367E-004 7.673161E-006 -6.029732E-004 9.424994E-004 -4.290838E-005 -7.800922E-005 1.002649E-017 1.297540E-004 -5.167439E-004 2.156159E-004 -2.747659E-005 -2.311905E-005 9.096832E-005 -7.105696E-005 1.705869E-005 -8.923549E-005 1.239020E-004 -8.757500E-005 -8.786575E-006 2.780860E-018 3.272467E-005
<VARIANCE> 39
 5.701100E000 1.436430E001 6.496109E000 1.033801E001 1.384961E001 1.017732E001 1.282415E001 1.056415E001 1.413256E001 6.919681E000 6.016821E000 1.000000E-004 8.368543E-002 1.316115E-001 2.596532E-001 3.456167E-001 4.483203E-001 5.426700E-001 6.374990E-001 6.124149E-001 5.542337E-001 5.317013E-001 4.668009E-001 3.893027E-001 1.000000E-004 1.549786E-004 2.064349E-002 4.155846E-002 5.842279E-002 7.780496E-002 9.582836E-002 1.115746E-001 1.083675E-001 9.701940E-002 9.501939E-002 8.446221E-002 6.958907E-002 1.000000E-004 1.000000E-004
<STATE> 3
<MEAN> 39
 -2.250684E001 -3.459152E000 -3.194772E000 -2.658785E000 7.166199E000 -1.564423E000 -8.064575E-001 -3.361825E000 3.202053E-001 -4.926230E-001 3.134489E-001 1.996568E-013 6.388528E-001 7.307900E-003 -8.065284E-003 1.046649E-003 -9.696747E-004 4.148679E-003 6.531353E-004 -4.169321E-003 -1.288930E-003 -2.798196E-003 2.164661E-003 1.163567E-003 -5.281753E-017 -9.386030E-004 2.848333E-003 -4.477875E-004 6.533920E-004 6.606179E-005 -9.937916E-004 2.351776E-004 3.616662E-005 6.083936E-004 -9.155869E-004 3.445470E-004 -1.477638E-004 -1.492008E-017 -1.578399E-004
<VARIANCE> 39
 1.411839E001 1.190718E001 1.427550E001 9.627344E000 1.719481E001 1.586979E001 1.897753E001 1.536096E001 1.704914E001 1.303006E001 1.866881E001 1.000000E-004 1.069107E-001 2.541031E-001 3.233680E-001 3.628947E-001 4.160708E-001 4.534862E-001 4.616354E-001 4.233161E-001 3.978110E-001 3.585549E-001 3.472314E-001 3.359663E-001 1.000000E-004 1.000000E-004 4.711171E-002 6.199702E-002 6.737433E-002 7.843979E-002 8.368216E-002 8.168688E-002 7.521055E-002 7.004595E-002 6.315269E-002 6.184060E-002 5.628137E-002 1.000000E-004 1.000000E-004
<STATE> 4
<MEAN> 39
 -1.171913E001 2.631159E000 -7.824215E-001 -2.047992E000 -7.628516E-001 -1.617609E000 -1.211487E000 1.344698E-001 -4.300808E-001 -4.371030E-001 2.830098E-001 1.208204E-013 -1.017191E-001 1.117368E-003 4.780347E-003 1.343308E-003 3.899776E-004 -3.745626E-003 6.549071E-004 3.126863E-004 2.749133E-003 -1.396886E-003 -1.584393E-003 -4.399026E-005 -1.593351E-017 -2.371459E-005 -1.506342E-004 -3.158423E-004 -3.258237E-004 -2.739268E-006 4.186071E-004 5.138349E-005 -1.719472E-004 -2.396404E-004 2.766945E-004 1.382095E-004 2.899644E-004 1.271943E-018 6.857672E-007
<VARIANCE> 39
 2.801073E000 3.460841E000 5.070226E000 6.924044E000 8.232838E000 7.087300E000 8.083998E000 9.301479E000 6.774749E000 6.017707E000 6.033494E000 1.000000E-004 9.761131E-003 1.128711E-001 1.911701E-001 3.140334E-001 4.484716E-001 5.437611E-001 5.999702E-001 6.197445E-001 5.566023E-001 4.874779E-001 4.708520E-001 3.935937E-001 1.000000E-004 1.000000E-004 1.914482E-002 3.511620E-002 5.645540E-002 8.222108E-002 9.955096E-002 1.091491E-001 1.113578E-001 1.007934E-001 8.861656E-002 8.493737E-002 7.083096E-002 1.000000E-004 1.000000E-004
<TRANSP> 5
 0.000000E000 1.000000E000 0.000000E000 0.000000E000 0.000000E000
 0.000000E000 9.997215E-001 2.785324E-004 0.000000E000 0.000000E000
 0.000000E000 0.000000E000 9.986330E-001 1.366973E-003 0.000000E000
 0.000000E000 0.000000E000 0.000000E000 9.991186E-001 8.813740E-004
 0.000000E000 0.000000E000 0.000000E000 0.000000E000 1.000000E000
<ENDHMM>
~o
<STREAMINFO> 1 39
<VECSIZE> 39 <NULLD> <MFCC_E_D_A>
~h "Quotes"
<BEGINHMM>
<NUMSTATES> 5
<STATE> 2
<MEAN> 39
 -8.106564E000 3.427934E000 -1.135490E000 -3.687125E000 -6.719908E-001 -2.117657E000 -6.243382E-001 -7.276141E-001 -4.731718E-001 -6.170262E-001 -2.270046E-001 1.420410E-013 1.078019E-001 -1.556642E-003 -3.229384E-003 4.020430E-003 -2.056959E-003 1.069352E-003 -3.485631E-004 -7.573671E-004 2.853067E-004 2.185273E-003 1.652409E-003 -1.842302E-005 -3.749884E-018 -2.536871E-005 -6.800846E-004 -1.125791E-003 3.008994E-004 -2.956854E-005 5.383533E-004 1.682926E-004 -2.283146E-004 -7.095032E-005 4.805277E-004 2.549494E-004 -1.873650E-004 1.141655E-018 2.364585E-005
<VARIANCE> 39
 1.560608E000 3.796085E000 5.497735E000 5.784368E000 7.118748E000 7.154873E000 7.436605E000 6.837338E000 6.432622E000 5.599975E000 5.187239E000 1.000000E-004 5.770034E-003 1.029362E-001 2.049559E-001 3.121655E-001 4.423413E-001 5.550518E-001 5.973732E-001 5.833429E-001 5.268098E-001 4.773058E-001 4.350307E-001 3.919152E-001 1.000000E-004 1.616860E-004 1.858951E-002 3.655092E-002 5.559308E-002 8.092672E-002 1.022659E-001 1.089095E-001 1.060860E-001 9.369845E-002 8.554160E-002 7.979374E-002 7.188798E-002 1.000000E-004 1.000000E-004
<STATE> 3
<MEAN> 39
 -1.407757E001 -7.012284E000 1.511701E000 -3.708556E000 4.234310E000 -1.717533E000 -2.626781E000 -3.445970E000 8.273273E-001 5.389741E-001 -2.195973E-001 1.627765E-013 2.278121E-001 -8.918694E-004 -1.971678E-003 -8.347470E-004 1.882190E-003 3.013005E-005 2.499146E-003 4.629758E-004 -1.645061E-003 -5.918750E-004 8.635800E-004 9.935206E-004 -8.430996E-018 -1.416694E-004 5.049150E-004 9.045314E-004 -1.313032E-004 -3.632139E-005 -6.400635E-004 -3.809542E-004 3.992024E-004 4.016590E-004 -2.328387E-004 -3.536875E-004 -6.820096E-005 -8.583891E-019 -1.261903E-005
<VARIANCE> 39
 1.133613E001 1.543454E001 9.549680E000 9.388071E000 1.898946E001 1.138889E001 1.021684E001 1.097534E001 6.850682E000 7.534510E000 6.198419E000 1.000000E-004 7.511765E-002 1.295947E-001 2.496033E-001 3.279921E-001 4.157685E-001 5.680848E-001 5.735767E-001 6.485232E-001 5.554336E-001 4.873917E-001 4.712463E-001 3.800762E-001 1.000000E-004 1.959509E-004 2.107052E-002 4.122614E-002 5.745921E-002 7.422292E-002 9.967619E-002 1.041277E-001 1.150092E-001 9.851905E-002 8.867784E-002 8.489481E-002 6.895825E-002 1.000000E-004 1.000000E-004
<STATE> 4
<MEAN> 39
 -1.149186E001 2.691816E000 -8.499164E-001 -2.743975E000 -8.706421E-001 -1.638239E000 -7.130002E-001 8.567119E-002 -8.120339E-001 -7.139632E-001 3.956408E-001 1.256581E-013 -1.121453E-001 -1.088296E-003 5.695729E-003 3.104577E-005 -9.755324E-004 -1.061869E-003 -2.672822E-003 1.113928E-003 5.161713E-003 -2.057832E-003 -2.779929E-003 8.776476E-004 -6.036242E-018 -6.713623E-005 -1.544823E-004 -2.310120E-004 2.131825E-004 2.804662E-004 5.701763E-004 3.992511E-004 -5.115310E-004 -6.936998E-004 -6.600072E-005 2.596732E-004 2.456825E-004 4.010775E-019 1.547556E-006
<VARIANCE> 39
 4.243599E000 4.433416E000 6.806619E000 8.842396E000 8.318168E000 8.728422E000 8.903829E000 1.142225E001 7.577433E000 6.540304E000 6.916845E000 1.000000E-004 5.454867E-003 1.178940E-001 1.929321E-001 3.189838E-001 4.531760E-001 5.508258E-001 5.978233E-001 6.135128E-001 5.533854E-001 5.025435E-001 4.577698E-001 4.053412E-001 1.000000E-004 1.115884E-004 1.922677E-002 3.465436E-002 5.605997E-002 8.234903E-002 9.917313E-002 1.091378E-001 1.098421E-001 9.942597E-002 9.038628E-002 8.260702E-002 7.269894E-002 1.000000E-004 1.000000E-004
<TRANSP> 5
 0.000000E000 1.000000E000 0.000000E000 0.000000E000 0.000000E000
 0.000000E000 9.985970E-001 1.402974E-003 0.000000E000 0.000000E000
 0.000000E000 0.000000E000 9.992111E-001 7.889269E-004 0.000000E000
 0.000000E000 0.000000E000 0.000000E000 9.989824E-001 1.017630E-003
 0.000000E000 0.000000E000 0.000000E000 0.000000E000 1.000000E000
<ENDHMM>
