~o
<STREAMINFO> 1 39
<VECSIZE> 39 <NULLD> <MFCC_E_D_A>
~h "Colon"
<BEGINHMM>
<NUMSTATES> 6
<STATE> 2
<MEAN> 39
 -8.222028E000 3.602730E000 -1.200050E000 -2.550131E000 5.155758E-001 -1.177525E000 6.632101E-001 2.025460E-001 -2.565013E-001 -2.522153E-001 2.003913E-001 1.604848E-013 1.689202E-001 1.783622E-002 7.574941E-003 -1.202531E-002 -1.989587E-002 5.946554E-003 6.567813E-003 1.166424E-002 -4.371432E-003 -1.056869E-002 -6.612116E-003 -1.597983E-002 -1.844494E-016 -2.135849E-003 -7.362299E-003 -1.105329E-003 2.980390E-003 5.466931E-003 9.177752E-005 -2.840835E-003 -3.778710E-003 -2.507073E-003 -1.749205E-003 -4.846634E-003 -1.464022E-003 1.593547E-017 -5.769619E-005
<VARIANCE> 39
 1.080211E000 1.555866E000 2.275173E000 3.385142E000 3.580667E000 4.034999E000 5.090768E000 4.561834E000 3.986261E000 3.510894E000 3.257503E000 1.000000E-004 1.601047E-002 6.121206E-002 1.149195E-001 2.146718E-001 2.686830E-001 3.605569E-001 3.808416E-001 4.228655E-001 4.075369E-001 3.925107E-001 3.422103E-001 3.072864E-001 1.000000E-004 3.927545E-004 1.254976E-002 2.156952E-002 4.199291E-002 5.136513E-002 7.045648E-002 7.482952E-002 7.862508E-002 7.934802E-002 7.568996E-002 6.576069E-002 5.937175E-002 1.000000E-004 1.000000E-004
<STATE> 3
<MEAN> 39
 -1.869817E001 -2.571497E000 -4.106952E000 -4.007259E000 3.855530E000 -9.118954E-001 1.422671E000 -9.778805E-001 -6.026493E-001 -1.756571E000 1.271892E000 2.095381E-013 5.025603E-001 -9.395490E-002 -8.615446E-002 -4.566987E-002 -2.113067E-002 4.325044E-002 9.611937E-003 2.013647E-005 -2.302819E-002 -5.143976E-003 2.771598E-003 1.699890E-002 4.226139E-016 2.042599E-003 7.449687E-003 -1.575993E-003 3.077673E-003 2.756764E-004 2.946330E-003 4.251274E-004 2.155087E-003 -3.970999E-005 4.215647E-005 4.992251E-003 2.056353E-003 -3.244686E-017 -3.684938E-004
<VARIANCE> 39
 3.694773E001 1.677132E001 1.215504E001 8.510655E000 1.542557E001 1.226215E001 1.186793E001 1.071942E001 1.224540E001 9.242955E000 1.450857E001 1.000000E-004 1.445556E-001 1.293834E000 4.882285E-001 4.774817E-001 4.640047E-001 6.275892E-001 6.845902E-001 6.792223E-001 6.814698E-001 8.509094E-001 6.854935E-001 9.418627E-001 1.000000E-004 3.936590E-003 1.770651E-001 7.977735E-002 8.137102E-002 8.356311E-002 1.071071E-001 1.254949E-001 1.223311E-001 1.279670E-001 1.556165E-001 1.258414E-001 1.792270E-001 1.000000E-004 4.918398E-004
<STATE> 4
<MEAN> 39
 -1.382794E001 -4.882628E000 -2.927575E000 -2.699658E000 4.650515E000 5.177478E-001 9.525784E-001 -2.009296E000 -2.023088E000 3.060170E-001 1.854518E000 1.729426E-013 6.929955E-002 2.658516E-001 2.036782E-001 1.621854E-001 1.674343E-001 -1.364235E-001 -4.841539E-003 -4.476190E-002 3.728378E-002 -1.596382E-002 1.891986E-002 -2.399073E-002 -2.027412E-015 -1.517120E-002 -1.605537E-002 2.624854E-002 -2.831006E-003 -2.452367E-003 -2.144570E-002 -7.714602E-003 -4.185175E-003 8.175656E-003 3.768492E-003 -1.620458E-002 -6.186148E-003 8.145737E-017 1.426088E-003
<VARIANCE> 39
 7.479654E000 9.090107E000 7.072875E000 9.478388E000 1.196630E001 7.804159E000 1.842478E001 1.127226E001 1.165541E001 9.523719E000 8.755091E000 1.000000E-004 2.089086E-002 7.908615E-002 1.439414E-001 2.572278E-001 3.183037E-001 4.133669E-001 4.079725E-001 4.332500E-001 4.536534E-001 4.138253E-001 3.664261E-001 2.745658E-001 1.000000E-004 1.551301E-004 1.236398E-002 1.910906E-002 4.281738E-002 6.120824E-002 7.504589E-002 7.699754E-002 7.838121E-002 9.025293E-002 7.793805E-002 7.396081E-002 5.352366E-002 1.000000E-004 1.000000E-004
<STATE> 5
<MEAN> 39
 -1.148746E001 2.910694E000 -5.677997E-001 -1.893091E000 1.033048E-001 -7.277837E-002 -1.098805E-001 1.016712E000 -3.537690E-001 -6.614920E-001 2.734771E-001 1.397876E-013 -6.748968E-002 -1.092373E-002 4.423214E-002 2.444025E-002 -3.704273E-002 -1.157603E-002 -5.415883E-004 -1.993641E-002 2.984720E-002 1.529085E-002 -1.971774E-002 -7.634460E-003 -6.517109E-017 -3.926119E-005 -1.048383E-003 -5.108260E-003 -3.256867E-003 -1.266402E-003 2.108706E-003 1.530853E-003 -2.575148E-003 -5.566718E-003 -2.276938E-004 1.258182E-003 -5.722903E-004 9.550900E-018 -4.519025E-005
<VARIANCE> 39
 2.468346E000 1.465299E000 4.412476E000 9.392570E000 4.900320E000 4.226774E000 7.563927E000 8.156709E000 4.673949E000 4.706277E000 3.645391E000 1.000000E-004 1.541898E-002 1.825271E-001 1.139694E-001 3.566381E-001 6.669472E-001 4.413724E-001 3.871334E-001 6.105626E-001 6.343577E-001 4.181508E-001 3.629342E-001 3.321478E-001 1.000000E-004 6.409559E-004 3.488368E-002 2.183598E-002 6.938960E-002 1.239303E-001 8.650527E-002 7.609637E-002 1.147061E-001 1.148124E-001 7.834762E-002 6.720585E-002 6.277627E-002 1.000000E-004 1.294271E-004
<TRANSP> 6
 0.000000E000 1.000000E000 0.000000E000 0.000000E000 0.000000E000 0.000000E000
 0.000000E000 9.812453E-001 1.875472E-002 0.000000E000 0.000000E000 0.000000E000
 0.000000E000 0.000000E000 9.907838E-001 9.216188E-003 0.000000E000 0.000000E000
 0.000000E000 0.000000E000 0.000000E000 9.643525E-001 3.564745E-002 0.000000E000
 0.000000E000 0.000000E000 0.000000E000 0.000000E000 9.878234E-001 1.217663E-002
 0.000000E000 0.000000E000 0.000000E000 0.000000E000 0.000000E000 1.000000E000
<ENDHMM>
~o
<STREAMINFO> 1 39
<VECSIZE> 39 <NULLD> <MFCC_E_D_A>
~h "Comma"
<BEGINHMM>
<NUMSTATES> 6
<STATE> 2
<MEAN> 39
 -7.774660E000 3.816566E000 -1.078523E000 -3.392639E000 -1.997618E-001 -1.302250E000 9.032211E-002 -3.456116E-001 -9.816957E-001 -1.230603E000 -4.384953E-001 1.600790E-013 2.206350E-001 1.447656E-002 1.206067E-002 -1.814460E-003 -5.577679E-004 2.824083E-002 -1.147752E-002 1.355257E-002 3.169783E-002 5.018218E-003 -3.206714E-003 -2.559756E-002 -2.100016E-016 -9.915573E-004 -6.840175E-003 -1.098012E-002 2.794377E-003 9.054733E-003 9.190819E-003 -1.463597E-003 -4.606254E-003 -8.553135E-004 3.142556E-003 3.244257E-003 3.535030E-003 2.881504E-017 1.878759E-004
<VARIANCE> 39
 1.028588E000 1.769659E000 2.837001E000 4.129586E000 3.979366E000 4.550625E000 5.153241E000 5.001566E000 3.714323E000 3.796070E000 3.502162E000 1.000000E-004 6.399593E-003 7.358419E-002 1.470316E-001 2.401078E-001 3.948886E-001 3.689476E-001 4.087444E-001 4.466818E-001 4.084184E-001 3.463132E-001 3.672909E-001 3.393395E-001 1.000000E-004 3.076382E-004 1.441144E-002 3.181681E-002 4.442409E-002 8.007056E-002 7.629069E-002 7.615608E-002 8.162952E-002 7.134342E-002 6.847403E-002 7.269523E-002 6.597950E-002 1.000000E-004 1.000000E-004
<STATE> 3
<MEAN> 39
 -1.607926E001 -6.753237E000 1.993261E-001 -3.087008E000 6.342760E000 -3.615298E000 -2.551947E000 -1.485909E000 2.185881E-001 -1.269162E000 -6.234615E-001 2.056665E-013 6.202698E-001 -5.518327E-001 -8.347263E-001 9.869058E-002 -4.951525E-002 4.023933E-001 -1.359003E-001 -1.563293E-001 -2.744481E-001 8.461057E-002 4.055160E-002 7.677590E-002 3.772872E-015 2.453427E-002 3.341274E-002 3.129525E-002 1.037895E-002 -2.858223E-003 -1.682770E-002 4.061189E-002 2.540849E-002 -2.348657E-002 3.534628E-003 1.643700E-002 1.913674E-002 -2.740189E-016 -3.464620E-003
<VARIANCE> 39
 2.989364E001 4.092168E001 1.038634E001 1.265297E001 2.554804E001 1.203099E001 1.092180E001 1.371261E001 6.156621E000 6.089298E000 5.816886E000 1.000000E-004 1.012956E-001 2.812398E000 3.596126E000 1.369480E000 9.479388E-001 2.995325E000 1.016985E000 1.064661E000 8.872985E-001 5.392798E-001 6.184971E-001 4.827367E-001 1.000000E-004 9.960693E-003 4.719041E-001 6.711674E-001 2.970384E-001 1.656428E-001 5.792837E-001 2.052093E-001 2.143346E-001 1.706793E-001 1.127932E-001 1.281100E-001 1.064027E-001 1.000000E-004 1.473542E-003
<STATE> 4
<MEAN> 39
 -1.255711E001 -7.088719E000 1.653359E000 -1.302315E000 3.741879E000 -2.158328E000 -2.765298E000 -1.976448E000 7.278574E-001 -4.795543E-001 -6.855645E-001 1.727724E-013 2.541147E-001 1.614466E-001 1.995944E-001 -1.427306E-002 9.507439E-002 -1.743221E-001 6.937248E-002 3.682945E-002 8.843046E-002 -2.149187E-003 -6.666144E-003 -2.946503E-002 -1.650966E-015 -1.311033E-002 -2.154082E-003 1.494428E-002 -1.186824E-002 -1.005564E-002 -7.278828E-003 -5.783095E-003 5.046417E-003 7.559740E-003 -1.233451E-002 -1.159137E-002 -7.279085E-003 7.548163E-017 1.106923E-003
<VARIANCE> 39
 4.968944E000 9.975303E000 5.005334E000 7.134194E000 1.043783E001 8.193274E000 5.611740E000 1.075750E001 4.277931E000 5.332499E000 3.562963E000 1.000000E-004 2.315661E-002 6.039152E-002 1.323879E-001 1.890738E-001 2.772308E-001 3.563290E-001 3.682397E-001 4.459101E-001 4.204689E-001 3.446542E-001 4.244487E-001 2.836624E-001 1.000000E-004 1.706789E-004 1.007056E-002 2.125067E-002 3.428634E-002 5.474533E-002 7.139286E-002 7.241222E-002 8.525572E-002 8.300395E-002 6.494298E-002 8.228141E-002 5.627574E-002 1.000000E-004 1.000000E-004
<STATE> 5
<MEAN> 39
 -1.060422E001 3.128536E000 -3.697193E-001 -2.285589E000 -3.812402E-001 -7.628037E-001 -2.396708E-001 7.779450E-001 -6.593657E-001 -1.129887E000 -1.619854E-001 1.434604E-013 2.143335E-002 -1.964726E-002 7.624533E-002 1.310655E-002 -4.334313E-002 4.240189E-003 1.989188E-002 5.871699E-003 3.031784E-002 -1.801371E-002 -8.831003E-003 2.798801E-002 -6.669208E-017 -5.675308E-004 -2.137339E-003 -6.792216E-003 2.887012E-003 2.625087E-003 -1.790303E-004 -8.203773E-004 -6.144642E-003 -3.319773E-003 4.360092E-003 4.665467E-004 9.841039E-004 1.077318E-017 6.806345E-005
<VARIANCE> 39
 3.166732E000 2.939892E000 5.519588E000 7.515644E000 5.521104E000 4.624487E000 7.198555E000 8.109232E000 4.733855E000 4.138250E000 4.340673E000 1.000000E-004 1.536168E-002 2.147642E-001 1.477331E-001 4.126503E-001 5.181899E-001 4.227888E-001 3.868161E-001 5.534186E-001 5.742900E-001 4.331393E-001 3.493877E-001 3.462397E-001 1.000000E-004 7.412600E-004 4.007437E-002 2.659963E-002 7.725938E-002 9.372427E-002 7.823298E-002 7.743636E-002 1.058336E-001 1.031841E-001 8.437382E-002 6.634872E-002 6.489806E-002 1.000000E-004 1.453547E-004
<TRANSP> 6
 0.000000E000 1.000000E000 0.000000E000 0.000000E000 0.000000E000 0.000000E000
 0.000000E000 9.828635E-001 1.713645E-002 0.000000E000 0.000000E000 0.000000E000
 0.000000E000 0.000000E000 9.360014E-001 6.399864E-002 0.000000E000 0.000000E000
 0.000000E000 0.000000E000 0.000000E000 9.746729E-001 2.532708E-002 0.000000E000
 0.000000E000 0.000000E000 0.000000E000 0.000000E000 9.856601E-001 1.433987E-002
 0.000000E000 0.000000E000 0.000000E000 0.000000E000 0.000000E000 1.000000E000
<ENDHMM>
~o
<STREAMINFO> 1 39
<VECSIZE> 39 <NULLD> <MFCC_E_D_A>
~h "EM"
<BEGINHMM>
<NUMSTATES> 6
<STATE> 2
<MEAN> 39
 -1.138360E001 5.509603E000 -2.190436E000 -2.035925E000 -1.097337E000 7.918255E-002 -2.170012E000 5.591193E-001 -6.312973E-001 -5.779464E-001 -1.083023E000 1.266099E-013 3.917551E-001 2.310192E-002 2.472601E-002 1.087336E-002 -1.181329E-002 1.094608E-002 4.065324E-003 4.732194E-003 -1.026198E-002 -1.785111E-002 -1.119138E-002 5.393476E-003 -1.077667E-016 -8.932866E-004 -8.895529E-003 -6.779972E-003 1.870201E-003 -4.106589E-003 1.936873E-004 6.012878E-003 1.979477E-003 4.271732E-003 3.985061E-003 -1.278621E-003 3.736808E-003 2.846326E-017 -4.716394E-005
<VARIANCE> 39
 4.311565E001 1.171586E001 3.265759E000 5.609326E000 2.595201E000 2.295662E001 1.297579E001 4.423622E000 3.206195E000 4.297342E000 3.282526E000 1.000000E-004 1.284060E-001 5.640975E-002 1.118275E-001 1.880278E-001 2.681756E-001 2.636582E-001 3.090358E-001 3.438915E-001 3.373758E-001 3.187382E-001 2.391732E-001 2.476421E-001 1.000000E-004 1.789463E-004 1.061948E-002 2.070512E-002 3.806810E-002 5.482228E-002 5.147559E-002 5.886401E-002 6.756483E-002 6.435579E-002 6.361783E-002 4.399692E-002 4.802666E-002 1.000000E-004 1.000000E-004
<STATE> 3
<MEAN> 39
 -1.368448E001 -3.483464E000 -1.787351E-001 1.633573E-001 2.193593E000 -4.354760E000 -2.165862E000 1.110448E000 -6.901166E-001 -2.301800E000 -5.524728E-001 1.699922E-013 2.541977E-001 -1.974052E-002 -2.117570E-003 1.919302E-003 1.606577E-002 -5.726937E-004 1.567877E-003 -2.550835E-003 -5.054859E-005 7.725483E-003 5.785040E-003 2.088232E-003 -1.258906E-016 -1.430077E-003 -2.041087E-003 2.230663E-003 -9.036862E-004 5.408278E-004 7.577934E-004 -1.353999E-004 2.136491E-003 2.390455E-004 1.544394E-003 1.242953E-003 -4.960865E-004 1.146129E-017 1.805940E-004
<VARIANCE> 39
 1.888570E001 4.088301E001 9.696152E000 1.235806E001 2.194420E001 1.403483E001 1.274558E001 8.214697E000 7.312477E000 6.435060E000 4.398127E000 1.000000E-004 1.100537E-001 1.833824E-001 4.231040E-001 3.544295E-001 4.793395E-001 6.083950E-001 5.482784E-001 5.131176E-001 4.712827E-001 3.860555E-001 3.833760E-001 3.183857E-001 1.000000E-004 6.128071E-004 2.307171E-002 5.453938E-002 6.182587E-002 7.962212E-002 9.523522E-002 9.665259E-002 9.106964E-002 8.746275E-002 7.231105E-002 7.576203E-002 6.207069E-002 1.000000E-004 1.000000E-004
<STATE> 4
<MEAN> 39
 -2.313411E001 -2.470098E000 -4.595027E000 -3.869900E000 5.476962E000 1.065725E-002 8.799024E-001 -1.480292E000 8.655379E-001 -2.790534E000 -8.135045E-001 2.231323E-013 7.370570E-001 -1.907435E-001 -1.753620E-001 -1.271560E-001 -1.107370E-001 1.400536E-001 2.946975E-002 4.940217E-002 -5.732442E-002 -9.940434E-003 -2.409558E-002 -6.438303E-003 1.453459E-015 9.195650E-003 2.719271E-002 -7.180790E-003 1.225802E-002 -1.024669E-003 -4.919628E-003 -1.046488E-002 -2.501175E-003 -7.253047E-003 -3.692645E-003 7.460755E-003 -1.144233E-003 -1.370058E-016 -1.669329E-003
<VARIANCE> 39
 2.107575E001 2.020986E001 2.042254E001 9.587583E000 1.684778E001 1.637480E001 1.339235E001 1.354384E001 1.451217E001 1.132257E001 1.630453E001 1.000000E-004 9.026513E-002 1.733604E000 7.427904E-001 6.982107E-001 6.510032E-001 8.103155E-001 8.001229E-001 7.875263E-001 8.674459E-001 7.744247E-001 1.043696E000 1.232879E000 1.000000E-004 5.973840E-003 2.352273E-001 1.233702E-001 1.152175E-001 1.231828E-001 1.282349E-001 1.493189E-001 1.449616E-001 1.594456E-001 1.373381E-001 1.981283E-001 2.429203E-001 1.000000E-004 7.240009E-004
<STATE> 5
<MEAN> 39
 -1.260039E001 2.148015E000 -5.481081E-001 -3.419274E000 1.225687E000 -1.146993E000 1.991656E-001 -1.529664E-001 -8.718575E-001 -1.049684E000 1.771455E-002 1.548366E-013 2.179863E-002 9.267643E-002 1.118126E-001 9.044368E-002 3.471441E-002 -4.521572E-002 4.696576E-003 -2.203851E-002 5.360749E-002 -5.894944E-003 1.757826E-003 2.620220E-003 -7.301636E-016 -4.687347E-003 -9.027412E-003 1.991680E-003 -7.820320E-003 5.196774E-004 1.090565E-003 4.063665E-003 2.867810E-003 5.352908E-003 -3.894641E-004 -9.063241E-004 9.994485E-005 4.726941E-017 7.711423E-004
<VARIANCE> 39
 7.727973E000 1.391865E001 1.105649E001 7.329522E000 1.090005E001 7.050436E000 9.933235E000 1.045373E001 5.455930E000 4.903025E000 5.961300E000 1.000000E-004 2.517599E-002 4.573549E-001 1.945633E-001 3.502490E-001 5.163919E-001 4.416179E-001 3.930534E-001 6.765518E-001 5.476324E-001 3.834943E-001 3.508482E-001 3.133118E-001 1.000000E-004 1.159551E-003 8.980063E-002 3.126409E-002 5.505959E-002 1.059514E-001 7.367577E-002 7.376233E-002 1.381688E-001 1.047152E-001 7.330585E-002 6.783199E-002 5.925978E-002 1.000000E-004 1.903132E-004
<TRANSP> 6
 0.000000E000 1.000000E000 0.000000E000 0.000000E000 0.000000E000 0.000000E000
 0.000000E000 9.827237E-001 1.727629E-002 0.000000E000 0.000000E000 0.000000E000
 0.000000E000 0.000000E000 9.928366E-001 7.163405E-003 0.000000E000 0.000000E000
 0.000000E000 0.000000E000 0.000000E000 9.736893E-001 2.631068E-002 0.000000E000
 0.000000E000 0.000000E000 0.000000E000 0.000000E000 9.840031E-001 1.599687E-002
 0.000000E000 0.000000E000 0.000000E000 0.000000E000 0.000000E000 1.000000E000
<ENDHMM>
~o
<STREAMINFO> 1 39
<VECSIZE> 39 <NULLD> <MFCC_E_D_A>
~h "Hyphen"
<BEGINHMM>
<NUMSTATES> 6
<STATE> 2
<MEAN> 39
 -8.502717E000 3.325119E000 -1.090022E000 -2.513340E000 4.186505E-001 -1.095252E000 2.586206E-001 6.177434E-001 -9.431212E-003 -6.167530E-001 -3.860108E-001 1.566253E-013 4.652427E-001 4.685142E-004 9.904286E-003 2.319497E-002 -5.304902E-002 1.010056E-003 2.152324E-002 -1.325957E-002 2.848021E-003 1.190339E-002 -1.465658E-002 -6.396278E-003 -1.213730E-016 -2.071138E-003 -1.103365E-002 -3.061794E-003 7.708473E-003 -8.618808E-003 6.173546E-003 9.599960E-004 -9.167686E-003 -3.564688E-003 2.078683E-003 -4.719067E-003 -4.184785E-003 3.571377E-017 1.359680E-004
<VARIANCE> 39
 1.263979E000 1.901368E000 3.042679E000 5.470999E000 3.749170E000 4.689545E000 5.620186E000 4.802956E000 4.414762E000 4.293145E000 3.561674E000 1.000000E-004 1.454826E-002 7.148480E-002 1.263476E-001 2.421720E-001 3.443522E-001 3.236983E-001 3.951150E-001 5.262934E-001 4.512042E-001 4.167033E-001 3.974609E-001 3.155952E-001 1.000000E-004 4.069050E-004 1.420345E-002 2.504013E-002 4.778996E-002 6.660087E-002 6.447559E-002 7.857016E-002 1.050269E-001 9.034856E-002 8.319386E-002 7.797160E-002 6.075804E-002 1.000000E-004 1.000000E-004
<STATE> 3
<MEAN> 39
 -1.167086E001 -5.859451E000 5.016534E-001 -4.158871E000 3.389198E000 2.533370E000 -4.300840E000 -6.126207E-001 1.313295E-001 -3.748959E000 -9.082592E-001 1.747256E-013 6.644163E-001 -2.753043E-001 -6.559772E-001 -2.509319E-001 1.869166E-001 5.255964E-001 -9.063042E-002 -1.949728E-001 -2.001550E-001 5.301409E-003 -1.648806E-002 -5.283070E-002 2.372063E-015 2.224959E-002 1.490069E-002 -8.852558E-004 -4.609415E-004 8.881044E-002 -4.657459E-002 -6.893225E-002 4.407665E-003 3.435582E-002 1.578954E-002 1.710675E-002 -2.688562E-003 -2.319424E-016 -8.478086E-004
<VARIANCE> 39
 2.533203E001 7.909260E001 2.594880E001 3.061295E001 5.512356E001 1.720545E001 2.281729E001 1.764328E001 1.280806E001 8.179126E000 7.337817E000 1.000000E-004 5.249504E-002 4.375660E-001 9.842456E-001 9.920276E-001 1.348156E000 1.139579E000 9.619825E-001 7.603344E-001 9.095272E-001 1.146436E000 6.013141E-001 4.271801E-001 1.000000E-004 1.490015E-003 6.832606E-002 1.199603E-001 1.698533E-001 1.853262E-001 1.845980E-001 1.345544E-001 1.400619E-001 1.789386E-001 2.159185E-001 1.080513E-001 7.601868E-002 1.000000E-004 1.781802E-004
<STATE> 4
<MEAN> 39
 -1.754654E001 -9.637800E000 3.731805E-003 2.347689E000 5.612760E000 -5.898231E000 -3.912133E000 -4.798536E-001 9.428365E-001 -3.079869E000 -1.647240E000 1.940989E-013 8.048925E-001 3.250585E-002 9.776345E-002 7.361876E-002 5.457074E-002 -1.173554E-001 -5.463970E-002 5.164517E-002 8.104219E-002 9.838322E-003 7.912082E-003 1.165875E-002 -7.450616E-016 -7.736802E-003 1.042119E-002 1.176384E-002 -7.622660E-003 -1.906699E-002 4.410818E-004 2.268558E-002 9.057819E-003 -5.685930E-003 -1.047465E-002 -1.184497E-003 2.428045E-004 -1.637528E-017 -3.221875E-004
<VARIANCE> 39
 4.479669E000 8.652134E000 4.879835E000 7.097463E000 8.386194E000 9.687995E000 8.317329E000 6.224513E000 5.236861E000 6.021577E000 3.810438E000 1.000000E-004 2.432154E-002 1.338270E-001 1.953475E-001 2.150632E-001 3.107140E-001 3.973574E-001 4.784807E-001 4.342768E-001 3.995329E-001 3.620496E-001 3.653895E-001 2.623948E-001 1.000000E-004 2.560221E-004 1.733298E-002 2.767952E-002 3.649826E-002 5.279937E-002 6.514727E-002 8.934119E-002 8.307137E-002 7.116111E-002 7.260618E-002 7.220306E-002 5.158834E-002 1.000000E-004 1.000000E-004
<STATE> 5
<MEAN> 39
 -1.119470E001 2.116976E000 -4.990858E-001 -7.054422E-001 -3.410438E-001 -6.295285E-001 -1.272338E-001 1.348652E000 1.339724E-001 -8.299453E-001 -1.828185E-001 1.370451E-013 2.242300E-001 1.919213E-002 7.508095E-002 -1.221218E-002 -4.887386E-002 -4.450019E-002 5.649082E-002 2.311102E-002 -3.075625E-003 -1.311336E-002 3.530350E-003 9.968260E-003 -2.039624E-016 -1.507696E-003 -4.775999E-003 -5.924654E-003 1.118921E-003 3.405840E-003 5.139767E-003 -4.065448E-003 -3.710130E-003 -2.562240E-003 1.666221E-004 -3.032374E-003 -9.819483E-004 3.190909E-017 3.916925E-004
<VARIANCE> 39
 2.639869E000 4.345850E000 3.512036E000 6.986225E000 6.597558E000 7.054728E000 6.544437E000 5.482595E000 4.072289E000 3.886403E000 3.493576E000 1.000000E-004 1.640220E-002 1.149983E-001 1.309807E-001 3.095983E-001 4.275623E-001 3.891172E-001 3.364190E-001 5.171978E-001 4.819467E-001 3.821212E-001 3.658426E-001 3.155604E-001 1.000000E-004 6.371807E-004 2.194475E-002 2.153691E-002 6.201762E-002 8.296859E-002 7.410643E-002 6.412701E-002 1.001347E-001 9.340449E-002 7.515208E-002 7.340023E-002 6.278536E-002 1.000000E-004 1.220854E-004
<TRANSP> 6
 0.000000E000 1.000000E000 0.000000E000 0.000000E000 0.000000E000 0.000000E000
 0.000000E000 9.843444E-001 1.565564E-002 0.000000E000 0.000000E000 0.000000E000
 0.000000E000 0.000000E000 9.488194E-001 5.118060E-002 0.000000E000 0.000000E000
 0.000000E000 0.000000E000 0.000000E000 9.835761E-001 1.642388E-002 0.000000E000
 0.000000E000 0.000000E000 0.000000E000 0.000000E000 9.883178E-001 1.168221E-002
 0.000000E000 0.000000E000 0.000000E000 0.000000E000 0.000000E000 1.000000E000
<ENDHMM>
~o
<STREAMINFO> 1 39
<VECSIZE> 39 <NULLD> <MFCC_E_D_A>
~h "Period"
<BEGINHMM>
<NUMSTATES> 6
<STATE> 2
<MEAN> 39
 -8.102455E000 3.913077E000 -1.429579E000 -3.288889E000 -9.354187E-001 -1.912292E000 1.462569E-001 -2.876728E-001 -9.443492E-001 -8.990071E-001 -4.731749E-001 1.556737E-013 1.328851E-001 7.192812E-004 8.853245E-003 3.994538E-003 1.551811E-002 5.551400E-003 8.954387E-003 1.949894E-002 1.580990E-002 2.859175E-003 8.867942E-004 -5.388454E-003 -2.332905E-016 -1.960540E-003 -5.698772E-003 -1.373561E-003 3.731917E-004 1.554414E-003 3.263998E-003 1.082024E-003 1.770096E-003 -3.438048E-004 8.914102E-004 -1.589099E-003 -2.737380E-003 1.769053E-017 1.687050E-004
<VARIANCE> 39
 1.274156E000 1.640810E000 2.273838E000 3.657384E000 4.139975E000 4.431571E000 5.059914E000 4.454272E000 3.748717E000 3.376406E000 3.090492E000 1.000000E-004 1.292625E-002 6.133599E-002 1.173324E-001 2.058098E-001 3.070185E-001 3.776494E-001 4.024528E-001 4.586350E-001 4.068825E-001 3.424348E-001 3.310711E-001 2.935474E-001 1.000000E-004 3.281622E-004 1.233342E-002 2.272057E-002 4.166720E-002 5.922297E-002 7.471281E-002 7.616091E-002 8.617263E-002 7.838549E-002 6.645803E-002 6.413054E-002 5.715925E-002 1.000000E-004 1.000000E-004
<STATE> 3
<MEAN> 39
 -1.161544E001 -5.442665E000 2.393517E-001 -1.126858E000 -1.992249E000 3.417233E000 -2.566973E000 1.710672E-001 -7.152109E-001 -2.369944E000 1.675368E000 1.668243E-013 4.827812E-001 -9.840225E-001 -3.756829E-001 -1.359694E-001 7.359720E-002 4.476556E-001 -7.317142E-002 -1.105806E-001 -1.723605E-001 7.634737E-002 7.595916E-003 2.631177E-002 5.099381E-015 5.015249E-002 2.912385E-002 -4.218445E-002 -2.475017E-002 -1.292734E-002 2.299545E-002 3.962432E-002 -6.755466E-003 -4.617839E-002 -3.748273E-002 7.315372E-003 1.993988E-002 8.172534E-017 -6.551496E-004
<VARIANCE> 39
 8.355511E001 1.273866E002 1.721593E001 9.644071E000 2.814272E001 6.024255E001 1.614617E001 9.720667E000 1.134548E001 8.216827E000 1.841048E001 1.000000E-004 1.414900E-001 3.357586E000 1.069563E000 6.440453E-001 6.872090E-001 8.882509E-001 7.572467E-001 6.307960E-001 8.679646E-001 9.125827E-001 6.817792E-001 9.641597E-001 1.000000E-004 8.826139E-003 6.262967E-001 1.355391E-001 1.163398E-001 1.195578E-001 1.486019E-001 1.387353E-001 1.084580E-001 1.596893E-001 1.856899E-001 1.353153E-001 2.148809E-001 1.000000E-004 1.533637E-003
<STATE> 4
<MEAN> 39
 -2.305788E001 -3.786167E000 -6.166790E000 -2.541821E000 5.962780E000 -7.846972E-001 1.838353E000 -1.855639E000 -2.451292E000 -1.252529E000 1.005613E000 2.276993E-013 7.420620E-001 1.936295E-001 3.187627E-002 -1.429442E-002 -2.385975E-002 -4.985421E-002 2.989877E-002 1.466550E-002 8.954924E-003 -3.420874E-002 1.923084E-002 1.565064E-002 -1.024759E-015 -1.312177E-002 7.596834E-003 1.294352E-002 1.381050E-002 4.232370E-003 -1.260832E-002 -1.161543E-002 -1.137258E-003 1.204007E-002 8.591446E-003 -2.194380E-003 -5.858465E-003 -9.665650E-017 -4.900771E-004
<VARIANCE> 39
 1.325935E001 1.067411E001 1.217918E001 1.257073E001 1.447611E001 1.159268E001 1.308281E001 1.322762E001 1.210014E001 1.326620E001 1.846392E001 1.000000E-004 6.669203E-002 2.737102E-001 4.465459E-001 4.553891E-001 3.712147E-001 5.518823E-001 6.422858E-001 5.961498E-001 5.644572E-001 5.297261E-001 6.116391E-001 7.933432E-001 1.000000E-004 5.161201E-004 4.184892E-002 7.633372E-002 7.849155E-002 6.711058E-002 1.019369E-001 1.237076E-001 1.064480E-001 1.105410E-001 9.320548E-002 1.193295E-001 1.506736E-001 1.000000E-004 1.000000E-004
<STATE> 5
<MEAN> 39
 -1.061434E001 2.420503E000 -8.994269E-001 -1.562289E000 -8.712606E-001 -6.602101E-001 -8.855382E-001 -2.089479E-001 -9.459928E-001 -7.461227E-001 -6.567658E-003 1.387473E-013 -6.241674E-002 2.825680E-002 4.381906E-002 4.147801E-002 6.556549E-003 -5.479353E-002 -1.018071E-002 -9.456821E-003 1.699166E-002 1.117881E-002 -7.570583E-003 -8.595692E-003 -3.558680E-016 -1.766544E-003 -9.171423E-003 -7.843571E-004 -4.548186E-003 5.569013E-004 1.768767E-003 -3.049631E-003 -2.703276E-003 -4.005947E-003 -1.544246E-003 1.169842E-003 3.365605E-003 4.482636E-017 3.258873E-004
<VARIANCE> 39
 2.719605E000 3.767575E000 3.565193E000 5.810989E000 7.057301E000 6.645797E000 6.565693E000 6.157524E000 4.557914E000 3.926423E000 4.335952E000 1.000000E-004 8.110957E-003 9.958234E-002 1.075359E-001 2.613445E-001 3.713371E-001 3.335904E-001 3.607087E-001 4.317991E-001 5.129840E-001 3.838355E-001 3.392291E-001 3.234113E-001 1.000000E-004 4.305044E-004 1.719651E-002 1.988055E-002 5.007404E-002 7.281057E-002 6.569907E-002 6.885301E-002 8.226836E-002 9.963844E-002 7.597572E-002 6.840599E-002 6.334537E-002 1.000000E-004 1.000000E-004
<TRANSP> 6
 0.000000E000 1.000000E000 0.000000E000 0.000000E000 0.000000E000 0.000000E000
 0.000000E000 9.882491E-001 1.175094E-002 0.000000E000 0.000000E000 0.000000E000
 0.000000E000 0.000000E000 9.395409E-001 6.045914E-002 0.000000E000 0.000000E000
 0.000000E000 0.000000E000 0.000000E000 9.838326E-001 1.616740E-002 0.000000E000
 0.000000E000 0.000000E000 0.000000E000 0.000000E000 9.876246E-001 1.237535E-002
 0.000000E000 0.000000E000 0.000000E000 0.000000E000 0.000000E000 1.000000E000
<ENDHMM>
~o
<STREAMINFO> 1 39
<VECSIZE> 39 <NULLD> <MFCC_E_D_A>
~h "QM"
<BEGINHMM>
<NUMSTATES> 6
<STATE> 2
<MEAN> 39
 -7.948340E000 3.782521E000 -1.227272E000 -3.000571E000 -4.125906E-001 -1.897987E000 4.569328E-001 4.811376E-001 -6.199878E-001 -7.512679E-001 -1.354471E-001 1.595287E-013 1.926990E-001 1.382651E-002 6.899050E-003 -5.523065E-003 -2.909172E-002 1.033404E-002 -3.973936E-003 -5.549897E-003 -1.615788E-002 -1.577924E-002 -1.224962E-002 -5.494883E-003 -1.216809E-016 -1.864655E-003 -6.856382E-003 -7.744568E-003 1.691558E-003 -2.020609E-004 9.080962E-003 -3.928760E-003 4.120074E-003 3.542217E-003 2.196120E-003 -1.299775E-004 -3.893271E-003 5.080609E-017 4.118833E-004
<VARIANCE> 39
 1.041317E000 2.472638E000 2.373387E000 4.285694E000 3.839990E000 4.784515E000 4.733187E000 4.857621E000 3.683915E000 3.897751E000 3.297065E000 1.000000E-004 1.377448E-002 7.990661E-002 1.373377E-001 2.032032E-001 3.323684E-001 3.279158E-001 4.047351E-001 4.211811E-001 4.471288E-001 3.392630E-001 3.674267E-001 3.158259E-001 1.000000E-004 2.997068E-004 1.472199E-002 2.983936E-002 3.937425E-002 6.806330E-002 6.283406E-002 7.889757E-002 8.273084E-002 8.951560E-002 6.770276E-002 7.162119E-002 5.681876E-002 1.000000E-004 1.000000E-004
<STATE> 3
<MEAN> 39
 -1.146074E001 7.330663E-003 -5.627729E-001 -1.919650E000 1.527166E000 -1.607459E000 1.229558E000 -1.773561E000 -3.065721E000 -1.130422E000 -2.020153E-002 1.728621E-013 2.104479E-001 -1.185978E-002 -4.154264E-003 1.839667E-003 8.941677E-003 -5.184631E-003 6.212151E-004 -2.678565E-003 1.812501E-003 3.801322E-003 4.094717E-003 3.810675E-003 -8.212822E-017 -1.064745E-003 -1.609643E-003 2.833639E-003 -2.233031E-004 4.833320E-004 -1.623987E-003 1.444586E-003 -7.572119E-004 -6.647244E-004 8.479793E-004 4.880955E-004 5.234004E-004 -2.008101E-018 3.719345E-005
<VARIANCE> 39
 3.369510E000 1.348787E001 4.985865E000 8.762213E000 1.222758E001 7.405140E000 1.074725E001 8.764559E000 1.433971E001 5.761946E000 4.854448E000 1.000000E-004 1.055259E-001 1.767662E-001 4.135131E-001 3.720486E-001 4.011285E-001 4.626835E-001 5.131316E-001 4.935353E-001 4.648277E-001 4.427788E-001 3.837565E-001 3.186416E-001 1.000000E-004 5.740218E-004 3.421250E-002 7.702511E-002 7.333616E-002 7.635546E-002 8.537796E-002 9.984472E-002 9.577528E-002 8.677427E-002 8.372330E-002 7.414375E-002 6.200134E-002 1.000000E-004 1.000000E-004
<STATE> 4
<MEAN> 39
 -2.275645E001 -3.571143E000 -3.171259E000 -2.268613E000 7.230394E000 -1.009531E000 -4.568340E-001 -3.013960E000 4.626902E-001 -2.912340E-001 4.132119E-001 2.132816E-013 6.263763E-001 -5.556173E-002 -6.757621E-002 4.682980E-003 -1.045221E-002 1.029669E-001 -1.947409E-003 -3.156584E-002 -4.203224E-002 1.527237E-002 2.100069E-002 1.657306E-002 3.933343E-016 2.012556E-003 1.597865E-002 3.033583E-003 3.964142E-005 4.252143E-003 -9.893618E-003 -1.763811E-003 1.607561E-003 6.973220E-003 -3.327679E-003 -9.463239E-004 -9.220424E-004 -8.726407E-017 -7.635051E-004
<VARIANCE> 39
 2.565495E001 1.457838E001 1.307080E001 6.938066E000 1.924818E001 1.292877E001 1.614896E001 1.350391E001 1.497318E001 1.197239E001 1.893211E001 1.000000E-004 1.266883E-001 1.499930E000 7.113530E-001 5.663186E-001 4.010792E-001 7.543819E-001 6.737344E-001 7.344442E-001 8.118876E-001 7.871198E-001 7.134253E-001 1.083724E000 1.000000E-004 4.825960E-003 2.250403E-001 1.219087E-001 1.006874E-001 7.479832E-002 1.172783E-001 1.247958E-001 1.345679E-001 1.519474E-001 1.454396E-001 1.310855E-001 2.003827E-001 1.000000E-004 6.026175E-004
<STATE> 5
<MEAN> 39
 -1.149552E001 2.919296E000 -4.388204E-001 -1.721219E000 -3.571196E-001 -1.238371E000 -8.575365E-001 4.092418E-001 -3.060322E-001 -3.300131E-001 4.004664E-001 1.405998E-013 -6.300890E-002 3.185156E-002 5.417893E-002 9.104252E-003 -1.445042E-003 -6.370280E-002 5.783436E-003 1.324862E-002 3.965199E-002 -1.394731E-002 -1.960341E-002 -6.347321E-003 -2.481842E-016 -9.332416E-004 -5.280330E-003 -4.005060E-003 -1.291679E-003 -1.858046E-004 5.676732E-003 -5.504775E-004 -1.860263E-003 -4.559204E-003 2.487217E-003 8.758146E-004 7.982098E-004 3.514979E-017 2.581356E-004
<VARIANCE> 39
 2.267114E000 2.200049E000 3.400516E000 4.680382E000 5.468530E000 3.943484E000 5.071787E000 7.098013E000 4.625088E000 3.764256E000 4.337430E000 1.000000E-004 1.435079E-002 1.872658E-001 1.080054E-001 2.695858E-001 3.900213E-001 3.693694E-001 3.228704E-001 4.454345E-001 5.493497E-001 3.894524E-001 3.284584E-001 3.242136E-001 1.000000E-004 5.145046E-004 3.544285E-002 1.889124E-002 5.166286E-002 7.663616E-002 6.627360E-002 6.113214E-002 8.561052E-002 1.054025E-001 7.562821E-002 6.542864E-002 6.303741E-002 1.000000E-004 1.000000E-004
<TRANSP> 6
 0.000000E000 1.000000E000 0.000000E000 0.000000E000 0.000000E000 0.000000E000
 0.000000E000 9.832678E-001 1.673222E-002 0.000000E000 0.000000E000 0.000000E000
 0.000000E000 0.000000E000 9.953877E-001 4.612266E-003 0.000000E000 0.000000E000
 0.000000E000 0.000000E000 0.000000E000 9.836255E-001 1.637453E-002 0.000000E000
 0.000000E000 0.000000E000 0.000000E000 0.000000E000 9.885783E-001 1.142168E-002
 0.000000E000 0.000000E000 0.000000E000 0.000000E000 0.000000E000 1.000000E000
<ENDHMM>
~o
<STREAMINFO> 1 39
<VECSIZE> 39 <NULLD> <MFCC_E_D_A>
~h "Quotes"
<BEGINHMM>
<NUMSTATES> 6
<STATE> 2
<MEAN> 39
 -7.822469E000 3.714427E000 -9.484692E-001 -3.430341E000 -3.955925E-001 -1.789581E000 -3.109726E-001 -6.235589E-001 -4.625165E-001 -5.829521E-001 -1.590395E-001 1.617209E-013 1.739361E-001 2.087135E-002 1.263773E-002 2.011774E-002 -1.286129E-002 -4.898771E-003 -3.594234E-003 1.087349E-002 1.570938E-002 1.902102E-002 -1.312567E-003 -7.860865E-003 -1.653043E-016 -7.224100E-004 -7.086495E-003 -1.015420E-002 6.079932E-003 -3.209563E-004 4.650288E-003 5.038980E-003 -1.084135E-002 -4.945116E-003 1.645474E-003 3.314575E-003 -2.234223E-003 3.575761E-018 1.382954E-004
<VARIANCE> 39
 1.060866E000 2.551135E000 3.555791E000 3.419922E000 4.285268E000 4.323906E000 4.311064E000 4.264298E000 4.201141E000 3.544094E000 3.254529E000 1.000000E-004 5.576663E-003 6.654063E-002 1.556651E-001 2.624142E-001 3.152041E-001 3.620777E-001 4.091645E-001 4.222478E-001 4.313948E-001 3.884406E-001 3.379296E-001 3.339423E-001 1.000000E-004 2.639846E-004 1.243096E-002 3.396276E-002 5.405104E-002 6.341424E-002 7.180081E-002 7.998891E-002 8.331943E-002 8.733488E-002 7.663289E-002 6.598222E-002 6.803133E-002 1.000000E-004 1.000000E-004
<STATE> 3
<MEAN> 39
 -1.381787E001 -6.086443E000 2.226919E000 -3.361111E000 4.257596E000 -2.098175E000 -2.731074E000 -2.800327E000 1.055485E000 1.841463E-001 -4.222198E-001 1.840634E-013 3.270170E-001 -1.466354E-001 -2.112508E-001 1.567111E-002 -2.913232E-002 1.113647E-001 -2.887190E-002 -2.234532E-002 -7.727675E-002 6.734330E-003 2.763690E-002 2.263057E-002 8.675454E-016 5.642719E-003 7.398386E-003 1.012985E-002 -5.048684E-003 8.878235E-004 -9.040897E-003 3.700022E-003 1.236384E-002 1.571907E-003 -3.900141E-003 4.341586E-003 8.676961E-003 -5.258687E-017 -9.314916E-004
<VARIANCE> 39
 1.819105E001 2.234718E001 9.296101E000 7.905138E000 1.973103E001 7.396863E000 7.266331E000 9.085131E000 4.488423E000 5.332088E000 4.496062E000 1.000000E-004 9.132015E-002 1.414716E000 1.551505E000 8.311371E-001 5.414474E-001 1.445167E000 5.996706E-001 6.689764E-001 6.360235E-001 4.189786E-001 5.164166E-001 4.259308E-001 1.000000E-004 6.302342E-003 2.418440E-001 2.430448E-001 1.684187E-001 1.010655E-001 2.486454E-001 1.207827E-001 1.299003E-001 1.233518E-001 7.964315E-002 1.067357E-001 8.614007E-002 1.000000E-004 9.863618E-004
<STATE> 4
<MEAN> 39
 -1.378237E001 -7.236994E000 8.172316E-001 -3.356234E000 4.686463E000 -2.390807E-001 -2.046727E000 -4.145144E000 6.822831E-001 1.435603E000 2.468741E-001 1.755800E-013 1.781400E-001 1.753755E-001 2.368693E-001 -3.058669E-002 8.946959E-002 -1.731664E-001 1.128711E-001 3.959882E-002 7.886145E-002 -1.762074E-003 -4.940165E-003 -2.404765E-002 -1.681963E-015 -1.454708E-002 -3.565381E-003 7.285512E-003 -3.278243E-003 -9.605195E-004 3.274638E-003 -1.454231E-002 -5.329460E-003 4.938541E-003 4.555167E-004 -1.821816E-002 -1.515812E-002 7.205206E-017 1.264853E-003
<VARIANCE> 39
 4.832276E000 9.797090E000 4.560647E000 6.296509E000 1.201420E001 9.363809E000 6.626589E000 6.989945E000 4.845943E000 5.187904E000 4.960275E000 1.000000E-004 2.594771E-002 6.567788E-002 1.357342E-001 2.133228E-001 2.994992E-001 4.235334E-001 3.736419E-001 4.889230E-001 3.894048E-001 3.677044E-001 3.325964E-001 3.068900E-001 1.000000E-004 1.279009E-004 1.234381E-002 2.155367E-002 3.979311E-002 5.844898E-002 8.748329E-002 7.108323E-002 9.873518E-002 7.728957E-002 7.437658E-002 6.957959E-002 6.323859E-002 1.000000E-004 1.000000E-004
<STATE> 5
<MEAN> 39
 -1.133617E001 3.080260E000 -4.586116E-001 -2.546364E000 -5.553802E-001 -1.396843E000 -4.587677E-001 4.299843E-001 -7.697453E-001 -7.147369E-001 5.043793E-001 1.453546E-013 -6.622078E-002 -1.295934E-002 7.049140E-002 1.751912E-002 -2.015495E-002 -7.074746E-003 -2.987250E-002 -3.110167E-003 6.042814E-002 -3.377610E-002 -3.272286E-002 1.904469E-002 -4.774977E-017 -6.165134E-004 1.105067E-003 -6.057269E-003 3.207107E-004 3.027593E-003 1.387561E-003 4.636739E-003 -3.402679E-003 -8.463363E-003 1.963293E-003 2.867194E-003 -3.474866E-003 -6.187958E-018 1.737366E-005
<VARIANCE> 39
 4.278883E000 2.723033E000 5.425858E000 6.934781E000 5.290336E000 5.566668E000 5.954230E000 9.417645E000 5.751523E000 4.608144E000 5.555378E000 1.000000E-004 9.207579E-003 3.421781E-001 1.328437E-001 4.133685E-001 4.631642E-001 4.150410E-001 4.366071E-001 4.904762E-001 7.248022E-001 4.547318E-001 3.891405E-001 4.358488E-001 1.000000E-004 8.873288E-004 6.677617E-002 2.285331E-002 7.814112E-002 8.949506E-002 7.991213E-002 8.403940E-002 9.441097E-002 1.380378E-001 8.363133E-002 7.499512E-002 8.188035E-002 1.000000E-004 1.827520E-004
<TRANSP> 6
 0.000000E000 1.000000E000 0.000000E000 0.000000E000 0.000000E000 0.000000E000
 0.000000E000 9.809178E-001 1.908225E-002 0.000000E000 0.000000E000 0.000000E000
 0.000000E000 0.000000E000 9.848805E-001 1.511949E-002 0.000000E000 0.000000E000
 0.000000E000 0.000000E000 0.000000E000 9.737030E-001 2.629698E-002 0.000000E000
 0.000000E000 0.000000E000 0.000000E000 0.000000E000 9.864550E-001 1.354497E-002
 0.000000E000 0.000000E000 0.000000E000 0.000000E000 0.000000E000 1.000000E000
<ENDHMM>
